{"learner":{"attributes":{},"feature_names":[],"feature_types":[],"gradient_booster":{"model":{"cats":{"enc":[],"feature_segments":[],"sorted_idx":[]},"gbtree_model_param":{"num_parallel_tree":"1","num_trees":"300"},"iteration_indptr":[0,1,2,3,4,5,6,7,8,9,10,11,12,13,14,15,16,17,18,19,20,21,22,23,24,25,26,27,28,29,30,31,32,33,34,35,36,37,38,39,40,41,42,43,44,45,46,47,48,49,50,51,52,53,54,55,56,57,58,59,60,61,62,63,64,65,66,67,68,69,70,71,72,73,74,75,76,77,78,79,80,81,82,83,84,85,86,87,88,89,90,91,92,93,94,95,96,97,98,99,100,101,102,103,104,105,106,107,108,109,110,111,112,113,114,115,116,117,118,119,120,121,122,123,124,125,126,127,128,129,130,131,132,133,134,135,136,137,138,139,140,141,142,143,144,145,146,147,148,149,150,151,152,153,154,155,156,157,158,159,160,161,162,163,164,165,166,167,168,169,170,171,172,173,174,175,176,177,178,179,180,181,182,183,184,185,186,187,188,189,190,191,192,193,194,195,196,197,198,199,200,201,202,203,204,205,206,207,208,209,210,211,212,213,214,215,216,217,218,219,220,221,222,223,224,225,226,227,228,229,230,231,232,233,234,235,236,237,238,239,240,241,242,243,244,245,246,247,248,249,250,251,252,253,254,255,256,257,258,259,260,261,262,263,264,265,266,267,268,269,270,271,272,273,274,275,276,277,278,279,280,281,282,283,284,285,286,287,288,289,290,291,292,293,294,295,296,297,298,299,300],"tree_info":[0,0,0,0,0,0,0,0,0,0,0,0,0,0,0,0,0,0,0,0,0,0,0,0,0,0,0,0,0,0,0,0,0,0,0,0,0,0,0,0,0,0,0,0,0,0,0,0,0,0,0,0,0,0,0,0,0,0,0,0,0,0,0,0,0,0,0,0,0,0,0,0,0,0,0,0,0,0,0,0,0,0,0,0,0,0,0,0,0,0,0,0,0,0,0,0,0,0,0,0,0,0,0,0,0,0,0,0,0,0,0,0,0,0,0,0,0,0,0,0,0,0,0,0,0,0,0,0,0,0,0,0,0,0,0,0,0,0,0,0,0,0,0,0,0,0,0,0,0,0,0,0,0,0,0,0,0,0,0,0,0,0,0,0,0,0,0,0,0,0,0,0,0,0,0,0,0,0,0,0,0,0,0,0,0,0,0,0,0,0,0,0,0,0,0,0,0,0,0,0,0,0,0,0,0,0,0,0,0,0,0,0,0,0,0,0,0,0,0,0,0,0,0,0,0,0,0,0,0,0,0,0,0,0,0,0,0,0,0,0,0,0,0,0,0,0,0,0,0,0,0,0,0,0,0,0,0,0,0,0,0,0,0,0,0,0,0,0,0,0,0,0,0,0,0,0,0,0,0,0,0,0,0,0,0,0,0,0,0,0,0,0,0,0,0,0,0,0,0,0],"trees":[{"base_weights":[-5.248585E-3,3.822278E-1,-3.67908E-1,6.599647E-2,6.7380995E-1,-7.0112324E-1,-8.485111E-2,-1.4395819E0,1.3095954E-1,9.059158E-1,4.061023E-1,-5.122156E-1,-9.003845E-1,-1.6443649E-1,8.2529944E-1,-1.721958E0,-3.982252E-1,-2.8755036E-1,3.0640998E-1,1.1006585E0,7.329817E-1,6.241408E-1,2.6867795E-1,-3.7269095E-1,-8.272936E-1,-1.0569798E0,-5.623454E-1,2.406036E-1,-3.273591E-1,2.5908664E-1,1.3063407E0,6.010671E-3,-1.7955803E0,-6.711624E-1,4.4651616E-1,-7.716771E-2,-6.811958E-1,5.554314E-1,-2.7726104E-2,1.2830962E0,9.0143967E-1,6.5933317E-1,1.1663896E0,-4.686369E-2,7.20629E-1,-1.9116733E-2,4.547348E-1,-5.688885E-1,-1.7421849E-1,-3.4215128E-1,-9.217267E-1,-7.595689E-1,-1.2108982E0,-7.003675E-1,-3.2407215E-1,5.20292E-1,6.4107757E-3,-5.2667075E-1,-2.2307875E-2,5.676121E-1,-2.2465155E-1,1.5765041E0,-2.2890647E-1,2.9091448E-2,-2.7384518E-2,-9.124103E-2,-1.5618692E-2,-6.299038E-2,-1.8313685E-2,4.510481E-2,-1.24311885E-2,-2.8001135E-2,7.2996654E-3,-2.322683E-2,-4.73778E-2,3.6133602E-2,1.2136363E-2,-1.8198906E-2,1.2483501E-2,4.858964E-2,6.827889E-2,5.856655E-2,3.7578043E-2,4.1759364E-2,2.5400206E-2,7.165272E-2,4.000388E-2,7.856317E-3,-4.55327E-2,4.072634E-3,3.9447796E-2,9.655406E-3,-1.634995E-2,3.911662E-2,1.1138206E-2,-4.4690482E-2,-1.5042766E-2,3.678488E-3,-2.3257442E-2,2.125018E-2,-2.7975991E-2,-3.1449918E-2,-5.2226245E-2,-1.3342398E-3,-4.469137E-2,-5.28807E-2,-7.333625E-2,-2.7078299E-2,-4.4634726E-2,7.891475E-3,-1.9581204E-2,5.5176467E-2,2.1222224E-2,8.385809E-3,-2.228798E-2,-3.981713E-3,-3.4650184E-2,1.9584889E-2,-1.0262287E-2,3.656536E-2,-1.7748807E-2,5.6134243E-2,-2.1058075E-2,-1.0192918E-2,8.203852E-2,-2.2890788E-2,1.797749E-2],"categories":[],"categories_nodes":[],"categories_segments":[],"categories_sizes":[],"default_left":[0,0,0,0,0,0,0,0,0,0,0,0,0,0,0,0,0,0,0,0,0,0,0,0,0,0,0,0,0,0,0,0,0,0,0,0,0,0,0,0,0,0,0,0,0,0,0,0,0,0,0,0,0,0,0,0,0,0,0,0,0,0,0,0,0,0,0,0,0,0,0,0,0,0,0,0,0,0,0,0,0,0,0,0,0,0,0,0,0,0,0,0,0,0,0,0,0,0,0,0,0,0,0,0,0,0,0,0,0,0,0,0,0,0,0,0,0,0,0,0,0,0,0,0,0,0,0],"id":0,"left_children":[1,3,5,7,9,11,13,15,17,19,21,23,25,27,29,31,33,35,37,39,41,43,45,47,49,51,53,55,57,59,61,63,65,67,69,71,73,75,77,79,81,83,85,87,89,91,93,95,97,99,101,103,105,107,109,111,113,115,117,119,121,123,125,-1,-1,-1,-1,-1,-1,-1,-1,-1,-1,-1,-1,-1,-1,-1,-1,-1,-1,-1,-1,-1,-1,-1,-1,-1,-1,-1,-1,-1,-1,-1,-1,-1,-1,-1,-1,-1,-1,-1,-1,-1,-1,-1,-1,-1,-1,-1,-1,-1,-1,-1,-1,-1,-1,-1,-1,-1,-1,-1,-1,-1,-1,-1,-1],"loss_changes":[2.9941138E3,9.4970715E2,1.0379475E3,4.8350638E2,3.3249512E2,1.8967285E2,4.3121954E2,5.9228912E1,3.4809418E2,9.564453E1,7.437363E1,1.1375757E2,1.2938232E2,3.613553E2,1.2988678E2,2.060553E1,1.0696149E1,1.1584121E2,2.779868E2,4.7593872E1,4.7664307E1,6.2377106E1,8.19677E1,7.000685E1,3.6032654E1,7.5733154E1,2.5343903E1,1.0283328E2,2.37344E2,3.31783E1,1.0769974E2,2.7130518E0,5.894287E0,5.566967E0,3.9311721E0,9.859846E1,2.7548447E1,9.982477E1,1.332125E2,1.6430054E1,2.5126282E1,3.415216E1,2.00932E1,2.1668701E1,3.6583984E1,3.937382E1,7.035196E1,7.848331E1,6.478334E1,2.2176868E1,2.3104065E1,5.6503937E1,4.150305E1,1.443602E1,9.475674E0,3.938559E1,6.249195E1,1.7545807E2,1.1702348E2,2.0758339E1,2.336822E1,2.5646912E1,5.4945602E0,0E0,0E0,0E0,0E0,0E0,0E0,0E0,0E0,0E0,0E0,0E0,0E0,0E0,0E0,0E0,0E0,0E0,0E0,0E0,0E0,0E0,0E0,0E0,0E0,0E0,0E0,0E0,0E0,0E0,0E0,0E0,0E0,0E0,0E0,0E0,0E0,0E0,0E0,0E0,0E0,0E0,0E0,0E0,0E0,0E0,0E0,0E0,0E0,0E0,0E0,0E0,0E0,0E0,0E0,0E0,0E0,0E0,0E0,0E0,0E0,0E0,0E0,0E0,0E0],"parents":[2147483647,0,0,1,1,2,2,3,3,4,4,5,5,6,6,7,7,8,8,9,9,10,10,11,11,12,12,13,13,14,14,15,15,16,16,17,17,18,18,19,19,20,20,21,21,22,22,23,23,24,24,25,25,26,26,27,27,28,28,29,29,30,30,31,31,32,32,33,33,34,34,35,35,36,36,37,37,38,38,39,39,40,40,41,41,42,42,43,43,44,44,45,45,46,46,47,47,48,48,49,49,50,50,51,51,52,52,53,53,54,54,55,55,56,56,57,57,58,58,59,59,60,60,61,61,62,62],"right_children":[2,4,6,8,10,12,14,16,18,20,22,24,26,28,30,32,34,36,38,40,42,44,46,48,50,52,54,56,58,60,62,64,66,68,70,72,74,76,78,80,82,84,86,88,90,92,94,96,98,100,102,104,106,108,110,112,114,116,118,120,122,124,126,-1,-1,-1,-1,-1,-1,-1,-1,-1,-1,-1,-1,-1,-1,-1,-1,-1,-1,-1,-1,-1,-1,-1,-1,-1,-1,-1,-1,-1,-1,-1,-1,-1,-1,-1,-1,-1,-1,-1,-1,-1,-1,-1,-1,-1,-1,-1,-1,-1,-1,-1,-1,-1,-1,-1,-1,-1,-1,-1,-1,-1,-1,-1,-1],"split_conditions":[-8.1616E-6,-6.0012463E-2,2E-1,1E0,-2.2717979E-4,2.3191095E-4,8E0,7.0710677E-1,-5E-1,1.2246469E-16,3E-1,7.692308E-1,7.0710677E-1,-5E-1,9.896169E1,-1.404839E5,4.5045046E-3,-4.419781E-4,5E-1,-5.094367E-4,8.660254E-1,-3.1856827E-3,4.016811E-2,1.6210045E1,-7.074928E-3,-7.0710677E-1,2.5881904E-1,-1.8369701E-16,5E-1,6.6917605E-4,8.660254E-1,1.7862051E1,7E-2,0E0,2.9789695E-1,-2.5881904E-1,-1.9295597E-4,1.8181819E-1,3.7427642E-3,6.0416668E1,2E-1,-6.7323365E-4,4.6153846E-1,6.503425E1,-2.1E-1,5.9016395E-1,1.2246469E-16,1.2246469E-16,4.6666667E-1,3.1076923E-1,4.8639315E-5,4.2105263E-1,6.875E-1,6.6917605E-4,6.262736E-2,1.3E-1,1.0515247E-3,7.058824E-1,3.39098E-4,8.660254E-1,3.655639E-2,-2.5357847E5,1.5749588E0,2.9091448E-2,-2.7384518E-2,-9.124103E-2,-1.5618692E-2,-6.299038E-2,-1.8313685E-2,4.510481E-2,-1.24311885E-2,-2.8001135E-2,7.2996654E-3,-2.322683E-2,-4.73778E-2,3.6133602E-2,1.2136363E-2,-1.8198906E-2,1.2483501E-2,4.858964E-2,6.827889E-2,5.856655E-2,3.7578043E-2,4.1759364E-2,2.5400206E-2,7.165272E-2,4.000388E-2,7.856317E-3,-4.55327E-2,4.072634E-3,3.9447796E-2,9.655406E-3,-1.634995E-2,3.911662E-2,1.1138206E-2,-4.4690482E-2,-1.5042766E-2,3.678488E-3,-2.3257442E-2,2.125018E-2,-2.7975991E-2,-3.1449918E-2,-5.2226245E-2,-1.3342398E-3,-4.469137E-2,-5.28807E-2,-7.333625E-2,-2.7078299E-2,-4.4634726E-2,7.891475E-3,-1.9581204E-2,5.5176467E-2,2.1222224E-2,8.385809E-3,-2.228798E-2,-3.981713E-3,-3.4650184E-2,1.9584889E-2,-1.0262287E-2,3.656536E-2,-1.7748807E-2,5.6134243E-2,-2.1058075E-2,-1.0192918E-2,8.203852E-2,-2.2890788E-2,1.797749E-2],"split_indices":[0,6,8,10,0,0,10,3,3,3,2,2,3,3,5,33,25,0,4,0,4,20,6,5,14,4,4,4,4,0,3,39,40,45,37,4,0,2,22,5,2,0,2,34,8,2,3,3,2,17,0,2,2,0,37,15,0,2,0,3,43,33,27,0,0,0,0,0,0,0,0,0,0,0,0,0,0,0,0,0,0,0,0,0,0,0,0,0,0,0,0,0,0,0,0,0,0,0,0,0,0,0,0,0,0,0,0,0,0,0,0,0,0,0,0,0,0,0,0,0,0,0,0,0,0,0,0],"split_type":[0,0,0,0,0,0,0,0,0,0,0,0,0,0,0,0,0,0,0,0,0,0,0,0,0,0,0,0,0,0,0,0,0,0,0,0,0,0,0,0,0,0,0,0,0,0,0,0,0,0,0,0,0,0,0,0,0,0,0,0,0,0,0,0,0,0,0,0,0,0,0,0,0,0,0,0,0,0,0,0,0,0,0,0,0,0,0,0,0,0,0,0,0,0,0,0,0,0,0,0,0,0,0,0,0,0,0,0,0,0,0,0,0,0,0,0,0,0,0,0,0,0,0,0,0,0,0],"sum_hessian":[2.1305098E4,1.0299968E4,1.100513E4,4.941885E3,5.358083E3,5.053871E3,5.9512593E3,2.0347467E2,4.73841E3,2.868393E3,2.4896902E3,2.5964268E3,2.457444E3,5.473569E3,4.7769055E2,1.5948015E2,4.3994522E1,1.3993258E3,3.3390845E3,1.3463324E3,1.5220605E3,9.608804E2,1.5288097E3,1.8012758E3,7.95151E2,1.6777911E3,7.7965295E2,1.5698046E3,3.9037642E3,2.202226E2,2.5746796E2,6.4991913E0,1.5298096E2,3.349583E1,1.0498693E1,9.1288635E2,4.8643945E2,1.9130118E3,1.4260725E3,6.996629E2,6.466695E2,1.3033378E3,2.1872278E2,1.2073497E2,8.4014545E2,6.004253E2,9.2838446E2,9.046374E2,8.9663837E2,1.3048376E2,6.646673E2,5.744285E2,1.1033627E3,4.9218875E2,2.8746423E2,7.146611E2,8.5514355E2,2.3604563E3,1.5433079E3,1.3448326E2,8.573933E1,2.1897275E2,3.849521E1,3.2495956E0,3.2495956E0,1.4973137E2,3.2495956E0,1.0248724E1,2.3247107E1,6.2492223E0,4.249471E0,2.882141E2,6.2467224E2,2.699664E2,2.1647305E2,1.245345E3,6.676669E2,6.4466974E2,7.814027E2,1.494814E2,5.501815E2,2.2822159E2,4.184479E2,6.004253E2,7.0291254E2,1.24734474E2,9.3988304E1,9.823777E1,2.24972E1,8.148986E1,7.586556E2,3.5545575E2,2.4496951E2,3.8370224E2,5.446822E2,4.0769925E2,4.9693814E2,4.844397E2,4.121987E2,2.8496452E1,1.01987305E2,1.984753E2,4.66192E2,8.923889E1,4.851896E2,6.934137E2,4.0994897E2,2.7196616E2,2.202226E2,3.4995644E1,2.5246858E2,9.923765E1,6.154234E2,6.3092145E2,2.2422209E2,6.406702E2,1.7197859E3,4.724412E2,1.0708667E3,1.1448575E2,1.999751E1,1.0248724E1,7.54906E1,7.4990664E0,2.1147368E2,2.7996515E1,1.0498693E1],"tree_param":{"num_deleted":"0","num_feature":"50","num_nodes":"127","size_leaf_vector":"1"}},{"base_weights":[2.1432447E-3,3.5459593E-1,-3.3287027E-1,3.3281393E-2,6.6514164E-1,-6.7724895E-1,-1.8912228E-2,-1.3911343E0,9.377418E-2,8.1642956E-1,3.7522787E-1,-4.4060323E-1,-8.743015E-1,-6.4575486E-2,1.3896912E0,-1.5331978E0,-5.977853E-1,2.928644E-1,-6.457838E-2,9.735782E-1,6.9599444E-1,7.1861714E-1,1.8382514E-1,-5.937272E-1,4.8461344E-2,-7.9872197E-1,-1.1081489E0,-4.324905E-1,2.677414E-2,1.4906579E0,2.7306303E-1,-1.5718385E0,-1.5710628E-2,-1.2441977E0,-1.6210692E-1,3.8915554E-1,-1.6224341E-1,7.333399E-2,-3.1121814E-1,8.81354E-1,1.4422361E0,2.1193124E-1,8.025906E-1,9.279809E-1,4.9254283E-1,-6.5705456E-2,3.9594153E-1,-5.039683E-1,-9.4131696E-1,1.2511839E-1,-4.5385298E-1,-6.725627E-1,-1.0133612E0,-1.0186951E0,-1.3829904E0,9.4488645E-3,-6.944454E-1,-5.2265245E-2,7.12936E-1,1.2540079E0,1.8476611E0,6.8744546E-1,-2.194019E-2,-8.030629E-2,-4.5116473E-2,-8.100542E-2,-2.1809472E-3,-2.5404805E-2,3.6658894E-2,5.1645916E-2,1.4690282E-2,5.8754506E-3,-2.3385445E-2,1.0215384E-2,-1.9068135E-2,9.2971E-3,-2.4013609E-2,4.9074333E-2,2.1049641E-2,4.1009538E-2,7.683563E-2,2.2668904E-2,-1.7111007E-3,2.1486398E-2,4.3810368E-2,5.078092E-2,1.8392792E-2,-7.5816894E-3,3.0175252E-2,1.0981734E-2,-2.711693E-2,2.4726154E-2,-3.549416E-3,-1.3101198E-2,-3.057136E-2,-5.4339398E-2,2.522682E-2,1.0666175E-2,-1.3665013E-2,-5.308552E-3,-4.433958E-2,-3.4116033E-2,7.7022046E-2,-3.4249306E-2,-5.4580797E-2,-6.0656812E-2,-2.068097E-2,-7.0299484E-2,-1.6729683E-2,-6.476088E-3,1.6779637E-2,5.829482E-3,-3.9281614E-2,7.2074356E-3,-1.4251324E-2,5.7071712E-2,2.7823666E-2,8.6779505E-2,4.214254E-3,4.9047492E-2,9.457844E-2,5.7658043E-2,-9.679252E-3],"categories":[],"categories_nodes":[],"categories_segments":[],"categories_sizes":[],"default_left":[0,0,0,0,0,0,0,0,0,0,0,0,0,0,0,0,0,0,0,0,0,0,0,0,0,0,0,0,0,0,0,0,0,0,0,0,0,0,0,0,0,0,0,0,0,0,0,0,0,0,0,0,0,0,0,0,0,0,0,0,0,0,0,0,0,0,0,0,0,0,0,0,0,0,0,0,0,0,0,0,0,0,0,0,0,0,0,0,0,0,0,0,0,0,0,0,0,0,0,0,0,0,0,0,0,0,0,0,0,0,0,0,0,0,0,0,0,0,0,0,0,0,0],"id":1,"left_children":[1,3,5,7,9,11,13,15,17,19,21,23,25,27,29,31,33,35,37,39,41,43,45,47,49,51,53,55,57,59,61,63,-1,65,67,69,71,73,75,77,79,81,83,85,87,89,91,93,95,97,99,101,103,105,107,109,111,113,115,117,119,121,-1,-1,-1,-1,-1,-1,-1,-1,-1,-1,-1,-1,-1,-1,-1,-1,-1,-1,-1,-1,-1,-1,-1,-1,-1,-1,-1,-1,-1,-1,-1,-1,-1,-1,-1,-1,-1,-1,-1,-1,-1,-1,-1,-1,-1,-1,-1,-1,-1,-1,-1,-1,-1,-1,-1,-1,-1,-1,-1,-1,-1],"loss_changes":[2.525476E3,1.0399539E3,1.1854989E3,4.4151425E2,2.3204175E2,2.4332788E2,3.6898303E2,2.239621E1,1.5503204E2,6.505005E1,1.1936536E2,1.78176E2,4.93313E1,1.8685355E2,1.9723846E1,7.621216E0,9.077381E0,9.555002E1,9.320561E1,6.3662476E1,1.0163397E2,3.0198212E1,6.197751E1,5.5893066E1,2.188811E1,5.7621094E1,1.5406555E1,1.2809193E2,2.4162218E2,1.1302612E1,5.117842E0,2.2148438E0,0E0,5.7313423E0,6.9239607E0,1.0995877E2,3.2643234E1,1.04702675E2,8.270874E1,5.764679E1,1.2970459E1,2.1331163E1,4.390515E1,1.600418E1,2.266771E1,7.3341286E1,2.9200027E1,3.7242065E1,7.850525E1,1.739834E1,1.112951E1,3.0403198E1,1.9557007E1,6.139038E1,3.3888855E0,1.8754519E1,5.151581E1,1.8265565E2,3.0047989E1,5.7374268E1,2.7163696E-1,4.727902E0,0E0,0E0,0E0,0E0,0E0,0E0,0E0,0E0,0E0,0E0,0E0,0E0,0E0,0E0,0E0,0E0,0E0,0E0,0E0,0E0,0E0,0E0,0E0,0E0,0E0,0E0,0E0,0E0,0E0,0E0,0E0,0E0,0E0,0E0,0E0,0E0,0E0,0E0,0E0,0E0,0E0,0E0,0E0,0E0,0E0,0E0,0E0,0E0,0E0,0E0,0E0,0E0,0E0,0E0,0E0,0E0,0E0,0E0,0E0,0E0,0E0],"parents":[2147483647,0,0,1,1,2,2,3,3,4,4,5,5,6,6,7,7,8,8,9,9,10,10,11,11,12,12,13,13,14,14,15,15,16,16,17,17,18,18,19,19,20,20,21,21,22,22,23,23,24,24,25,25,26,26,27,27,28,28,29,29,30,30,31,31,33,33,34,34,35,35,36,36,37,37,38,38,39,39,40,40,41,41,42,42,43,43,44,44,45,45,46,46,47,47,48,48,49,49,50,50,51,51,52,52,53,53,54,54,55,55,56,56,57,57,58,58,59,59,60,60,61,61],"right_children":[2,4,6,8,10,12,14,16,18,20,22,24,26,28,30,32,34,36,38,40,42,44,46,48,50,52,54,56,58,60,62,64,-1,66,68,70,72,74,76,78,80,82,84,86,88,90,92,94,96,98,100,102,104,106,108,110,112,114,116,118,120,122,-1,-1,-1,-1,-1,-1,-1,-1,-1,-1,-1,-1,-1,-1,-1,-1,-1,-1,-1,-1,-1,-1,-1,-1,-1,-1,-1,-1,-1,-1,-1,-1,-1,-1,-1,-1,-1,-1,-1,-1,-1,-1,-1,-1,-1,-1,-1,-1,-1,-1,-1,-1,-1,-1,-1,-1,-1,-1,-1,-1,-1],"split_conditions":[0E0,-2E-2,1.4E-2,1E0,-8E-2,5.1666665E-1,9E0,1.1494253E-2,-6.2E-1,3.0769232E-1,2.7027026E-1,-1.8E-1,8E-1,-7.0710677E-1,3E-2,6.443337E-1,6.0525817E-1,1.5789473E-1,5E-1,8.660254E-1,4.3424953E-2,3.4782608E1,1.6242424E-2,8.660254E-1,3.3241677E-1,4.4E-1,8.660254E-1,7.741935E-1,1E0,8.660254E-1,1.0244074E0,-4E-2,-1.5710628E-2,2.6753943E-3,8.649042E-3,-7.0710677E-1,2.2445848E-2,1E0,-1.326479E2,5.4243904E-1,-3.3E-1,-2.9209596E-3,-7.0710677E-1,-1E-2,7.968808E-3,5.882353E-1,-1.4609988E-3,7.1428575E-2,2.1025414E1,4.6153846E-1,2.3659914E1,8E0,-6.89465E-3,7.3796034E-1,9.094344E1,1E0,3.4532294E-2,1.3276265E2,2.8E-1,4.6123102E-1,3.6309E2,1.9371051E-2,-2.194019E-2,-8.030629E-2,-4.5116473E-2,-8.100542E-2,-2.1809472E-3,-2.5404805E-2,3.6658894E-2,5.1645916E-2,1.4690282E-2,5.8754506E-3,-2.3385445E-2,1.0215384E-2,-1.9068135E-2,9.2971E-3,-2.4013609E-2,4.9074333E-2,2.1049641E-2,4.1009538E-2,7.683563E-2,2.2668904E-2,-1.7111007E-3,2.1486398E-2,4.3810368E-2,5.078092E-2,1.8392792E-2,-7.5816894E-3,3.0175252E-2,1.0981734E-2,-2.711693E-2,2.4726154E-2,-3.549416E-3,-1.3101198E-2,-3.057136E-2,-5.4339398E-2,2.522682E-2,1.0666175E-2,-1.3665013E-2,-5.308552E-3,-4.433958E-2,-3.4116033E-2,7.7022046E-2,-3.4249306E-2,-5.4580797E-2,-6.0656812E-2,-2.068097E-2,-7.0299484E-2,-1.6729683E-2,-6.476088E-3,1.6779637E-2,5.829482E-3,-3.9281614E-2,7.2074356E-3,-1.4251324E-2,5.7071712E-2,2.7823666E-2,8.6779505E-2,4.214254E-3,4.9047492E-2,9.457844E-2,5.7658043E-2,-9.679252E-3],"split_indices":[15,1,1,10,15,2,10,17,15,2,2,8,17,4,41,20,27,2,4,4,6,11,1,4,20,15,4,2,28,4,27,15,0,7,22,4,14,28,9,27,8,22,4,15,20,17,14,17,5,2,21,10,7,27,5,28,26,9,15,27,42,46,0,0,0,0,0,0,0,0,0,0,0,0,0,0,0,0,0,0,0,0,0,0,0,0,0,0,0,0,0,0,0,0,0,0,0,0,0,0,0,0,0,0,0,0,0,0,0,0,0,0,0,0,0,0,0,0,0,0,0,0,0],"split_type":[0,0,0,0,0,0,0,0,0,0,0,0,0,0,0,0,0,0,0,0,0,0,0,0,0,0,0,0,0,0,0,0,0,0,0,0,0,0,0,0,0,0,0,0,0,0,0,0,0,0,0,0,0,0,0,0,0,0,0,0,0,0,0,0,0,0,0,0,0,0,0,0,0,0,0,0,0,0,0,0,0,0,0,0,0,0,0,0,0,0,0,0,0,0,0,0,0,0,0,0,0,0,0,0,0,0,0,0,0,0,0,0,0,0,0,0,0,0,0,0,0,0,0],"sum_hessian":[2.1386469E4,1.0422092E4,1.0964376E4,5.1229365E3,5.299156E3,5.2281616E3,5.736215E3,2.0773674E2,4.9151997E3,3.4806575E3,1.8184983E3,2.3771367E3,2.8510247E3,5.5570933E3,1.7912135E2,1.752894E2,3.244734E1,2.1774111E3,2.7377886E3,1.5067168E3,1.9739407E3,6.4967E2,1.1688282E3,1.8103231E3,5.668137E2,2.1583037E3,6.927209E2,1.1048036E3,4.4522896E3,1.6387875E2,1.5242597E1,1.695435E2,5.7458897E0,1.222456E1,2.0222778E1,1.7974695E3,3.7994162E2,1.7561229E3,9.816656E2,1.2615569E3,2.4515999E2,3.5694522E2,1.6169954E3,3.3545938E2,3.142106E2,5.371508E2,6.316775E2,1.4409586E3,3.693645E2,4.9259058E2,7.422314E1,1.362224E3,7.960797E2,5.264464E2,1.6627448E2,4.1137033E2,6.934333E2,3.9931E3,4.5918945E2,1.0143339E2,6.2445362E1,9.744842E0,5.4977555E0,1.5981085E2,9.732648E0,8.98009E0,3.2444692E0,1.497843E1,5.2443495E0,2.3048035E2,1.5669893E3,1.9846796E2,1.8147366E2,1.3639988E3,3.921241E2,2.489254E2,7.327402E2,1.0350706E3,2.2648634E2,3.3741543E1,2.1141844E2,1.7997536E2,1.7696985E2,2.6796597E2,1.3490294E3,2.8921667E2,4.624269E1,4.598468E1,2.6822592E2,3.3620718E2,2.0094363E2,5.216897E2,1.0998777E2,4.4451028E2,9.964483E2,3.3588748E2,3.3477005E1,4.038898E2,8.8700775E1,4.1983486E1,3.223965E1,1.3569774E3,5.2465444E0,1.5532622E2,6.4075354E2,3.9753E2,1.2891641E2,1.6227802E2,3.9964583E0,2.8866556E2,1.2270477E2,6.994575E1,6.2348755E2,2.1656135E3,1.8274867E3,1.20967125E2,3.3822232E2,7.144839E1,2.9984999E1,4.246213E0,5.8199146E1,6.247186E0,3.497655E0],"tree_param":{"num_deleted":"0","num_feature":"50","num_nodes":"123","size_leaf_vector":"1"}},{"base_weights":[1.0677488E-3,3.468453E-1,-3.0325317E-1,5.4754663E-2,6.275393E-1,-5.6111354E-1,-4.182302E-2,-7.9761297E-1,1.4654228E-1,8.276764E-1,4.7970307E-1,-2.3042445E-1,-6.912849E-1,3.833993E-1,-2.1197703E-1,-1.2463863E0,-1.9775683E-1,-2.4608591E-1,3.1345224E-1,4.8784986E-2,8.7746716E-1,1.0274184E-1,6.4592224E-1,-6.383675E-2,-4.421553E-1,-8.101258E-1,-4.0067866E-1,3.009816E-1,1.504751E0,-4.1520512E-1,1.9152826E-1,-1.5157822E0,-2.0407936E-1,-4.6130708E-1,3.3347335E-1,-9.138676E-2,-6.9659466E-1,5.3912944E-1,-6.338442E-3,2.2507598E-1,-8.446666E-1,9.7395396E-1,5.98066E-1,2.9159886E-1,-2.0165882E-1,9.4818914E-1,4.0785602E-1,-3.138109E-1,1.8283038E-1,-4.9068958E-1,5.0071347E-1,-7.243397E-1,-1.1258675E0,6.4866763E-1,-4.2468512E-1,7.584073E-1,1.2839761E-1,1.6004982E0,-4.6683777E-2,-5.2609865E-2,-5.2941185E-1,5.154669E-1,-5.910297E-1,-0E0,-8.0318086E-2,-2.1528704E-2,4.4833265E-2,8.16303E-3,-3.435262E-2,3.282882E-2,-2.1860914E-2,7.610911E-4,-2.9782806E-2,-2.5645917E-2,-5.07352E-2,3.701241E-2,1.1236789E-2,2.203765E-2,-2.0966364E-2,4.6260558E-2,3.6581785E-3,-8.315274E-2,-9.3386015E-3,4.336795E-2,6.069947E-2,-1.073983E-2,3.139807E-2,2.7732238E-2,7.911473E-3,-4.4144946E-3,-4.601911E-2,1.2248869E-2,5.4341204E-2,1.5532114E-2,4.9133494E-2,5.5909688E-3,-2.833849E-2,2.2827227E-2,2.1170273E-3,-1.8692551E-2,-3.4775328E-2,1.7090678E-3,5.3475093E-2,-3.0148748E-2,-4.9578056E-2,-6.0896028E-2,-3.923324E-2,-1.0928667E-2,4.1235816E-2,-1.2864189E-2,-2.6151747E-2,4.6095874E-2,1.9826904E-2,2.765428E-2,1.233713E-3,4.8402257E-2,8.586183E-2,-7.862068E-3,1.002912E-2,-3.2436244E-2,-1.0050874E-2,1.9725299E-2,6.956064E-2,-1.6429858E-2,-6.663861E-2],"categories":[],"categories_nodes":[],"categories_segments":[],"categories_sizes":[],"default_left":[0,0,0,0,0,0,0,0,0,0,0,0,0,0,0,0,0,0,0,0,0,0,0,0,0,0,0,0,0,0,0,0,0,0,0,0,0,0,0,0,0,0,0,0,0,0,0,0,0,0,0,0,0,0,0,0,0,0,0,0,0,0,0,0,0,0,0,0,0,0,0,0,0,0,0,0,0,0,0,0,0,0,0,0,0,0,0,0,0,0,0,0,0,0,0,0,0,0,0,0,0,0,0,0,0,0,0,0,0,0,0,0,0,0,0,0,0,0,0,0,0,0,0,0,0],"id":2,"left_children":[1,3,5,7,9,11,13,15,17,19,21,23,25,27,29,31,33,35,37,39,41,43,45,47,49,51,53,55,57,59,61,63,65,67,69,71,73,75,77,79,81,83,85,87,89,91,93,95,97,99,101,103,105,107,109,111,113,115,-1,117,119,121,123,-1,-1,-1,-1,-1,-1,-1,-1,-1,-1,-1,-1,-1,-1,-1,-1,-1,-1,-1,-1,-1,-1,-1,-1,-1,-1,-1,-1,-1,-1,-1,-1,-1,-1,-1,-1,-1,-1,-1,-1,-1,-1,-1,-1,-1,-1,-1,-1,-1,-1,-1,-1,-1,-1,-1,-1,-1,-1,-1,-1,-1,-1],"loss_changes":[2.24611E3,8.191384E2,7.652549E2,3.832525E2,1.5022766E2,2.4577039E2,4.0804895E2,1.278053E2,2.899223E2,8.3750854E1,1.8364734E2,5.6920868E1,1.4116077E2,1.4831958E2,3.3041876E2,7.593033E1,2.8879683E1,9.183077E1,2.2407523E2,2.078435E1,5.406421E1,5.1747543E1,1.4593195E2,5.5925983E1,3.2788345E1,7.779224E1,3.0288803E1,1.1844328E2,2.724646E1,1.1086743E2,3.4245782E2,2.9499298E1,1.4580501E1,1.956857E1,1.7356667E1,5.294878E1,1.9018143E1,1.1481726E2,2.3745978E2,1.1576128E1,1.1203677E1,3.7354492E1,1.2926392E1,1.9325027E1,2.7894608E1,8.692847E1,6.3294403E1,4.8610897E1,1.7480247E1,1.5832794E1,9.1960535E0,7.3526855E1,1.8299988E1,4.358514E0,1.8989975E1,2.3837952E1,4.8049393E1,5.914917E0,0E0,1.7063921E1,7.96073E1,1.00459564E2,7.638815E1,0E0,0E0,0E0,0E0,0E0,0E0,0E0,0E0,0E0,0E0,0E0,0E0,0E0,0E0,0E0,0E0,0E0,0E0,0E0,0E0,0E0,0E0,0E0,0E0,0E0,0E0,0E0,0E0,0E0,0E0,0E0,0E0,0E0,0E0,0E0,0E0,0E0,0E0,0E0,0E0,0E0,0E0,0E0,0E0,0E0,0E0,0E0,0E0,0E0,0E0,0E0,0E0,0E0,0E0,0E0,0E0,0E0,0E0,0E0,0E0,0E0,0E0],"parents":[2147483647,0,0,1,1,2,2,3,3,4,4,5,5,6,6,7,7,8,8,9,9,10,10,11,11,12,12,13,13,14,14,15,15,16,16,17,17,18,18,19,19,20,20,21,21,22,22,23,23,24,24,25,25,26,26,27,27,28,28,29,29,30,30,31,31,32,32,33,33,34,34,35,35,36,36,37,37,38,38,39,39,40,40,41,41,42,42,43,43,44,44,45,45,46,46,47,47,48,48,49,49,50,50,51,51,52,52,53,53,54,54,55,55,56,56,57,57,59,59,60,60,61,61,62,62],"right_children":[2,4,6,8,10,12,14,16,18,20,22,24,26,28,30,32,34,36,38,40,42,44,46,48,50,52,54,56,58,60,62,64,66,68,70,72,74,76,78,80,82,84,86,88,90,92,94,96,98,100,102,104,106,108,110,112,114,116,-1,118,120,122,124,-1,-1,-1,-1,-1,-1,-1,-1,-1,-1,-1,-1,-1,-1,-1,-1,-1,-1,-1,-1,-1,-1,-1,-1,-1,-1,-1,-1,-1,-1,-1,-1,-1,-1,-1,-1,-1,-1,-1,-1,-1,-1,-1,-1,-1,-1,-1,-1,-1,-1,-1,-1,-1,-1,-1,-1,-1,-1,-1,-1,-1,-1],"split_conditions":[-1E-2,-5.6366153E-2,5.6862455E-2,2E0,3.0769232E-1,5E-2,-5E-1,5E-2,-5E-1,3E0,6.3556075E-2,5.1666665E-1,7.0710677E-1,8.071838E1,7.0710677E-1,7.0710677E-1,5E-1,9.913793E-2,5E-1,7.1919267E-3,7.0710677E-1,5.833333E-1,1.2246469E-16,1.4467253E1,7E0,7.9E-1,1.1421009E1,-2.5881904E-1,1.29261E3,7.058824E-1,1.3141725E2,3.4204E2,5.434114E0,-1.16E0,1.1019038E-2,-1.9E-1,3.0959302E-1,1.5E-1,-1.2561028E2,-1.8120537E-3,2E0,7.0710677E-1,1E0,-8.1579376E-4,9.659258E-1,-7.0710677E-1,8.660254E-1,-2.5881904E-1,-7.9714303E-4,8.8235295E-1,6.076983E1,8.4615386E-1,3.9371983E1,3.1448E2,3.5135135E-1,3.1524857E-3,1.4E-1,1.9327147E-1,-4.6683777E-2,-1E-3,2.5881904E-1,7.813253E1,1.5395955E2,-0E0,-8.0318086E-2,-2.1528704E-2,4.4833265E-2,8.16303E-3,-3.435262E-2,3.282882E-2,-2.1860914E-2,7.610911E-4,-2.9782806E-2,-2.5645917E-2,-5.07352E-2,3.701241E-2,1.1236789E-2,2.203765E-2,-2.0966364E-2,4.6260558E-2,3.6581785E-3,-8.315274E-2,-9.3386015E-3,4.336795E-2,6.069947E-2,-1.073983E-2,3.139807E-2,2.7732238E-2,7.911473E-3,-4.4144946E-3,-4.601911E-2,1.2248869E-2,5.4341204E-2,1.5532114E-2,4.9133494E-2,5.5909688E-3,-2.833849E-2,2.2827227E-2,2.1170273E-3,-1.8692551E-2,-3.4775328E-2,1.7090678E-3,5.3475093E-2,-3.0148748E-2,-4.9578056E-2,-6.0896028E-2,-3.923324E-2,-1.0928667E-2,4.1235816E-2,-1.2864189E-2,-2.6151747E-2,4.6095874E-2,1.9826904E-2,2.765428E-2,1.233713E-3,4.8402257E-2,8.586183E-2,-7.862068E-3,1.002912E-2,-3.2436244E-2,-1.0050874E-2,1.9725299E-2,6.956064E-2,-1.6429858E-2,-6.663861E-2],"split_indices":[15,6,6,10,2,15,3,23,3,10,6,2,3,34,4,3,3,2,4,32,3,2,3,5,10,15,21,4,42,2,9,42,18,15,32,15,29,2,9,7,10,4,47,7,4,4,4,4,7,2,39,2,5,42,2,7,15,6,0,12,4,34,9,0,0,0,0,0,0,0,0,0,0,0,0,0,0,0,0,0,0,0,0,0,0,0,0,0,0,0,0,0,0,0,0,0,0,0,0,0,0,0,0,0,0,0,0,0,0,0,0,0,0,0,0,0,0,0,0,0,0,0,0,0,0],"split_type":[0,0,0,0,0,0,0,0,0,0,0,0,0,0,0,0,0,0,0,0,0,0,0,0,0,0,0,0,0,0,0,0,0,0,0,0,0,0,0,0,0,0,0,0,0,0,0,0,0,0,0,0,0,0,0,0,0,0,0,0,0,0,0,0,0,0,0,0,0,0,0,0,0,0,0,0,0,0,0,0,0,0,0,0,0,0,0,0,0,0,0,0,0,0,0,0,0,0,0,0,0,0,0,0,0,0,0,0,0,0,0,0,0,0,0,0,0,0,0,0,0,0,0,0,0],"sum_hessian":[2.1343268E4,9.991195E3,1.1352073E4,4.8969604E3,5.0942344E3,5.714286E3,5.6377876E3,4.7521268E2,4.421748E3,2.1620408E3,2.9321936E3,1.6150155E3,4.0992705E3,1.6107106E3,4.0270771E3,2.711279E2,2.0408478E2,1.318685E3,3.103063E3,1.3014421E2,2.0318965E3,8.979627E2,2.0342307E3,9.04857E2,7.1015857E2,2.9079553E3,1.1913152E3,1.5016958E3,1.0901483E2,2.678335E3,1.3487422E3,2.1500677E2,5.612112E1,1.366238E2,6.746098E1,9.826723E2,3.3601276E2,1.8190095E3,1.2840535E3,1.0941505E2,2.0729172E1,1.5082146E3,5.236818E2,5.5438214E2,3.435806E2,8.947657E2,1.1394651E3,4.4948206E2,4.5537494E2,6.7594965E2,3.420895E1,2.2895125E3,6.1844275E2,2.5969658E1,1.1653455E3,4.102839E2,1.0914119E3,1.05266106E2,3.748731E0,6.4209186E2,2.0362432E3,9.542153E2,3.945269E2,1.2241435E1,2.0276534E2,4.7124275E1,8.996844E0,3.622744E1,1.0039635E2,4.7729004E1,1.9731981E1,8.1181616E2,1.7085616E2,2.1487227E2,1.2114047E2,1.1083326E3,7.106768E2,6.164215E2,6.6763196E2,1.8482777E1,9.093227E1,8.489193E0,1.2239979E1,1.0478951E3,4.603195E2,1.8238659E1,5.0544318E2,1.8520058E2,3.6918158E2,2.9785928E2,4.572131E1,1.4792401E2,7.468417E2,9.760994E2,1.6336562E2,1.6761484E2,2.8186722E2,1.5344975E2,3.019252E2,4.3252673E2,2.434229E2,1.9472834E1,1.4736116E1,1.5769393E3,7.125731E2,4.8478912E2,1.3365363E2,4.24561E0,2.1724049E1,4.3298822E2,7.323573E2,2.8133774E2,1.2894614E2,2.1319666E2,8.782152E2,1.79839E1,8.72822E1,4.5488495E2,1.872069E2,1.49265E3,5.435931E2,8.397859E2,1.14429405E2,2.9258615E2,1.0194073E2],"tree_param":{"num_deleted":"0","num_feature":"50","num_nodes":"125","size_leaf_vector":"1"}},{"base_weights":[-4.6176924E-3,3.273482E-1,-3.1920996E-1,3.1910498E-2,6.2185985E-1,-6.2543774E-1,-4.2803906E-2,-7.8312194E-1,1.2182125E-1,8.251037E-1,3.8390335E-1,-4.009134E-1,-8.0822015E-1,2.1018526E-1,-2.8627923E-1,-1.1344185E0,-1.15729354E-1,-2.3837495E-1,2.794989E-1,9.6635675E-1,5.2794874E-1,8.071435E-1,2.8097773E-1,-5.4002476E-1,1.772294E-1,-9.1150874E-1,-5.04072E-1,1.12814665E-1,1.1570333E0,-4.5825768E-1,4.27687E-2,-1.3850627E0,-1.3693954E-1,1.9681013E-1,-4.3981698E-1,-6.453573E-2,-6.4402884E-1,4.6566206E-1,1.3436083E-2,1.3104283E0,8.9980066E-1,6.583164E-1,3.2168475E-1,9.691172E-2,8.676243E-1,-3.8836364E-2,4.3953308E-1,-7.9570115E-1,-3.1497967E-1,3.2490382E-1,-2.0361054E-1,-7.50724E-1,-1.1159841E0,-6.48637E-1,-3.1528205E-1,4.948955E-1,-1.8947547E-2,1.4824919E0,3.8199377E-1,-1.6140278E-1,-6.0621494E-1,5.1735896E-1,-4.4905433E-1,7.5719054E-3,-7.383747E-2,-2.3748046E-2,1.810473E-2,-1.3030847E-2,3.7518416E-2,1.9481335E-2,-2.8682277E-2,5.9546838E-3,-2.6865695E-2,-4.2147834E-2,-2.173381E-2,3.1026741E-2,2.67443E-3,2.275963E-2,-1.6867617E-2,6.778251E-2,6.6464455E-3,5.4796245E-2,3.9804753E-2,4.656997E-2,2.5378812E-2,1.2981581E-2,4.3743458E-2,-5.2138895E-2,2.5188942E-2,5.5073358E-2,3.0297413E-2,9.412094E-3,-2.4223924E-2,3.748652E-2,1.2604954E-2,-4.483128E-2,-1.092613E-2,-1.1828305E-2,-3.854775E-2,1.7604636E-2,-6.1919104E-2,-2.0280419E-2,3.557276E-2,-2.680847E-2,-5.1621147E-2,-6.0045578E-2,-4.0016662E-2,-2.3215096E-2,-4.609188E-2,-9.705797E-3,-2.7634874E-2,5.409693E-3,3.0212244E-2,-2.5928456E-2,3.4288138E-3,2.7952823E-3,7.880984E-2,4.1121077E-2,2.3972378E-3,-4.864365E-3,-3.6408737E-2,-1.5542172E-2,-3.5180718E-2,-1.7392172E-2,3.224633E-2,-3.3399936E-2,-8.889939E-3],"categories":[],"categories_nodes":[],"categories_segments":[],"categories_sizes":[],"default_left":[0,0,0,0,0,0,0,0,0,0,0,0,0,0,0,0,0,0,0,0,0,0,0,0,0,0,0,0,0,0,0,0,0,0,0,0,0,0,0,0,0,0,0,0,0,0,0,0,0,0,0,0,0,0,0,0,0,0,0,0,0,0,0,0,0,0,0,0,0,0,0,0,0,0,0,0,0,0,0,0,0,0,0,0,0,0,0,0,0,0,0,0,0,0,0,0,0,0,0,0,0,0,0,0,0,0,0,0,0,0,0,0,0,0,0,0,0,0,0,0,0,0,0,0,0,0,0],"id":3,"left_children":[1,3,5,7,9,11,13,15,17,19,21,23,25,27,29,31,33,35,37,39,41,43,45,47,49,51,53,55,57,59,61,63,65,67,69,71,73,75,77,79,81,83,85,87,89,91,93,95,97,99,101,103,105,107,109,111,113,115,117,119,121,123,125,-1,-1,-1,-1,-1,-1,-1,-1,-1,-1,-1,-1,-1,-1,-1,-1,-1,-1,-1,-1,-1,-1,-1,-1,-1,-1,-1,-1,-1,-1,-1,-1,-1,-1,-1,-1,-1,-1,-1,-1,-1,-1,-1,-1,-1,-1,-1,-1,-1,-1,-1,-1,-1,-1,-1,-1,-1,-1,-1,-1,-1,-1,-1,-1],"loss_changes":[2.2249075E3,9.018457E2,9.257859E2,3.7932828E2,2.5060742E2,2.1251172E2,3.5427878E2,1.20319824E2,2.6488962E2,1.16805786E2,1.0392258E2,1.8759683E2,8.92218E1,2.5978107E2,1.6592229E2,8.384296E1,1.8197699E1,1.0002474E2,1.6061044E2,4.2005005E1,2.4001724E1,1.989859E1,9.7765366E1,1.07765076E2,2.5537687E1,6.909802E1,1.9549438E1,1.2887274E2,6.553735E1,8.438345E1,2.3523555E2,3.8239807E1,1.179034E1,2.339717E1,1.0024511E1,8.6514915E1,1.7234467E1,1.21705505E2,2.0728217E2,1.59001465E1,3.1311035E1,2.2135727E1,1.1755688E1,1.8063131E1,2.5504944E1,6.48223E1,7.4626205E1,5.0887817E1,3.5519257E1,1.4236706E1,2.3716831E1,7.165698E1,2.3945435E1,2.0114395E1,8.9560795E0,2.76176E1,8.3312614E1,2.4431519E1,1.1519686E1,2.3174776E1,3.6625916E1,5.68674E1,2.9185394E1,0E0,0E0,0E0,0E0,0E0,0E0,0E0,0E0,0E0,0E0,0E0,0E0,0E0,0E0,0E0,0E0,0E0,0E0,0E0,0E0,0E0,0E0,0E0,0E0,0E0,0E0,0E0,0E0,0E0,0E0,0E0,0E0,0E0,0E0,0E0,0E0,0E0,0E0,0E0,0E0,0E0,0E0,0E0,0E0,0E0,0E0,0E0,0E0,0E0,0E0,0E0,0E0,0E0,0E0,0E0,0E0,0E0,0E0,0E0,0E0,0E0,0E0,0E0,0E0],"parents":[2147483647,0,0,1,1,2,2,3,3,4,4,5,5,6,6,7,7,8,8,9,9,10,10,11,11,12,12,13,13,14,14,15,15,16,16,17,17,18,18,19,19,20,20,21,21,22,22,23,23,24,24,25,25,26,26,27,27,28,28,29,29,30,30,31,31,32,32,33,33,34,34,35,35,36,36,37,37,38,38,39,39,40,40,41,41,42,42,43,43,44,44,45,45,46,46,47,47,48,48,49,49,50,50,51,51,52,52,53,53,54,54,55,55,56,56,57,57,58,58,59,59,60,60,61,61,62,62],"right_children":[2,4,6,8,10,12,14,16,18,20,22,24,26,28,30,32,34,36,38,40,42,44,46,48,50,52,54,56,58,60,62,64,66,68,70,72,74,76,78,80,82,84,86,88,90,92,94,96,98,100,102,104,106,108,110,112,114,116,118,120,122,124,126,-1,-1,-1,-1,-1,-1,-1,-1,-1,-1,-1,-1,-1,-1,-1,-1,-1,-1,-1,-1,-1,-1,-1,-1,-1,-1,-1,-1,-1,-1,-1,-1,-1,-1,-1,-1,-1,-1,-1,-1,-1,-1,-1,-1,-1,-1,-1,-1,-1,-1,-1,-1,-1,-1,-1,-1,-1,-1,-1,-1,-1,-1,-1,-1],"split_conditions":[0E0,-1.6E-2,1.4E-2,2E0,-2.2717979E-4,5.081967E-1,1.2246469E-16,8E-2,-5E-1,7.0710677E-1,3.026316E-1,-1.4E-2,7.0710677E-1,9.37462E1,5E-1,7.0710677E-1,-6.3451775E-4,1.8696883E-1,5E-1,-1.2737116E-3,2.5881904E-1,1E-2,1.6242424E-2,1.2246469E-16,1.9393939E-3,3.2066304E-4,2.5881904E-1,2.2514071E-4,7E-2,8.181818E-1,1.20044075E2,3.1448E2,5.7299376E-1,-7.41131E-1,-5.848007E5,-2.7461554E-4,4E0,2.7027026E-1,-1.2686457E2,1.4321381E0,2E-1,-8.8182476E-4,9.464078E-1,6E0,1.1111111E-1,5.882353E-1,1.2246469E-16,-4.628558E-2,8.660254E-1,6.315789E-1,7.179568E-1,6.818182E-1,1.1E1,5.9981376E-4,6.3757103E1,2.3128859E1,-7.0710677E-1,1.1138666E-1,1.4264108E2,1.0515247E-3,1.60251E-4,2.0525043E1,8.660254E-1,7.5719054E-3,-7.383747E-2,-2.3748046E-2,1.810473E-2,-1.3030847E-2,3.7518416E-2,1.9481335E-2,-2.8682277E-2,5.9546838E-3,-2.6865695E-2,-4.2147834E-2,-2.173381E-2,3.1026741E-2,2.67443E-3,2.275963E-2,-1.6867617E-2,6.778251E-2,6.6464455E-3,5.4796245E-2,3.9804753E-2,4.656997E-2,2.5378812E-2,1.2981581E-2,4.3743458E-2,-5.2138895E-2,2.5188942E-2,5.5073358E-2,3.0297413E-2,9.412094E-3,-2.4223924E-2,3.748652E-2,1.2604954E-2,-4.483128E-2,-1.092613E-2,-1.1828305E-2,-3.854775E-2,1.7604636E-2,-6.1919104E-2,-2.0280419E-2,3.557276E-2,-2.680847E-2,-5.1621147E-2,-6.0045578E-2,-4.0016662E-2,-2.3215096E-2,-4.609188E-2,-9.705797E-3,-2.7634874E-2,5.409693E-3,3.0212244E-2,-2.5928456E-2,3.4288138E-3,2.7952823E-3,7.880984E-2,4.1121077E-2,2.3972378E-3,-4.864365E-3,-3.6408737E-2,-1.5542172E-2,-3.5180718E-2,-1.7392172E-2,3.224633E-2,-3.3399936E-2,-8.889939E-3],"split_indices":[0,1,1,10,0,2,3,23,3,3,17,1,3,18,4,3,0,29,4,0,4,23,1,3,1,0,4,0,23,2,9,42,5,6,33,0,10,2,9,6,2,0,37,19,2,17,3,6,4,17,29,17,19,0,18,21,4,6,9,0,0,21,3,0,0,0,0,0,0,0,0,0,0,0,0,0,0,0,0,0,0,0,0,0,0,0,0,0,0,0,0,0,0,0,0,0,0,0,0,0,0,0,0,0,0,0,0,0,0,0,0,0,0,0,0,0,0,0,0,0,0,0,0,0,0,0,0],"split_type":[0,0,0,0,0,0,0,0,0,0,0,0,0,0,0,0,0,0,0,0,0,0,0,0,0,0,0,0,0,0,0,0,0,0,0,0,0,0,0,0,0,0,0,0,0,0,0,0,0,0,0,0,0,0,0,0,0,0,0,0,0,0,0,0,0,0,0,0,0,0,0,0,0,0,0,0,0,0,0,0,0,0,0,0,0,0,0,0,0,0,0,0,0,0,0,0,0,0,0,0,0,0,0,0,0,0,0,0,0,0,0,0,0,0,0,0,0,0,0,0,0,0,0,0,0,0,0],"sum_hessian":[2.130246E4,1.0364848E4,1.0937613E4,5.175011E3,5.189836E3,5.1881187E3,5.7494946E3,5.132874E2,4.6617236E3,2.7975227E3,2.3923135E3,2.329891E3,2.8582275E3,2.8195234E3,2.929971E3,3.357228E2,1.7756458E2,1.4190116E3,3.2427124E3,1.8944193E3,9.031034E2,4.6644263E2,1.9258708E3,1.8782015E3,4.5168964E2,2.131907E3,7.2632056E2,2.557721E3,2.6180246E2,1.9241934E3,1.0057775E3,2.6791333E2,6.780949E1,9.043561E1,8.712897E1,9.943134E2,4.2469818E2,1.9071562E3,1.335556E3,3.0378207E2,1.5906372E3,5.517178E2,3.513856E2,3.69375E1,4.2950516E2,6.383703E2,1.2875005E3,8.7786676E2,1.00033484E3,3.2577618E2,1.2591344E2,1.1963466E3,9.3556055E2,4.0965994E2,3.166606E2,6.553516E2,1.9023694E3,1.8364394E2,7.8158516E1,6.409622E2,1.2832312E3,5.1193317E2,4.9384436E2,1.4988625E1,2.529247E2,4.0574753E1,2.723473E1,4.9708256E1,4.0727356E1,1.1735567E1,7.53934E1,7.165416E2,2.7777176E2,2.159743E2,2.0872388E2,1.3857261E3,5.2143005E2,5.911251E2,7.4443097E2,2.9231934E2,1.1462732E1,5.4652924E2,1.044108E3,1.9415019E2,3.575676E2,3.1742834E2,3.3957245E1,9.241654E0,2.7695845E1,2.2491855E2,2.045866E2,4.23121E2,2.1524933E2,4.836092E2,8.0389136E2,7.465922E2,1.3127449E2,8.5503375E2,1.4530107E2,3.210315E2,4.744687E0,1.03690186E2,2.2223251E1,6.8095715E2,5.1538934E2,7.347508E2,2.0080977E2,2.464438E2,1.6321613E2,2.1114206E2,1.0551856E2,1.4510573E2,5.1024588E2,2.8301608E2,1.6193534E3,1.1483292E1,1.7216064E2,3.2951797E1,4.5206715E1,5.7703394E2,6.3928265E1,3.1950986E2,9.637214E2,6.5459076E1,4.464741E2,2.722589E2,2.2158545E2],"tree_param":{"num_deleted":"0","num_feature":"50","num_nodes":"127","size_leaf_vector":"1"}},{"base_weights":[1.8145452E-3,3.2481766E-1,-2.933911E-1,3.90134E-2,6.053529E-1,-5.8691734E-1,-2.201401E-2,-3.2825437E-1,1.9986738E-1,7.783804E-1,3.8787735E-1,-3.5526234E-1,-7.418775E-1,2.263123E-1,-2.6062733E-1,-9.4705224E-1,-2.1402308E-1,4.2886797E-1,-8.64919E-2,9.8375386E-1,6.031791E-1,7.774455E-1,2.8305462E-1,-4.8431033E-1,2.3859483E-1,-8.9640105E-1,-5.804725E-1,1.5653367E-1,1.3666221E0,-4.1614488E-1,4.5285776E-2,-1.4491628E0,-6.1101305E-1,-6.36261E-2,-5.559793E-1,6.333838E-1,1.766087E-1,3.426409E-1,-4.49412E-1,1.331449E0,8.972375E-1,5.423469E-1,9.738165E-1,8.785232E-1,3.820605E-1,-1.7223112E-2,4.3749875E-1,-8.821846E-1,-3.2633933E-1,-4.3012913E-2,3.8037202E-1,-6.937659E-1,-1.1179714E0,-4.5862868E-1,-7.916063E-1,5.135823E-1,2.8118892E-2,5.508581E-1,1.5890608E0,-1.5500625E-2,-5.2773607E-1,4.953928E-1,-4.4360155E-1,-7.62406E-2,-0E0,-2.0820413E-2,-5.6292217E-2,-1.6351037E-2,7.3454403E-3,-3.5123777E-2,4.592568E-3,3.931919E-2,1.4034251E-2,1.1851301E-2,-1.6659424E-2,-2.561072E-2,2.0588284E-2,-2.8999472E-2,1.5415855E-2,4.8649758E-2,7.204007E-2,2.626579E-2,4.8403513E-2,3.149348E-2,1.4984274E-2,5.0945293E-2,-3.8438257E-2,4.866582E-2,1.6873665E-2,1.6232459E-4,3.1299945E-2,8.870172E-3,-2.410795E-2,3.8812287E-2,1.1727082E-2,-4.7201876E-2,2.2787621E-2,-8.903018E-3,-3.5991855E-2,-7.312277E-3,3.7326247E-2,2.1352196E-2,-2.4072716E-2,-2.6241018E-2,-5.3828355E-2,-4.8656713E-2,-6.555693E-2,-1.8055951E-2,-4.1032504E-2,-4.9728278E-2,-3.2396194E-2,1.0037924E-2,2.96894E-2,9.262993E-3,-1.1176377E-2,4.0717367E-2,-1.8576989E-2,8.133354E-2,2.17472E-2,-8.683372E-3,7.4891783E-3,-1.8907264E-2,-3.4296084E-2,-1.3093176E-2,3.2217186E-2,-3.2194972E-2,-9.922958E-3],"categories":[],"categories_nodes":[],"categories_segments":[],"categories_sizes":[],"default_left":[0,0,0,0,0,0,0,0,0,0,0,0,0,0,0,0,0,0,0,0,0,0,0,0,0,0,0,0,0,0,0,0,0,0,0,0,0,0,0,0,0,0,0,0,0,0,0,0,0,0,0,0,0,0,0,0,0,0,0,0,0,0,0,0,0,0,0,0,0,0,0,0,0,0,0,0,0,0,0,0,0,0,0,0,0,0,0,0,0,0,0,0,0,0,0,0,0,0,0,0,0,0,0,0,0,0,0,0,0,0,0,0,0,0,0,0,0,0,0,0,0,0,0,0,0,0,0],"id":4,"left_children":[1,3,5,7,9,11,13,15,17,19,21,23,25,27,29,31,33,35,37,39,41,43,45,47,49,51,53,55,57,59,61,63,65,67,69,71,73,75,77,79,81,83,85,87,89,91,93,95,97,99,101,103,105,107,109,111,113,115,117,119,121,123,125,-1,-1,-1,-1,-1,-1,-1,-1,-1,-1,-1,-1,-1,-1,-1,-1,-1,-1,-1,-1,-1,-1,-1,-1,-1,-1,-1,-1,-1,-1,-1,-1,-1,-1,-1,-1,-1,-1,-1,-1,-1,-1,-1,-1,-1,-1,-1,-1,-1,-1,-1,-1,-1,-1,-1,-1,-1,-1,-1,-1,-1,-1,-1,-1],"loss_changes":[2.0329474E3,8.162057E2,8.872448E2,2.9805728E2,1.9290613E2,1.917157E2,3.4309933E2,1.0829709E2,2.3016528E2,1.02153564E2,9.272467E1,1.6467429E2,7.9270386E1,2.2538947E2,1.4054652E2,3.923915E1,6.6687E1,1.0041052E2,2.4308493E2,3.813208E1,3.4181763E1,1.8815552E1,8.340193E1,1.1047357E2,1.5373163E1,7.2465454E1,3.992157E1,1.2257319E2,2.8559723E1,8.7480194E1,2.1938733E2,1.0355621E1,1.3908508E1,5.0153717E1,3.773973E1,5.77536E1,2.7010746E1,4.2459183E1,8.3875626E1,8.535126E0,2.716388E1,2.7979828E1,1.781961E1,1.9192993E1,9.192127E0,5.542195E1,8.133273E1,4.1907013E1,7.356566E1,1.0578161E1,1.0481586E1,5.4700806E1,2.029834E1,3.4839905E1,1.5904358E1,1.7547195E1,7.788176E1,9.250597E0,4.6319275E0,1.1212064E1,3.58692E1,5.8761147E1,2.325035E1,0E0,0E0,0E0,0E0,0E0,0E0,0E0,0E0,0E0,0E0,0E0,0E0,0E0,0E0,0E0,0E0,0E0,0E0,0E0,0E0,0E0,0E0,0E0,0E0,0E0,0E0,0E0,0E0,0E0,0E0,0E0,0E0,0E0,0E0,0E0,0E0,0E0,0E0,0E0,0E0,0E0,0E0,0E0,0E0,0E0,0E0,0E0,0E0,0E0,0E0,0E0,0E0,0E0,0E0,0E0,0E0,0E0,0E0,0E0,0E0,0E0,0E0,0E0,0E0],"parents":[2147483647,0,0,1,1,2,2,3,3,4,4,5,5,6,6,7,7,8,8,9,9,10,10,11,11,12,12,13,13,14,14,15,15,16,16,17,17,18,18,19,19,20,20,21,21,22,22,23,23,24,24,25,25,26,26,27,27,28,28,29,29,30,30,31,31,32,32,33,33,34,34,35,35,36,36,37,37,38,38,39,39,40,40,41,41,42,42,43,43,44,44,45,45,46,46,47,47,48,48,49,49,50,50,51,51,52,52,53,53,54,54,55,55,56,56,57,57,58,58,59,59,60,60,61,61,62,62],"right_children":[2,4,6,8,10,12,14,16,18,20,22,24,26,28,30,32,34,36,38,40,42,44,46,48,50,52,54,56,58,60,62,64,66,68,70,72,74,76,78,80,82,84,86,88,90,92,94,96,98,100,102,104,106,108,110,112,114,116,118,120,122,124,126,-1,-1,-1,-1,-1,-1,-1,-1,-1,-1,-1,-1,-1,-1,-1,-1,-1,-1,-1,-1,-1,-1,-1,-1,-1,-1,-1,-1,-1,-1,-1,-1,-1,-1,-1,-1,-1,-1,-1,-1,-1,-1,-1,-1,-1,-1,-1,-1,-1,-1,-1,-1,-1,-1,-1,-1,-1,-1,-1,-1,-1,-1,-1,-1],"split_conditions":[-1.8193727E-5,-2E-2,1.4E-2,-5E-1,-2.2717979E-4,4.4680852E-1,1.2246469E-16,4E-2,5E-1,1.2246469E-16,3.026316E-1,-1.2424243E-2,1.2246469E-16,9.642641E1,5E-1,6E0,9.009009E-2,-3.549106E-4,-1.2561028E2,-1.1057007E-3,8.660254E-1,4.5992115E-1,1.8545454E-2,-5E-1,-3.5605394E-6,2.48189E-4,5.835862E-4,2.1894614E-4,9.896169E1,6.363636E-1,1.20044075E2,-3.8E-1,1.7232376E-1,-1.8369701E-16,-5.721212E-2,1.5E-1,4.5434113E1,2.9857376E0,2.2807018E1,2.0525043E1,-1.6E-1,2.5881904E-1,1.20044075E2,7.0710677E-1,-7.5151515E-3,1.5E-2,1.2246469E-16,-1.585473E-2,8.660254E-1,3.6434517E-3,9.659258E-1,7.936508E-1,8.4615386E-1,8.660254E-1,7.0710677E-1,2.2775066E1,-5E-1,6.75E0,8E-2,-3.8E-2,4.438699E-4,2.3128859E1,8.660254E-1,-7.62406E-2,-0E0,-2.0820413E-2,-5.6292217E-2,-1.6351037E-2,7.3454403E-3,-3.5123777E-2,4.592568E-3,3.931919E-2,1.4034251E-2,1.1851301E-2,-1.6659424E-2,-2.561072E-2,2.0588284E-2,-2.8999472E-2,1.5415855E-2,4.8649758E-2,7.204007E-2,2.626579E-2,4.8403513E-2,3.149348E-2,1.4984274E-2,5.0945293E-2,-3.8438257E-2,4.866582E-2,1.6873665E-2,1.6232459E-4,3.1299945E-2,8.870172E-3,-2.410795E-2,3.8812287E-2,1.1727082E-2,-4.7201876E-2,2.2787621E-2,-8.903018E-3,-3.5991855E-2,-7.312277E-3,3.7326247E-2,2.1352196E-2,-2.4072716E-2,-2.6241018E-2,-5.3828355E-2,-4.8656713E-2,-6.555693E-2,-1.8055951E-2,-4.1032504E-2,-4.9728278E-2,-3.2396194E-2,1.0037924E-2,2.96894E-2,9.262993E-3,-1.1176377E-2,4.0717367E-2,-1.8576989E-2,8.133354E-2,2.17472E-2,-8.683372E-3,7.4891783E-3,-1.8907264E-2,-3.4296084E-2,-1.3093176E-2,3.2217186E-2,-3.2194972E-2,-9.922958E-3],"split_indices":[0,1,1,3,0,2,3,23,4,3,17,1,3,18,4,19,2,0,9,0,4,29,1,3,14,0,0,0,5,2,9,8,29,4,1,2,18,18,5,21,8,4,9,3,1,12,3,6,4,7,3,17,2,4,3,21,3,8,41,12,0,21,3,0,0,0,0,0,0,0,0,0,0,0,0,0,0,0,0,0,0,0,0,0,0,0,0,0,0,0,0,0,0,0,0,0,0,0,0,0,0,0,0,0,0,0,0,0,0,0,0,0,0,0,0,0,0,0,0,0,0,0,0,0,0,0,0],"split_type":[0,0,0,0,0,0,0,0,0,0,0,0,0,0,0,0,0,0,0,0,0,0,0,0,0,0,0,0,0,0,0,0,0,0,0,0,0,0,0,0,0,0,0,0,0,0,0,0,0,0,0,0,0,0,0,0,0,0,0,0,0,0,0,0,0,0,0,0,0,0,0,0,0,0,0,0,0,0,0,0,0,0,0,0,0,0,0,0,0,0,0,0,0,0,0,0,0,0,0,0,0,0,0,0,0,0,0,0,0,0,0,0,0,0,0,0,0,0,0,0,0,0,0,0,0,0,0],"sum_hessian":[2.131834E4,1.0179999E4,1.113834E4,5.0433843E3,5.1366143E3,5.350074E3,5.7882656E3,1.5355948E3,3.5077896E3,2.8589456E3,2.277669E3,2.1459546E3,3.2041196E3,2.8362234E3,2.9520422E3,2.3802625E2,1.2975686E3,1.949018E3,1.5587717E3,1.313756E3,1.5451895E3,4.8135773E2,1.7963113E3,1.7631637E3,3.8279095E2,1.6343121E3,1.5698076E3,2.6738296E3,1.6239386E2,1.9570831E3,9.949591E2,9.398443E1,1.4404182E2,9.022329E2,3.9533572E2,1.0753141E3,8.737039E2,7.141314E2,8.446403E2,2.5866763E2,1.0550884E3,1.3296832E3,2.1550616E2,3.8218076E2,9.917697E1,6.101905E2,1.1861207E3,4.9960757E2,1.263556E3,1.2818074E2,2.5461021E2,8.560249E2,7.782872E2,9.9769214E2,5.721155E2,7.06282E2,1.9675476E3,3.5634644E1,1.2675921E2,4.267966E2,1.5302865E3,5.1812494E2,4.7683417E2,8.92474E1,4.737032E0,1.0598344E2,3.8058384E1,4.007664E2,5.0146652E2,3.2248178E2,7.2853935E1,7.489208E2,3.2639328E2,7.81784E2,9.1919945E1,5.2837784E1,6.612936E2,7.207943E2,1.2384602E2,6.299253E1,1.9567511E2,1.7036746E2,8.8472095E2,9.757452E2,3.5393808E2,2.1053134E2,4.9748297E0,3.2436707E2,5.7813683E1,3.940612E1,5.9770847E1,4.3041718E2,1.7977333E2,4.4315405E2,7.4296674E2,4.7788412E2,2.1723465E1,9.189727E2,3.4458334E2,1.1419154E2,1.3989197E1,2.4211888E2,1.249134E1,5.9573517E2,2.6028973E2,4.485321E2,3.297551E2,7.877792E2,2.0991293E2,2.3439792E2,3.377176E2,1.4510048E2,5.611815E2,1.2116145E3,7.5593317E2,2.789251E1,7.7421336E0,1.22278336E2,4.4808755E0,2.1837727E2,2.0841933E2,7.885777E2,7.4170886E2,8.492786E1,4.3319705E2,2.6129993E2,2.1553424E2],"tree_param":{"num_deleted":"0","num_feature":"50","num_nodes":"127","size_leaf_vector":"1"}},{"base_weights":[2.8475416E-3,3.0765226E-1,-2.7439484E-1,3.693787E-2,5.825008E-1,-5.6621736E-1,-5.085216E-3,-1.2212368E0,8.967357E-2,7.4924684E-1,3.7495136E-1,-3.730206E-1,-7.290121E-1,2.2455096E-1,-2.268724E-1,-1.3880484E0,-5.9848566E-2,-2.654904E-1,2.452897E-1,8.7713313E-1,4.785773E-1,7.7072746E-1,2.658185E-1,-5.1682115E-1,7.8050464E-2,-8.363608E-1,-4.147954E-1,1.5634023E-1,1.3300016E0,-3.835153E-1,8.033216E-2,2.4901453E-2,-1.4426528E0,2.7858618E-1,-7.778552E-1,-8.646509E-2,-5.6661355E-1,4.30393E-1,6.567767E-4,1.2152253E0,8.1220907E-1,5.4271895E-1,2.6639867E-1,8.4954995E-1,3.6697894E-1,-5.0875057E-2,3.9482892E-1,-7.900415E-1,-2.8299716E-1,2.3474279E-1,-1.2044149E-1,-7.3854756E-1,-1.098476E0,-5.99463E-1,-2.2371022E-1,5.143822E-1,2.9218303E-2,8.0721036E-2,1.5278187E0,2.0018188E-2,-4.7890317E-1,5.154962E-1,-3.4465024E-1,-7.686883E-2,-4.1705713E-2,-1.6823236E-2,5.6661557E-2,-6.208865E-2,-9.5585985E-3,-2.4892582E-2,5.580315E-3,-1.8260574E-2,-3.761901E-2,2.744237E-2,4.9908794E-3,2.544183E-2,-1.3949558E-2,6.292429E-2,7.083406E-3,3.0603161E-2,4.5741435E-2,3.5838213E-2,2.1026842E-2,6.1253565E-3,3.2617897E-2,-4.64178E-3,4.4004206E-2,-7.6690638E-3,2.5330776E-2,8.134734E-3,-2.4495196E-2,3.7015997E-2,1.3269282E-2,-1.1525794E-2,-4.3728516E-2,-1.0249496E-2,-3.7390154E-2,-9.101653E-3,1.6604414E-2,9.863004E-4,-2.3695588E-2,-2.8394053E-2,-4.9200367E-2,-6.0952164E-2,-4.4964563E-2,-3.274198E-2,2.6867105E-2,1.2313667E-2,-1.3522329E-2,1.2954116E-2,3.3821516E-2,2.6637027E-2,-2.584909E-3,3.076676E-2,-2.9245032E-2,7.878848E-2,-8.896044E-3,1.9056717E-2,-4.715967E-3,-1.0342307E-2,-2.8644333E-2,-2.7872218E-2,3.0851206E-2,-3.1569358E-2,-7.6290565E-3],"categories":[],"categories_nodes":[],"categories_segments":[],"categories_sizes":[],"default_left":[0,0,0,0,0,0,0,0,0,0,0,0,0,0,0,0,0,0,0,0,0,0,0,0,0,0,0,0,0,0,0,0,0,0,0,0,0,0,0,0,0,0,0,0,0,0,0,0,0,0,0,0,0,0,0,0,0,0,0,0,0,0,0,0,0,0,0,0,0,0,0,0,0,0,0,0,0,0,0,0,0,0,0,0,0,0,0,0,0,0,0,0,0,0,0,0,0,0,0,0,0,0,0,0,0,0,0,0,0,0,0,0,0,0,0,0,0,0,0,0,0,0,0,0,0],"id":5,"left_children":[1,3,5,7,9,11,13,15,17,19,21,23,25,27,29,31,33,35,37,39,41,43,45,47,49,51,53,55,57,59,61,-1,63,65,67,69,71,73,75,77,79,81,83,85,87,89,91,93,95,97,99,101,103,105,107,109,111,113,115,117,119,121,123,-1,-1,-1,-1,-1,-1,-1,-1,-1,-1,-1,-1,-1,-1,-1,-1,-1,-1,-1,-1,-1,-1,-1,-1,-1,-1,-1,-1,-1,-1,-1,-1,-1,-1,-1,-1,-1,-1,-1,-1,-1,-1,-1,-1,-1,-1,-1,-1,-1,-1,-1,-1,-1,-1,-1,-1,-1,-1,-1,-1,-1,-1],"loss_changes":[1.7934927E3,7.521127E2,8.734045E2,3.3800446E2,1.7320593E2,1.6737708E2,2.944894E2,3.9472992E1,2.703484E2,9.568164E1,9.630939E1,1.5845193E2,9.712439E1,2.1383629E2,1.4161386E2,1.9254883E1,6.7929354E0,8.021999E1,1.5396854E2,4.0223267E1,1.1948929E1,1.4930603E1,7.176452E1,1.1796106E2,1.841796E1,5.4265503E1,2.5860954E1,1.2176264E2,4.046057E1,7.506076E1,1.840206E2,0E0,8.529877E0,1.0393228E1,2.058588E0,7.635959E1,2.0386963E1,7.568698E1,2.0853351E2,1.3692078E1,3.1862183E1,1.4163773E1,1.150393E1,1.175528E1,5.985757E0,4.7809532E1,5.549124E1,4.003723E1,3.59916E1,1.3498056E1,1.2988964E1,6.5180725E1,1.2702637E1,2.3967651E1,8.087505E0,2.8735916E1,8.061099E1,8.783378E0,1.2051666E1,1.5478093E1,4.0107178E1,5.3904816E1,2.7547054E1,0E0,0E0,0E0,0E0,0E0,0E0,0E0,0E0,0E0,0E0,0E0,0E0,0E0,0E0,0E0,0E0,0E0,0E0,0E0,0E0,0E0,0E0,0E0,0E0,0E0,0E0,0E0,0E0,0E0,0E0,0E0,0E0,0E0,0E0,0E0,0E0,0E0,0E0,0E0,0E0,0E0,0E0,0E0,0E0,0E0,0E0,0E0,0E0,0E0,0E0,0E0,0E0,0E0,0E0,0E0,0E0,0E0,0E0,0E0,0E0,0E0,0E0],"parents":[2147483647,0,0,1,1,2,2,3,3,4,4,5,5,6,6,7,7,8,8,9,9,10,10,11,11,12,12,13,13,14,14,15,15,16,16,17,17,18,18,19,19,20,20,21,21,22,22,23,23,24,24,25,25,26,26,27,27,28,28,29,29,30,30,32,32,33,33,34,34,35,35,36,36,37,37,38,38,39,39,40,40,41,41,42,42,43,43,44,44,45,45,46,46,47,47,48,48,49,49,50,50,51,51,52,52,53,53,54,54,55,55,56,56,57,57,58,58,59,59,60,60,61,61,62,62],"right_children":[2,4,6,8,10,12,14,16,18,20,22,24,26,28,30,32,34,36,38,40,42,44,46,48,50,52,54,56,58,60,62,-1,64,66,68,70,72,74,76,78,80,82,84,86,88,90,92,94,96,98,100,102,104,106,108,110,112,114,116,118,120,122,124,-1,-1,-1,-1,-1,-1,-1,-1,-1,-1,-1,-1,-1,-1,-1,-1,-1,-1,-1,-1,-1,-1,-1,-1,-1,-1,-1,-1,-1,-1,-1,-1,-1,-1,-1,-1,-1,-1,-1,-1,-1,-1,-1,-1,-1,-1,-1,-1,-1,-1,-1,-1,-1,-1,-1,-1,-1,-1,-1,-1,-1,-1],"split_conditions":[-1.8193727E-5,-1.6E-2,1.4E-2,1E0,-2.2717979E-4,5.081967E-1,1.2246469E-16,8.660254E-1,-5E-1,7.0710677E-1,3.243243E-1,-2.7030302E-2,7.0710677E-1,9.642641E1,5E-1,-2.8794097E5,1.1374899E-1,-3.8E-1,5E-1,-1.2737116E-3,1.3565285E0,2.7027026E-1,1.0848485E-2,1.2246469E-16,3.6363637E-1,5.6858564E-4,7.2966206E-1,2.1894614E-4,9.851374E1,5.833333E-1,1.189337E2,2.4901453E-2,1.1494253E-2,-3.4519258E-1,-1.5248018E-3,-2.5881904E-1,3.258642E1,2.751678E-1,-1.326479E2,5.779857E-2,-7.0710677E-1,-8.5430325E-4,1.27651E3,4.803215E-2,2.8634306E1,5.7894737E-1,-2.5881904E-1,-7.0710677E-1,8.660254E-1,1.0144928E1,1.9393939E-3,6.818182E-1,5E0,4E0,7.912766E-3,3.029018E1,8.076923E-1,9.7486004E-2,6E-2,5.387417E1,1.4950238E-4,2.355639E-2,7.0710677E-1,-7.686883E-2,-4.1705713E-2,-1.6823236E-2,5.6661557E-2,-6.208865E-2,-9.5585985E-3,-2.4892582E-2,5.580315E-3,-1.8260574E-2,-3.761901E-2,2.744237E-2,4.9908794E-3,2.544183E-2,-1.3949558E-2,6.292429E-2,7.083406E-3,3.0603161E-2,4.5741435E-2,3.5838213E-2,2.1026842E-2,6.1253565E-3,3.2617897E-2,-4.64178E-3,4.4004206E-2,-7.6690638E-3,2.5330776E-2,8.134734E-3,-2.4495196E-2,3.7015997E-2,1.3269282E-2,-1.1525794E-2,-4.3728516E-2,-1.0249496E-2,-3.7390154E-2,-9.101653E-3,1.6604414E-2,9.863004E-4,-2.3695588E-2,-2.8394053E-2,-4.9200367E-2,-6.0952164E-2,-4.4964563E-2,-3.274198E-2,2.6867105E-2,1.2313667E-2,-1.3522329E-2,1.2954116E-2,3.3821516E-2,2.6637027E-2,-2.584909E-3,3.076676E-2,-2.9245032E-2,7.878848E-2,-8.896044E-3,1.9056717E-2,-4.715967E-3,-1.0342307E-2,-2.8644333E-2,-2.7872218E-2,3.0851206E-2,-3.1569358E-2,-7.6290565E-3],"split_indices":[0,1,1,10,0,2,3,3,3,3,17,1,3,18,4,33,44,15,4,0,27,2,1,3,2,0,27,0,5,2,9,0,17,16,22,4,21,2,9,32,4,0,42,31,34,17,3,4,4,5,1,17,10,47,37,21,2,44,13,18,0,43,3,0,0,0,0,0,0,0,0,0,0,0,0,0,0,0,0,0,0,0,0,0,0,0,0,0,0,0,0,0,0,0,0,0,0,0,0,0,0,0,0,0,0,0,0,0,0,0,0,0,0,0,0,0,0,0,0,0,0,0,0,0,0],"split_type":[0,0,0,0,0,0,0,0,0,0,0,0,0,0,0,0,0,0,0,0,0,0,0,0,0,0,0,0,0,0,0,0,0,0,0,0,0,0,0,0,0,0,0,0,0,0,0,0,0,0,0,0,0,0,0,0,0,0,0,0,0,0,0,0,0,0,0,0,0,0,0,0,0,0,0,0,0,0,0,0,0,0,0,0,0,0,0,0,0,0,0,0,0,0,0,0,0,0,0,0,0,0,0,0,0,0,0,0,0,0,0,0,0,0,0,0,0,0,0,0,0,0,0,0,0],"sum_hessian":[2.1221525E4,1.0108419E4,1.1113107E4,5.093264E3,5.015155E3,5.3329146E3,5.780193E3,2.0392572E2,4.8893384E3,2.779224E3,2.2359307E3,2.440525E3,2.8923896E3,2.8396182E3,2.940575E3,1.780683E2,2.5857416E1,1.4891926E3,3.4001455E3,1.8856704E3,8.935537E2,4.8177386E2,1.7541569E3,1.8506252E3,5.898996E2,2.1543867E3,7.380028E2,2.6757458E3,1.6387234E2,1.9475836E3,9.9299133E2,4.73024E0,1.7333806E2,1.789519E1,7.9622283E0,9.3495654E2,5.542361E2,1.934912E3,1.4652336E3,3.006703E2,1.5850001E3,6.845768E2,2.089769E2,4.0195053E2,7.982331E1,5.0769714E2,1.2464597E3,8.521233E2,9.9850195E2,3.2984027E2,2.6005936E2,1.5719744E3,5.824124E2,3.7395074E2,3.640521E2,7.0009064E2,1.9756552E3,2.2662796E1,1.4120955E2,3.7230563E2,1.575278E3,4.906296E2,5.023617E2,1.4852786E2,2.4810196E1,1.0690792E1,7.2043962E0,3.7275963E0,4.234632E0,3.0352933E2,6.314272E2,2.6760822E2,2.8662784E2,1.423772E3,5.1113995E2,5.199365E2,9.452972E2,2.8876855E2,1.1901735E1,5.399123E2,1.0450878E3,2.8001605E2,4.0456076E2,1.5337343E2,5.5603466E1,1.2448014E1,3.8950253E2,1.6716003E1,6.310731E1,3.418181E2,1.6587903E2,3.3822565E2,9.08234E2,1.1248118E2,7.396421E2,8.564262E2,1.4207576E2,6.2093845E1,2.6774643E2,1.866895E2,7.3369835E1,9.294528E2,6.425215E2,3.59303E2,2.2310939E2,3.5706897E2,1.6881783E1,3.234815E1,3.3170395E2,2.7308035E2,4.270103E2,2.7293066E2,1.7027245E3,1.2693451E1,9.969345E0,1.3747961E2,3.7299428E0,8.918158E1,2.8312405E2,4.0555872E2,1.1697192E3,4.193956E1,4.4869006E2,2.0039192E2,3.019698E2],"tree_param":{"num_deleted":"0","num_feature":"50","num_nodes":"125","size_leaf_vector":"1"}},{"base_weights":[-4.4093537E-3,2.8835237E-1,-2.7007058E-1,2.412477E-2,5.5520856E-1,-5.40912E-1,-2.0868152E-2,-3.3275807E-1,1.7800081E-1,7.2034496E-1,3.496975E-1,-3.488481E-1,-7.037156E-1,3.2848805E-1,-1.6417727E-1,-9.4015074E-1,-2.303653E-1,3.890278E-1,-8.560874E-2,8.4780693E-1,4.5249718E-1,5.4450846E-1,1.7469835E-1,-4.8462284E-1,1.1003815E-1,-8.750178E-1,-5.3069425E-1,2.4600327E-1,1.0415629E0,-3.5610425E-1,9.994451E-2,-1.3421733E0,-4.0225345E-1,-7.756707E-2,-5.8169997E-1,5.6528354E-1,1.5325077E-1,3.0658698E-1,-4.4072875E-1,1.0430338E0,7.473292E-1,5.271248E-1,2.2315834E-1,-5.3388312E-2,5.851207E-1,-1.9943981E-1,3.370639E-1,-7.336905E-1,-2.6994148E-1,2.234967E-1,-1.7023574E-1,-7.0071226E-1,-1.0705659E0,-4.5868662E-1,-8.770618E-1,6.353085E-1,8.626555E-2,1.3870093E0,3.6202818E-1,-6.272578E-2,-5.12348E-1,3.9777485E-1,-4.581407E-1,-7.408577E-2,-4.251876E-2,-3.82536E-2,-6.4748875E-3,3.639321E-3,-2.4509402E-2,-2.2079183E-2,-5.0556388E-2,3.4545433E-2,1.2974516E-2,-1.2331295E-2,1.1546886E-2,-1.8574195E-2,2.0810599E-2,-2.9242462E-2,1.6466578E-2,2.919736E-2,5.4601163E-2,2.142069E-2,4.3735262E-2,2.7383486E-2,-1.2053314E-2,2.4123283E-2,-7.25832E-4,1.0647235E-2,-6.616024E-2,3.8234748E-2,2.1543823E-2,4.8521135E-4,-2.1651808E-2,3.1863872E-2,6.2194327E-3,-4.2635173E-2,-1.6756391E-2,-1.1972476E-3,-1.9084953E-2,-7.418538E-3,1.5706671E-2,-1.38280755E-2,5.8411896E-2,-5.955545E-2,-2.7104596E-2,-4.2188596E-2,-6.2105566E-2,-1.6476026E-2,-3.2293875E-2,-5.33046E-2,-2.0273065E-2,3.543404E-2,-2.759213E-4,2.7577374E-2,-4.7222842E-4,8.595842E-3,7.466242E-2,4.9315896E-2,-3.4527555E-3,8.053006E-3,-9.624986E-3,-1.6809242E-2,-3.632202E-2,1.4919484E-2,5.8344185E-2,-1.3205904E-2,-4.0371697E-2],"categories":[],"categories_nodes":[],"categories_segments":[],"categories_sizes":[],"default_left":[0,0,0,0,0,0,0,0,0,0,0,0,0,0,0,0,0,0,0,0,0,0,0,0,0,0,0,0,0,0,0,0,0,0,0,0,0,0,0,0,0,0,0,0,0,0,0,0,0,0,0,0,0,0,0,0,0,0,0,0,0,0,0,0,0,0,0,0,0,0,0,0,0,0,0,0,0,0,0,0,0,0,0,0,0,0,0,0,0,0,0,0,0,0,0,0,0,0,0,0,0,0,0,0,0,0,0,0,0,0,0,0,0,0,0,0,0,0,0,0,0,0,0,0,0,0,0],"id":6,"left_children":[1,3,5,7,9,11,13,15,17,19,21,23,25,27,29,31,33,35,37,39,41,43,45,47,49,51,53,55,57,59,61,63,65,67,69,71,73,75,77,79,81,83,85,87,89,91,93,95,97,99,101,103,105,107,109,111,113,115,117,119,121,123,125,-1,-1,-1,-1,-1,-1,-1,-1,-1,-1,-1,-1,-1,-1,-1,-1,-1,-1,-1,-1,-1,-1,-1,-1,-1,-1,-1,-1,-1,-1,-1,-1,-1,-1,-1,-1,-1,-1,-1,-1,-1,-1,-1,-1,-1,-1,-1,-1,-1,-1,-1,-1,-1,-1,-1,-1,-1,-1,-1,-1,-1,-1,-1,-1],"loss_changes":[1.647067E3,7.1029486E2,7.492992E2,2.78107E2,1.6973938E2,1.6600208E2,2.8959637E2,9.454849E1,1.9692471E2,9.432263E1,7.603784E1,1.5230142E2,8.469946E1,9.8574905E1,2.0800381E2,4.677739E1,7.005296E1,8.153583E1,2.1937024E2,3.593457E1,1.5177826E1,2.5751038E1,7.171785E1,1.0052225E2,1.7801357E1,4.8305664E1,3.5247314E1,9.374225E1,4.0169876E1,1.0883017E2,2.872137E2,7.0953064E0,9.259206E0,5.6670086E1,2.3222717E1,4.291574E1,2.622912E1,5.5791252E1,9.1954346E1,1.3503052E1,5.009247E1,1.0839767E1,1.3769798E1,2.3387184E1,2.6973236E1,1.7503986E1,5.2387184E1,4.0961395E1,2.7840294E1,1.3484552E1,2.3179752E1,5.8832E1,2.5143127E1,2.8464981E1,2.1314651E1,2.0707306E1,4.778229E1,1.441069E1,1.633289E1,2.4053812E1,5.8111237E1,8.562445E1,4.0427094E1,0E0,0E0,0E0,0E0,0E0,0E0,0E0,0E0,0E0,0E0,0E0,0E0,0E0,0E0,0E0,0E0,0E0,0E0,0E0,0E0,0E0,0E0,0E0,0E0,0E0,0E0,0E0,0E0,0E0,0E0,0E0,0E0,0E0,0E0,0E0,0E0,0E0,0E0,0E0,0E0,0E0,0E0,0E0,0E0,0E0,0E0,0E0,0E0,0E0,0E0,0E0,0E0,0E0,0E0,0E0,0E0,0E0,0E0,0E0,0E0,0E0,0E0,0E0,0E0],"parents":[2147483647,0,0,1,1,2,2,3,3,4,4,5,5,6,6,7,7,8,8,9,9,10,10,11,11,12,12,13,13,14,14,15,15,16,16,17,17,18,18,19,19,20,20,21,21,22,22,23,23,24,24,25,25,26,26,27,27,28,28,29,29,30,30,31,31,32,32,33,33,34,34,35,35,36,36,37,37,38,38,39,39,40,40,41,41,42,42,43,43,44,44,45,45,46,46,47,47,48,48,49,49,50,50,51,51,52,52,53,53,54,54,55,55,56,56,57,57,58,58,59,59,60,60,61,61,62,62],"right_children":[2,4,6,8,10,12,14,16,18,20,22,24,26,28,30,32,34,36,38,40,42,44,46,48,50,52,54,56,58,60,62,64,66,68,70,72,74,76,78,80,82,84,86,88,90,92,94,96,98,100,102,104,106,108,110,112,114,116,118,120,122,124,126,-1,-1,-1,-1,-1,-1,-1,-1,-1,-1,-1,-1,-1,-1,-1,-1,-1,-1,-1,-1,-1,-1,-1,-1,-1,-1,-1,-1,-1,-1,-1,-1,-1,-1,-1,-1,-1,-1,-1,-1,-1,-1,-1,-1,-1,-1,-1,-1,-1,-1,-1,-1,-1,-1,-1,-1,-1,-1,-1,-1,-1,-1,-1,-1],"split_conditions":[-1.8193727E-5,-1.8E-2,1.4E-2,-5E-1,-2.2717979E-4,5.081967E-1,-5E-1,6E0,5E-1,7.0710677E-1,4.4186047E-1,-2.2242425E-2,1.2246469E-16,9.314217E1,5E-1,8E-2,1.8696883E-1,-3.2654929E-4,-1.2423873E2,1.7269076E-1,5E-1,-7.5151226E-3,2.3515152E-2,1.2246469E-16,1.0303031E-3,8.4615386E-1,8.660254E-1,-2.5881904E-1,7E-2,8.227848E-1,1.3141725E2,1.6675179E1,1.1627983E-1,-2.7461554E-4,-3.1E-1,1.5789473E-1,0E0,5.434114E0,2.2807018E1,-3.1856827E-3,-7.0710677E-1,2.6127322E0,8.660254E-1,6.972773E1,1.3636364E-1,5.925926E1,1.2246469E-16,2.0405983E1,1.0015775E-4,-1.2424243E-2,1.1420119E0,-1.19939394E-1,1.9691685E-4,5.380434E-4,5.6888352E-6,2.1014568E2,1.3998913E-4,1.1138666E-1,9.5714283E-1,4.6666667E-1,5.5303535E-4,7.813253E1,9.659258E-1,-7.408577E-2,-4.251876E-2,-3.82536E-2,-6.4748875E-3,3.639321E-3,-2.4509402E-2,-2.2079183E-2,-5.0556388E-2,3.4545433E-2,1.2974516E-2,-1.2331295E-2,1.1546886E-2,-1.8574195E-2,2.0810599E-2,-2.9242462E-2,1.6466578E-2,2.919736E-2,5.4601163E-2,2.142069E-2,4.3735262E-2,2.7383486E-2,-1.2053314E-2,2.4123283E-2,-7.25832E-4,1.0647235E-2,-6.616024E-2,3.8234748E-2,2.1543823E-2,4.8521135E-4,-2.1651808E-2,3.1863872E-2,6.2194327E-3,-4.2635173E-2,-1.6756391E-2,-1.1972476E-3,-1.9084953E-2,-7.418538E-3,1.5706671E-2,-1.38280755E-2,5.8411896E-2,-5.955545E-2,-2.7104596E-2,-4.2188596E-2,-6.2105566E-2,-1.6476026E-2,-3.2293875E-2,-5.33046E-2,-2.0273065E-2,3.543404E-2,-2.759213E-4,2.7577374E-2,-4.7222842E-4,8.595842E-3,7.466242E-2,4.9315896E-2,-3.4527555E-3,8.053006E-3,-9.624986E-3,-1.6809242E-2,-3.632202E-2,1.4919484E-2,5.8344185E-2,-1.3205904E-2,-4.0371697E-2],"split_indices":[0,1,1,3,0,2,3,19,4,3,2,1,3,18,4,23,29,0,9,2,4,20,1,3,1,2,4,4,23,2,9,39,44,0,15,2,3,18,5,20,4,27,3,34,2,11,3,5,0,1,29,1,0,0,22,9,0,6,2,2,0,34,4,0,0,0,0,0,0,0,0,0,0,0,0,0,0,0,0,0,0,0,0,0,0,0,0,0,0,0,0,0,0,0,0,0,0,0,0,0,0,0,0,0,0,0,0,0,0,0,0,0,0,0,0,0,0,0,0,0,0,0,0,0,0,0,0],"split_type":[0,0,0,0,0,0,0,0,0,0,0,0,0,0,0,0,0,0,0,0,0,0,0,0,0,0,0,0,0,0,0,0,0,0,0,0,0,0,0,0,0,0,0,0,0,0,0,0,0,0,0,0,0,0,0,0,0,0,0,0,0,0,0,0,0,0,0,0,0,0,0,0,0,0,0,0,0,0,0,0,0,0,0,0,0,0,0,0,0,0,0,0,0,0,0,0,0,0,0,0,0,0,0,0,0,0,0,0,0,0,0,0,0,0,0,0,0,0,0,0,0,0,0,0,0,0,0],"sum_hessian":[2.1175236E4,1.0073577E4,1.1101658E4,5.0624546E3,5.0111226E3,5.319107E3,5.782552E3,1.5246168E3,3.537838E3,2.7768335E3,2.234289E3,2.4419858E3,2.8771208E3,1.6814807E3,4.1010713E3,2.1861815E2,1.3059987E3,1.9648348E3,1.573003E3,1.8797634E3,8.970702E2,1.0560264E3,1.1782628E3,1.8845494E3,5.5743646E2,1.4434137E3,1.4337072E3,1.5084735E3,1.7300713E2,2.375163E3,1.7259081E3,1.24148705E2,9.446945E1,9.112111E2,3.9478754E2,1.1232928E3,8.4154205E2,7.474129E2,8.255902E2,6.352007E2,1.2445627E3,6.7551935E2,2.2155084E2,6.699171E1,9.890346E2,3.5632974E2,8.2193304E2,8.710716E2,1.0134779E3,3.9720288E2,1.6023357E2,7.6585175E2,6.77562E2,1.1891115E3,2.4459572E2,4.3782468E2,1.0706489E3,1.13911255E2,5.909587E1,8.260786E2,1.5490845E3,1.1256532E3,6.002548E2,9.498235E1,2.9166355E1,3.960947E1,5.4859978E1,6.6828015E2,2.4293098E2,2.9936884E2,9.541872E1,7.950757E2,3.282171E2,1.3633345E2,7.052086E2,1.0355934E2,6.438535E2,6.95748E2,1.298422E2,6.2689526E1,5.7251117E2,3.566801E2,8.878826E2,6.583299E2,1.7189432E1,1.05662315E2,1.1588852E2,5.5999786E1,1.09919195E1,4.5486523E2,5.341694E2,1.8828465E2,1.6804509E2,3.398012E2,4.8213184E2,6.6970404E2,2.0136755E2,3.172557E2,6.9622217E2,7.7498634E1,3.1970425E2,1.4924586E2,1.0987714E1,1.8542995E2,5.804218E2,2.9459296E2,3.8296902E2,7.055558E2,4.835557E2,1.7355682E2,7.103889E1,3.9289035E2,4.4934334E1,1.8202771E2,8.8862115E2,9.44501E0,1.0446625E2,2.3707266E1,3.5388603E1,3.0284036E2,5.232383E2,8.514869E2,6.975976E2,9.981846E2,1.2746863E2,3.872119E2,2.1304294E2],"tree_param":{"num_deleted":"0","num_feature":"50","num_nodes":"127","size_leaf_vector":"1"}},{"base_weights":[1.2543066E-3,2.7801928E-1,-2.5543633E-1,2.801081E-2,5.130995E-1,-5.153872E-1,-1.8729622E-2,-1.1612744E0,7.823202E-2,6.8587697E-1,3.010259E-1,-3.7433374E-1,-7.1976453E-1,-8.300498E-2,7.04076E-1,-1.3127983E0,-1.8331206E-1,-2.4686629E-1,2.1967563E-1,7.894908E-1,4.695232E-1,6.201549E-1,2.1209276E-1,-4.9731556E-1,-2.9594062E-2,-9.1557115E-1,-5.330717E-1,2.2949487E-1,-2.117954E-1,9.4805086E-1,-4.7266643E-2,2.4496056E-2,-1.3670393E0,-9.243428E-1,7.565011E-2,-1.270632E-1,-5.87331E-1,4.0054074E-1,-1.8351812E-2,9.756102E-1,6.7713356E-1,5.944517E-1,2.7989605E-1,1.2493966E-1,7.5015086E-1,-3.3030413E-2,3.4149337E-1,-7.23961E-1,-3.086947E-1,2.27147E-1,-2.1606058E-1,-6.812975E-1,-1.0311278E0,-5.636458E-1,6.0054004E-1,4.953519E-1,1.356677E-2,9.3326084E-2,-3.2892713E-1,4.7678423E-1,1.3501424E0,-4.057719E-1,2.8330204E-1,-7.255354E-2,-3.9734628E-2,-2.1074047E-2,-5.9175845E-2,1.9043686E-2,-4.1206334E-2,-1.8750308E-2,4.6681375E-3,-3.8188685E-2,-1.8703727E-2,2.8303418E-2,8.945392E-3,1.750931E-2,-1.7237647E-2,4.35417E-2,5.705474E-2,6.1906106E-3,3.877407E-2,4.6506137E-2,2.4377195E-2,3.8766313E-2,1.01373745E-2,-4.250699E-3,3.2034155E-2,-1.4230795E-2,3.9292287E-2,1.1429913E-2,-1.0552454E-2,3.5411324E-2,1.0514372E-2,-4.2215068E-2,-1.9221336E-2,-1.1800188E-2,-3.6455553E-2,1.4252826E-2,-2.4901269E-2,-5.8167297E-3,-2.7296016E-2,-2.7286995E-2,-4.6074536E-2,-4.554491E-2,-6.150936E-2,-2.4459315E-2,-4.7286216E-2,4.6659928E-2,-4.6180956E-2,2.7703697E-2,4.5665196E-4,8.353168E-3,-1.815929E-2,-1.5042213E-3,2.8652167E-2,-3.0113101E-2,-7.447236E-3,4.279066E-2,6.416918E-3,-5.020746E-3,7.113879E-2,-2.8502697E-2,2.017134E-2,9.40396E-3,7.436451E-2],"categories":[],"categories_nodes":[],"categories_segments":[],"categories_sizes":[],"default_left":[0,0,0,0,0,0,0,0,0,0,0,0,0,0,0,0,0,0,0,0,0,0,0,0,0,0,0,0,0,0,0,0,0,0,0,0,0,0,0,0,0,0,0,0,0,0,0,0,0,0,0,0,0,0,0,0,0,0,0,0,0,0,0,0,0,0,0,0,0,0,0,0,0,0,0,0,0,0,0,0,0,0,0,0,0,0,0,0,0,0,0,0,0,0,0,0,0,0,0,0,0,0,0,0,0,0,0,0,0,0,0,0,0,0,0,0,0,0,0,0,0,0,0,0,0],"id":7,"left_children":[1,3,5,7,9,11,13,15,17,19,21,23,25,27,29,31,33,35,37,39,41,43,45,47,49,51,53,55,57,59,61,-1,63,65,67,69,71,73,75,77,79,81,83,85,87,89,91,93,95,97,99,101,103,105,107,109,111,113,115,117,119,121,123,-1,-1,-1,-1,-1,-1,-1,-1,-1,-1,-1,-1,-1,-1,-1,-1,-1,-1,-1,-1,-1,-1,-1,-1,-1,-1,-1,-1,-1,-1,-1,-1,-1,-1,-1,-1,-1,-1,-1,-1,-1,-1,-1,-1,-1,-1,-1,-1,-1,-1,-1,-1,-1,-1,-1,-1,-1,-1,-1,-1,-1,-1],"loss_changes":[1.503379E3,5.983943E2,6.7548157E2,2.9479495E2,1.9198267E2,1.5045605E2,2.6701767E2,2.9242737E1,2.1787317E2,6.430701E1,6.6708755E1,1.3128036E2,7.741919E1,2.1251778E2,8.61685E1,1.7663483E1,5.542909E0,5.8442574E1,1.4218246E2,4.0012695E1,2.1988342E1,3.2852905E1,5.859185E1,9.727966E1,3.910692E1,2.7294067E1,3.8309784E1,8.840385E1,1.3369096E2,6.633731E1,1.3862259E1,0E0,6.7100525E0,3.1120348E-1,6.2101693E0,5.8214447E1,1.365007E1,6.866083E1,1.7168552E2,1.1506409E1,6.627783E1,1.9672897E1,1.4081827E1,1.1810396E1,1.5273041E1,2.9780323E1,5.7907974E1,4.188629E1,3.787423E1,1.4546486E1,1.5441673E1,1.0646378E1,1.5287964E1,2.9763489E1,1.5654278E1,1.9650894E1,4.9287758E1,6.151058E1,1.3278165E2,2.156282E1,2.035614E1,7.711773E0,6.516604E0,0E0,0E0,0E0,0E0,0E0,0E0,0E0,0E0,0E0,0E0,0E0,0E0,0E0,0E0,0E0,0E0,0E0,0E0,0E0,0E0,0E0,0E0,0E0,0E0,0E0,0E0,0E0,0E0,0E0,0E0,0E0,0E0,0E0,0E0,0E0,0E0,0E0,0E0,0E0,0E0,0E0,0E0,0E0,0E0,0E0,0E0,0E0,0E0,0E0,0E0,0E0,0E0,0E0,0E0,0E0,0E0,0E0,0E0,0E0,0E0,0E0,0E0],"parents":[2147483647,0,0,1,1,2,2,3,3,4,4,5,5,6,6,7,7,8,8,9,9,10,10,11,11,12,12,13,13,14,14,15,15,16,16,17,17,18,18,19,19,20,20,21,21,22,22,23,23,24,24,25,25,26,26,27,27,28,28,29,29,30,30,32,32,33,33,34,34,35,35,36,36,37,37,38,38,39,39,40,40,41,41,42,42,43,43,44,44,45,45,46,46,47,47,48,48,49,49,50,50,51,51,52,52,53,53,54,54,55,55,56,56,57,57,58,58,59,59,60,60,61,61,62,62],"right_children":[2,4,6,8,10,12,14,16,18,20,22,24,26,28,30,32,34,36,38,40,42,44,46,48,50,52,54,56,58,60,62,-1,64,66,68,70,72,74,76,78,80,82,84,86,88,90,92,94,96,98,100,102,104,106,108,110,112,114,116,118,120,122,124,-1,-1,-1,-1,-1,-1,-1,-1,-1,-1,-1,-1,-1,-1,-1,-1,-1,-1,-1,-1,-1,-1,-1,-1,-1,-1,-1,-1,-1,-1,-1,-1,-1,-1,-1,-1,-1,-1,-1,-1,-1,-1,-1,-1,-1,-1,-1,-1,-1,-1,-1,-1,-1,-1,-1,-1,-1,-1,-1,-1,-1,-1],"split_conditions":[-1.50771575E-5,-2.4666667E-2,1.4E-2,1E0,-2.2717979E-4,6.875E-1,8E0,8.660254E-1,-5E-1,7.0710677E-1,3.026316E-1,-2.2242425E-2,1.2246469E-16,-5E-1,7.0710677E-1,-2.8794097E5,0E0,-2.9111022E-4,5E-1,2E-1,2.5881904E-1,-1.0787879E-2,1.8545454E-2,1.2246469E-16,4.0425533E-1,7E-2,7E0,-1.8369701E-16,8.125E-1,9.896169E1,5E-1,2.4496056E-2,1.1494253E-2,3.977135E-2,1.490876E-1,-1.8369701E-16,-1.2566403E-1,-3.2654929E-4,-1.2561028E2,-1.8369701E-16,1.8545454E-2,-1.21E0,-1.0014593E-2,-1E-1,4.803215E-2,4.6666667E-1,-2.5881904E-1,2.0405983E1,8.660254E-1,2.3964395E-4,6.3829786E-1,8.4210527E-1,9.259259E-1,8.660254E-1,2E-2,2.3485124E2,9.237035E-4,8.660254E-1,-1.8369701E-16,1.5221053E-1,-1.7267902E5,1.5657895E0,5.8884087E0,-7.255354E-2,-3.9734628E-2,-2.1074047E-2,-5.9175845E-2,1.9043686E-2,-4.1206334E-2,-1.8750308E-2,4.6681375E-3,-3.8188685E-2,-1.8703727E-2,2.8303418E-2,8.945392E-3,1.750931E-2,-1.7237647E-2,4.35417E-2,5.705474E-2,6.1906106E-3,3.877407E-2,4.6506137E-2,2.4377195E-2,3.8766313E-2,1.01373745E-2,-4.250699E-3,3.2034155E-2,-1.4230795E-2,3.9292287E-2,1.1429913E-2,-1.0552454E-2,3.5411324E-2,1.0514372E-2,-4.2215068E-2,-1.9221336E-2,-1.1800188E-2,-3.6455553E-2,1.4252826E-2,-2.4901269E-2,-5.8167297E-3,-2.7296016E-2,-2.7286995E-2,-4.6074536E-2,-4.554491E-2,-6.150936E-2,-2.4459315E-2,-4.7286216E-2,4.6659928E-2,-4.6180956E-2,2.7703697E-2,4.5665196E-4,8.353168E-3,-1.815929E-2,-1.5042213E-3,2.8652167E-2,-3.0113101E-2,-7.447236E-3,4.279066E-2,6.416918E-3,-5.020746E-3,7.113879E-2,-2.8502697E-2,2.017134E-2,9.40396E-3,7.436451E-2],"split_indices":[0,1,1,10,0,2,10,3,3,3,17,1,3,3,3,33,45,0,4,2,4,1,1,3,17,15,10,4,2,5,4,0,17,44,44,4,6,0,9,4,1,15,7,8,31,17,3,5,4,0,17,17,2,4,13,9,0,4,4,43,33,27,48,0,0,0,0,0,0,0,0,0,0,0,0,0,0,0,0,0,0,0,0,0,0,0,0,0,0,0,0,0,0,0,0,0,0,0,0,0,0,0,0,0,0,0,0,0,0,0,0,0,0,0,0,0,0,0,0,0,0,0,0,0,0],"split_type":[0,0,0,0,0,0,0,0,0,0,0,0,0,0,0,0,0,0,0,0,0,0,0,0,0,0,0,0,0,0,0,0,0,0,0,0,0,0,0,0,0,0,0,0,0,0,0,0,0,0,0,0,0,0,0,0,0,0,0,0,0,0,0,0,0,0,0,0,0,0,0,0,0,0,0,0,0,0,0,0,0,0,0,0,0,0,0,0,0,0,0,0,0,0,0,0,0,0,0,0,0,0,0,0,0,0,0,0,0,0,0,0,0,0,0,0,0,0,0,0,0,0,0,0,0],"sum_hessian":[2.1159512E4,1.0181779E4,1.0977732E4,4.93497E3,5.2468096E3,5.2312188E3,5.746513E3,1.9897365E2,4.7359966E3,2.8897827E3,2.3570269E3,3.0970647E3,2.1341543E3,5.278176E3,4.6833734E2,1.7189578E2,2.7077873E1,1.435393E3,3.3006035E3,1.9518921E3,9.378905E2,5.12144E2,1.8448828E3,2.2821882E3,8.148764E2,1.0394847E3,1.0946694E3,1.5399791E3,3.7381968E3,3.5344006E2,1.1489726E2,4.7325335E0,1.6716324E2,6.44681E0,2.0631063E1,1.0630077E3,3.7238535E2,1.8753536E3,1.4252498E3,7.315346E2,1.2203575E3,5.6379425E2,3.740963E2,1.0705436E2,4.0508963E2,6.374104E2,1.2074724E3,1.035078E3,1.2471102E3,3.425178E2,4.7235858E2,3.4592847E2,6.9355634E2,1.0664965E3,2.8172949E1,6.894055E2,8.505736E2,1.0367838E3,2.701413E3,1.6384358E2,1.8959648E2,5.515552E1,5.9741737E1,1.4427147E2,2.2891777E1,3.217041E0,3.2297688E0,1.5918878E1,4.712185E0,5.001611E2,5.6284656E2,2.0211247E2,1.7027287E2,1.0724121E3,8.029415E2,6.6923755E2,7.5601227E2,4.5213382E2,2.794008E2,1.8466673E2,1.0356908E3,1.3410222E2,4.2969202E2,4.9011265E1,3.2508502E2,7.653787E1,3.0516485E1,1.3181866E1,3.9190778E2,2.5775287E2,3.796575E2,3.1680692E2,8.906655E2,7.6290295E2,2.7217508E2,1.0648026E3,1.8230757E2,3.1787808E2,2.463972E1,3.6397455E2,1.0838403E2,2.234875E2,1.2244097E2,4.3618414E2,2.573722E2,8.946826E2,1.7181387E2,2.349774E1,4.6752095E0,6.148082E2,7.459731E1,6.049335E2,2.4564009E2,8.2521936E2,2.115644E2,1.0714009E3,1.6300122E3,7.76429E1,8.6200676E1,8.957045E0,1.8063943E2,4.6196007E1,8.959517E0,5.651154E1,3.2301996E0],"tree_param":{"num_deleted":"0","num_feature":"50","num_nodes":"125","size_leaf_vector":"1"}},{"base_weights":[-3.2769488E-3,2.629076E-1,-2.4626748E-1,4.3644108E-2,4.8950762E-1,-4.8584792E-1,-2.443643E-2,-1.1030844E0,8.973087E-2,7.053211E-1,3.5590267E-1,-3.539315E-1,-6.777175E-1,-6.007516E-2,1.126561E0,-1.3408828E0,-2.751889E-1,-2.1098909E-1,2.1934177E-1,9.131638E-1,5.411915E-1,6.4545697E-1,2.5207528E-1,-4.7775805E-1,-2.9249173E-2,-8.689778E-1,-4.941145E-1,2.4356788E-1,-1.8410301E-1,1.4459299E0,-3.4963347E-2,-1.4154488E0,2.1402791E-2,-4.87558E-1,3.383374E-1,-7.049359E-2,-5.6633383E-1,3.9303178E-1,-8.505821E-3,1.2011939E0,8.3576083E-1,4.9607477E-1,8.6478084E-1,2.954617E-1,7.6202047E-1,3.569616E-2,3.7561655E-1,-6.9750464E-1,-2.9400694E-1,1.4460228E-1,-2.3793288E-1,-6.829804E-1,-1.0069909E0,-5.350005E-1,3.5414517E-1,4.7121158E-1,6.993664E-2,-3.31599E-1,3.1070013E-2,1.4929368E0,-1.16706975E-2,8.3317983E-1,-3.5145366E-1,-2.6085546E-2,-7.1868405E-2,-4.44398E-2,-1.2157807E-2,-2.2942906E-2,3.439824E-2,7.5045484E-3,-1.8810954E-2,-1.9530844E-2,-4.2262092E-2,2.5505526E-2,3.0823252E-3,1.6997179E-2,-1.5509345E-2,4.1336965E-2,6.5602474E-2,5.862393E-2,3.9274022E-2,2.837493E-2,1.5308619E-2,-1.2716544E-2,4.725832E-2,-2.0088099E-2,2.4888532E-2,4.2536587E-2,2.2530945E-2,9.333678E-3,-1.744092E-2,3.34376E-2,8.48783E-3,-1.408675E-2,-3.8743183E-2,-9.621299E-3,-2.856086E-2,8.5508535E-3,-3.5838943E-2,-9.5343555E-4,-1.8765602E-2,-3.504001E-2,3.0910898E-2,-6.293612E-2,-4.6717398E-2,-6.1338656E-3,-2.932929E-2,-6.592733E-3,6.702195E-2,4.1736286E-2,1.8382607E-2,1.18101705E-2,-1.7504558E-2,-2.9982217E-3,-2.3862328E-2,1.8364362E-2,-1.7679794E-2,1.9442374E-2,7.58264E-2,1.2967954E-2,6.206977E-2,1.9919906E-2,-3.5567697E-2],"categories":[],"categories_nodes":[],"categories_segments":[],"categories_sizes":[],"default_left":[0,0,0,0,0,0,0,0,0,0,0,0,0,0,0,0,0,0,0,0,0,0,0,0,0,0,0,0,0,0,0,0,0,0,0,0,0,0,0,0,0,0,0,0,0,0,0,0,0,0,0,0,0,0,0,0,0,0,0,0,0,0,0,0,0,0,0,0,0,0,0,0,0,0,0,0,0,0,0,0,0,0,0,0,0,0,0,0,0,0,0,0,0,0,0,0,0,0,0,0,0,0,0,0,0,0,0,0,0,0,0,0,0,0,0,0,0,0,0,0,0,0,0],"id":8,"left_children":[1,3,5,7,9,11,13,15,17,19,21,23,25,27,29,31,33,35,37,39,41,43,45,47,49,51,53,55,57,59,61,63,-1,65,67,69,71,73,75,77,79,81,83,85,87,89,91,93,95,97,99,101,103,105,107,109,111,113,115,117,-1,119,121,-1,-1,-1,-1,-1,-1,-1,-1,-1,-1,-1,-1,-1,-1,-1,-1,-1,-1,-1,-1,-1,-1,-1,-1,-1,-1,-1,-1,-1,-1,-1,-1,-1,-1,-1,-1,-1,-1,-1,-1,-1,-1,-1,-1,-1,-1,-1,-1,-1,-1,-1,-1,-1,-1,-1,-1,-1,-1,-1,-1],"loss_changes":[1.3674958E3,5.0122168E2,5.8736035E2,2.7106372E2,1.4269873E2,1.3414832E2,2.3542969E2,3.8482193E1,1.9227585E2,6.403046E1,9.194217E1,1.2662491E2,7.540631E1,2.097669E2,6.4132324E1,2.0963898E1,6.117386E0,7.406959E1,1.364639E2,1.7402954E1,1.4939301E1,3.265332E1,6.0336365E1,9.179443E1,3.1653463E1,2.6303406E1,3.858011E1,6.375689E1,1.25551956E2,1.1154022E1,1.0707927E1,1.9470215E0,0E0,3.0423965E0,3.7353795E0,7.197385E1,2.0160858E1,7.581369E1,1.569271E2,5.9346313E0,1.0082825E1,1.2416168E1,1.1854492E1,2.8962296E1,1.6217773E1,4.779559E1,8.655913E1,3.305298E1,3.4848106E1,1.0890886E1,1.1878368E1,1.0970642E1,9.667114E0,2.231897E1,2.4919247E1,2.5867691E1,6.416385E1,9.276047E1,2.0822618E2,2.652649E0,0E0,1.9608655E0,8.058775E0,0E0,0E0,0E0,0E0,0E0,0E0,0E0,0E0,0E0,0E0,0E0,0E0,0E0,0E0,0E0,0E0,0E0,0E0,0E0,0E0,0E0,0E0,0E0,0E0,0E0,0E0,0E0,0E0,0E0,0E0,0E0,0E0,0E0,0E0,0E0,0E0,0E0,0E0,0E0,0E0,0E0,0E0,0E0,0E0,0E0,0E0,0E0,0E0,0E0,0E0,0E0,0E0,0E0,0E0,0E0,0E0,0E0,0E0,0E0,0E0],"parents":[2147483647,0,0,1,1,2,2,3,3,4,4,5,5,6,6,7,7,8,8,9,9,10,10,11,11,12,12,13,13,14,14,15,15,16,16,17,17,18,18,19,19,20,20,21,21,22,22,23,23,24,24,25,25,26,26,27,27,28,28,29,29,30,30,31,31,33,33,34,34,35,35,36,36,37,37,38,38,39,39,40,40,41,41,42,42,43,43,44,44,45,45,46,46,47,47,48,48,49,49,50,50,51,51,52,52,53,53,54,54,55,55,56,56,57,57,58,58,59,59,61,61,62,62],"right_children":[2,4,6,8,10,12,14,16,18,20,22,24,26,28,30,32,34,36,38,40,42,44,46,48,50,52,54,56,58,60,62,64,-1,66,68,70,72,74,76,78,80,82,84,86,88,90,92,94,96,98,100,102,104,106,108,110,112,114,116,118,-1,120,122,-1,-1,-1,-1,-1,-1,-1,-1,-1,-1,-1,-1,-1,-1,-1,-1,-1,-1,-1,-1,-1,-1,-1,-1,-1,-1,-1,-1,-1,-1,-1,-1,-1,-1,-1,-1,-1,-1,-1,-1,-1,-1,-1,-1,-1,-1,-1,-1,-1,-1,-1,-1,-1,-1,-1,-1,-1,-1,-1,-1],"split_conditions":[-1.8193727E-5,-1.6E-2,1.6242424E-2,1E0,-4.0660813E-4,6.875E-1,9E0,7.0710677E-1,-5E-1,1.2246469E-16,1.637931E-1,-2.4666667E-2,1.2246469E-16,-5E-1,7.0710677E-1,2.1E-1,5.3475934E-1,1.8696883E-1,5E-1,-1.372011E-3,8.660254E-1,-4.8E-2,2.3515152E-2,1.2246469E-16,4.6153846E-1,9E-2,4E0,-1.8369701E-16,5E-1,1.7E-1,2E-2,-1.73664E5,2.1402791E-2,1.0993145E-2,-2.2206765E-3,-4.5387622E-4,-5.4E-1,2.751678E-1,-1.2561028E2,2.070936E1,1.6675179E1,2.5881904E-1,-8.390977E-3,5E-2,-7.109173E-5,5.833333E-1,1.2246469E-16,-7.0710677E-1,5.835862E-4,1.3E1,-3.2727274E-3,9.1392456E1,-1.2872727E-1,4.8639315E-5,5.0170467E1,2.1E-1,9.237035E-4,8.227848E-1,1.247702E2,9.375E-1,-1.16706975E-2,2.4818182E-1,1.1123291E2,-2.6085546E-2,-7.1868405E-2,-4.44398E-2,-1.2157807E-2,-2.2942906E-2,3.439824E-2,7.5045484E-3,-1.8810954E-2,-1.9530844E-2,-4.2262092E-2,2.5505526E-2,3.0823252E-3,1.6997179E-2,-1.5509345E-2,4.1336965E-2,6.5602474E-2,5.862393E-2,3.9274022E-2,2.837493E-2,1.5308619E-2,-1.2716544E-2,4.725832E-2,-2.0088099E-2,2.4888532E-2,4.2536587E-2,2.2530945E-2,9.333678E-3,-1.744092E-2,3.34376E-2,8.48783E-3,-1.408675E-2,-3.8743183E-2,-9.621299E-3,-2.856086E-2,8.5508535E-3,-3.5838943E-2,-9.5343555E-4,-1.8765602E-2,-3.504001E-2,3.0910898E-2,-6.293612E-2,-4.6717398E-2,-6.1338656E-3,-2.932929E-2,-6.592733E-3,6.702195E-2,4.1736286E-2,1.8382607E-2,1.18101705E-2,-1.7504558E-2,-2.9982217E-3,-2.3862328E-2,1.8364362E-2,-1.7679794E-2,1.9442374E-2,7.58264E-2,1.2967954E-2,6.206977E-2,1.9919906E-2,-3.5567697E-2],"split_indices":[0,1,1,10,0,2,10,3,3,3,2,1,3,3,3,23,11,29,4,0,4,12,1,3,2,15,47,4,4,41,23,33,0,46,22,0,15,2,9,21,39,4,43,23,0,2,3,4,0,19,1,18,1,0,21,15,0,2,9,2,0,1,9,0,0,0,0,0,0,0,0,0,0,0,0,0,0,0,0,0,0,0,0,0,0,0,0,0,0,0,0,0,0,0,0,0,0,0,0,0,0,0,0,0,0,0,0,0,0,0,0,0,0,0,0,0,0,0,0,0,0,0,0],"split_type":[0,0,0,0,0,0,0,0,0,0,0,0,0,0,0,0,0,0,0,0,0,0,0,0,0,0,0,0,0,0,0,0,0,0,0,0,0,0,0,0,0,0,0,0,0,0,0,0,0,0,0,0,0,0,0,0,0,0,0,0,0,0,0,0,0,0,0,0,0,0,0,0,0,0,0,0,0,0,0,0,0,0,0,0,0,0,0,0,0,0,0,0,0,0,0,0,0,0,0,0,0,0,0,0,0,0,0,0,0,0,0,0,0,0,0,0,0,0,0,0,0,0,0],"sum_hessian":[2.1140402E4,1.008847E4,1.1051932E4,5.1280664E3,4.960404E3,5.3126064E3,5.739325E3,1.9716296E2,4.9309033E3,1.8947563E3,3.0656475E3,3.1501462E3,2.1624602E3,5.5679575E3,1.713679E2,1.5259293E2,4.457003E1,1.484712E3,3.4461914E3,8.337624E2,1.060994E3,8.07502E2,2.2581453E3,2.2798738E3,8.702723E2,1.0570488E3,1.1054114E3,1.6142373E3,3.9537202E3,1.3428624E2,3.708166E1,1.4666685E2,5.9260793E0,3.3382984E1,1.1187046E1,1.0650819E3,4.1963016E2,1.9553367E3,1.4908546E3,1.7325154E2,6.605108E2,9.336596E2,1.2733436E2,2.0284103E2,6.0466095E2,8.2146704E2,1.4366783E3,1.0367236E3,1.2431503E3,4.7466415E2,3.9560815E2,4.530952E2,6.039536E2,1.0550454E3,5.0365875E1,6.97488E2,9.167493E2,2.3457134E3,1.608007E3,1.3079565E2,3.490589E0,9.386276E0,2.7695387E1,4.2138557E0,1.42453E2,1.14839115E1,2.1899075E1,3.2281072E0,7.958939E0,6.187956E2,4.4628635E2,2.5913168E2,1.6049849E2,1.444243E3,5.1109357E2,6.91591E2,7.992637E2,4.1712513E1,1.3153903E2,8.2658165E1,5.7785266E2,6.7665076E2,2.5700888E2,8.305062E0,1.190293E2,4.528696E1,1.5755408E2,4.6900027E2,1.3566069E2,5.904176E2,2.3104942E2,5.915719E2,8.451064E2,1.635659E2,8.7315765E2,9.1127673E2,3.3187357E2,4.614316E2,1.3232535E1,1.532794E2,2.4232875E2,4.4750494E2,5.5902615E0,1.312893E2,4.726643E2,1.179092E2,9.371362E2,3.4252674E1,1.6113205E1,1.528674E2,5.4462054E2,6.572533E2,2.5949603E2,8.1947675E2,1.5262366E3,8.5820123E2,7.4980566E2,3.1906757E0,1.2760497E2,4.683329E0,4.7029476E0,8.857005E0,1.883838E1],"tree_param":{"num_deleted":"0","num_feature":"50","num_nodes":"123","size_leaf_vector":"1"}},{"base_weights":[-5.308605E-3,2.4057138E-1,-2.3855685E-1,2.2144306E-2,4.617037E-1,-4.764132E-1,-2.5311463E-2,-9.5937204E-1,5.3324398E-2,5.9676665E-1,2.4988376E-1,-3.426085E-1,-6.6401714E-1,-5.7341557E-2,7.607354E-1,-1.1323823E0,-6.310402E-2,1.6638401E-1,-1.4569433E-1,6.893677E-1,4.8813888E-1,7.6155937E-1,1.8733972E-1,-2.3791872E-1,-7.115953E-1,-4.2448288E-1,-7.133068E-1,7.7478014E-2,-2.0967723E-1,4.183479E-1,1.3621618E0,-1.3307422E0,-8.6096835E-1,2.5308412E-1,-7.3203385E-1,5.134832E-1,9.479866E-2,-3.362467E-2,-3.488322E-1,6.246047E-1,8.938832E-1,9.103195E-1,4.1503873E-1,-3.5613894E-1,8.568245E-1,7.263001E-2,2.8127533E-1,-3.5003573E-1,1.5842307E-2,2.2909829E-1,-7.443619E-1,-3.0234605E-1,-6.4891577E-1,-6.2855095E-1,-8.345204E-1,-1.6907653E-1,1.4850694E-1,-5.5823934E-1,-1.4308366E-1,-2.4603046E-1,6.1564565E-1,7.40219E-2,2.6847252E-1,-1.7154722E-2,-6.924247E-2,-1.2797669E-2,-7.007518E-2,-2.2369506E-2,3.1913027E-2,-7.975276E-3,-4.923766E-2,3.4558974E-2,8.483466E-3,8.754512E-3,-2.3675466E-2,3.6154818E-3,-2.1299006E-2,-3.1037146E-2,-2.8268711E-3,3.4705415E-2,1.4636099E-2,3.7152063E-2,5.9640177E-2,-3.405481E-2,4.701141E-2,4.732845E-3,2.5183538E-2,-3.4367964E-2,4.218491E-2,2.4744425E-2,5.3433567E-2,1.5591909E-2,-8.3556585E-3,8.043538E-3,3.0837988E-2,-1.4297353E-2,-3.328949E-2,1.4608808E-2,-7.203907E-3,4.393364E-2,-2.3769215E-2,-2.25675E-2,-4.2362306E-2,3.606711E-2,-1.6982256E-2,-3.7704594E-2,-8.531997E-3,-2.9211162E-2,-4.892595E-2,-2.6687598E-2,-4.4811945E-2,-3.0540228E-3,-2.818875E-2,4.55936E-3,2.634531E-2,-1.3083992E-2,-4.450659E-2,-1.1190916E-2,2.0629013E-2,3.341944E-2,-2.6263654E-2,4.7788113E-2,4.8310827E-3,3.6898397E-2,-1.5246696E-2],"categories":[],"categories_nodes":[],"categories_segments":[],"categories_sizes":[],"default_left":[0,0,0,0,0,0,0,0,0,0,0,0,0,0,0,0,0,0,0,0,0,0,0,0,0,0,0,0,0,0,0,0,0,0,0,0,0,0,0,0,0,0,0,0,0,0,0,0,0,0,0,0,0,0,0,0,0,0,0,0,0,0,0,0,0,0,0,0,0,0,0,0,0,0,0,0,0,0,0,0,0,0,0,0,0,0,0,0,0,0,0,0,0,0,0,0,0,0,0,0,0,0,0,0,0,0,0,0,0,0,0,0,0,0,0,0,0,0,0,0,0,0,0,0,0],"id":9,"left_children":[1,3,5,7,9,11,13,15,17,19,21,23,25,27,29,31,33,35,37,39,41,43,45,47,49,51,53,55,57,59,61,63,65,67,69,71,73,75,77,79,81,83,85,87,89,91,93,95,97,99,101,103,105,107,109,111,113,115,117,119,121,-1,123,-1,-1,-1,-1,-1,-1,-1,-1,-1,-1,-1,-1,-1,-1,-1,-1,-1,-1,-1,-1,-1,-1,-1,-1,-1,-1,-1,-1,-1,-1,-1,-1,-1,-1,-1,-1,-1,-1,-1,-1,-1,-1,-1,-1,-1,-1,-1,-1,-1,-1,-1,-1,-1,-1,-1,-1,-1,-1,-1,-1,-1,-1],"loss_changes":[1.2071633E3,4.948689E2,5.47834E2,1.5775801E2,1.4542981E2,1.2784558E2,1.43406E2,2.4418701E1,1.1249606E2,3.0809937E1,6.3269478E1,1.14956696E2,2.4664185E1,1.1247285E2,4.5172363E1,5.7888184E0,5.908237E0,7.9113174E1,4.1179527E1,2.1473755E1,4.3750793E1,2.3316765E1,1.9014442E1,6.619382E1,2.0519775E1,9.723274E0,1.7410278E1,5.0893974E1,5.9530502E1,1.901828E1,9.821335E0,3.3452454E0,1.8820076E1,5.39349E0,1.0264182E0,3.3073334E1,1.2073244E2,4.8636307E1,5.103969E1,2.9126007E1,1.6961761E1,1.0692032E1,3.4664963E1,7.5430727E0,1.4579681E1,4.586653E1,3.9093277E1,3.235588E1,3.1574625E1,1.0904287E1,1.868164E1,9.322968E0,6.1971207E0,1.5410248E1,1.2756744E1,2.7602722E1,4.882227E1,4.0187195E1,9.698609E1,8.888327E0,1.9425526E1,0E0,2.7303479E0,0E0,0E0,0E0,0E0,0E0,0E0,0E0,0E0,0E0,0E0,0E0,0E0,0E0,0E0,0E0,0E0,0E0,0E0,0E0,0E0,0E0,0E0,0E0,0E0,0E0,0E0,0E0,0E0,0E0,0E0,0E0,0E0,0E0,0E0,0E0,0E0,0E0,0E0,0E0,0E0,0E0,0E0,0E0,0E0,0E0,0E0,0E0,0E0,0E0,0E0,0E0,0E0,0E0,0E0,0E0,0E0,0E0,0E0,0E0,0E0,0E0,0E0],"parents":[2147483647,0,0,1,1,2,2,3,3,4,4,5,5,6,6,7,7,8,8,9,9,10,10,11,11,12,12,13,13,14,14,15,15,16,16,17,17,18,18,19,19,20,20,21,21,22,22,23,23,24,24,25,25,26,26,27,27,28,28,29,29,30,30,31,31,32,32,33,33,34,34,35,35,36,36,37,37,38,38,39,39,40,40,41,41,42,42,43,43,44,44,45,45,46,46,47,47,48,48,49,49,50,50,51,51,52,52,53,53,54,54,55,55,56,56,57,57,58,58,59,59,60,60,62,62],"right_children":[2,4,6,8,10,12,14,16,18,20,22,24,26,28,30,32,34,36,38,40,42,44,46,48,50,52,54,56,58,60,62,64,66,68,70,72,74,76,78,80,82,84,86,88,90,92,94,96,98,100,102,104,106,108,110,112,114,116,118,120,122,-1,124,-1,-1,-1,-1,-1,-1,-1,-1,-1,-1,-1,-1,-1,-1,-1,-1,-1,-1,-1,-1,-1,-1,-1,-1,-1,-1,-1,-1,-1,-1,-1,-1,-1,-1,-1,-1,-1,-1,-1,-1,-1,-1,-1,-1,-1,-1,-1,-1,-1,-1,-1,-1,-1,-1,-1,-1,-1,-1,-1,-1,-1,-1],"split_conditions":[0E0,-1.6E-2,1.4E-2,1.1423055E0,-1.7731545E-4,3.2066304E-4,1.6E1,4.7056258E-1,-3.2654929E-4,-4.674027E-4,1.6666667E-1,6.5217394E-1,-6.89465E-3,5.5303535E-4,8.660254E-1,7.457249E-1,-5.764331E-1,-7.0710677E-1,5E-1,7.0710677E-1,2.1153846E-1,6E0,4.016811E-2,-1.2424243E-2,-1.5523297E-2,1.2021128E-3,7.9E-1,1E1,-7.0710677E-1,9.835391E-1,1.1E-1,-1.4453382E0,8.660254E-1,1.8066847E-1,6.543586E-1,1.0945274E-1,1E0,1E0,-1.5913357E-1,8.268666E-1,1.6729398E-2,-1.766392E-3,1.8545454E-2,3.7402913E-2,-1.8369701E-16,5E-1,5E-1,8.660254E-1,4.0425533E-1,5.889594E-4,5.305643E-5,-2.046E0,1.0460993E0,8.6538464E-1,-8.41E-1,9.880597E-1,1E0,7.02536E1,1E0,-6.3425526E-2,4.6123102E-1,7.40219E-2,6.443337E-1,-1.7154722E-2,-6.924247E-2,-1.2797669E-2,-7.007518E-2,-2.2369506E-2,3.1913027E-2,-7.975276E-3,-4.923766E-2,3.4558974E-2,8.483466E-3,8.754512E-3,-2.3675466E-2,3.6154818E-3,-2.1299006E-2,-3.1037146E-2,-2.8268711E-3,3.4705415E-2,1.4636099E-2,3.7152063E-2,5.9640177E-2,-3.405481E-2,4.701141E-2,4.732845E-3,2.5183538E-2,-3.4367964E-2,4.218491E-2,2.4744425E-2,5.3433567E-2,1.5591909E-2,-8.3556585E-3,8.043538E-3,3.0837988E-2,-1.4297353E-2,-3.328949E-2,1.4608808E-2,-7.203907E-3,4.393364E-2,-2.3769215E-2,-2.25675E-2,-4.2362306E-2,3.606711E-2,-1.6982256E-2,-3.7704594E-2,-8.531997E-3,-2.9211162E-2,-4.892595E-2,-2.6687598E-2,-4.4811945E-2,-3.0540228E-3,-2.818875E-2,4.55936E-3,2.634531E-2,-1.3083992E-2,-4.450659E-2,-1.1190916E-2,2.0629013E-2,3.341944E-2,-2.6263654E-2,4.7788113E-2,4.8310827E-3,3.6898397E-2,-1.5246696E-2],"split_indices":[0,1,1,18,0,0,19,20,0,0,17,17,7,0,4,27,16,4,4,4,17,19,6,1,14,0,15,19,4,17,23,16,4,5,20,17,28,28,6,27,22,14,1,20,4,17,4,4,17,7,0,12,27,17,12,25,28,18,28,16,27,0,20,0,0,0,0,0,0,0,0,0,0,0,0,0,0,0,0,0,0,0,0,0,0,0,0,0,0,0,0,0,0,0,0,0,0,0,0,0,0,0,0,0,0,0,0,0,0,0,0,0,0,0,0,0,0,0,0,0,0,0,0,0,0],"split_type":[0,0,0,0,0,0,0,0,0,0,0,0,0,0,0,0,0,0,0,0,0,0,0,0,0,0,0,0,0,0,0,0,0,0,0,0,0,0,0,0,0,0,0,0,0,0,0,0,0,0,0,0,0,0,0,0,0,0,0,0,0,0,0,0,0,0,0,0,0,0,0,0,0,0,0,0,0,0,0,0,0,0,0,0,0,0,0,0,0,0,0,0,0,0,0,0,0,0,0,0,0,0,0,0,0,0,0,0,0,0,0,0,0,0,0,0,0,0,0,0,0,0,0,0,0],"sum_hessian":[2.1046666E4,1.0245672E4,1.0800994E4,5.155145E3,5.0905264E3,5.1050547E3,5.6959395E3,1.5770737E2,4.9974375E3,3.1070715E3,1.9834548E3,2.9817454E3,2.1233093E3,5.47394E3,2.2199962E2,1.3187582E2,2.5831537E1,3.1873928E3,1.8100447E3,1.6738833E3,1.4331884E3,2.1464653E2,1.7688083E3,2.3242263E3,6.57519E2,3.6434277E2,1.7589666E3,2.9038342E3,2.5701057E3,1.4265121E2,7.9348404E1,7.372399E1,5.8151836E1,1.7861141E1,7.970396E0,5.4367596E2,2.643717E3,1.1675653E3,6.424794E2,1.2747552E3,3.99128E2,2.096368E2,1.2235515E3,1.6560644E1,1.9808589E2,7.9762463E2,9.711837E2,1.6120175E3,7.122088E2,2.182765E1,6.3569135E2,2.3775095E2,1.2659182E2,1.0392826E3,7.1968396E2,6.4883154E2,2.2550027E3,4.10836E2,2.1592698E3,3.2490204E1,1.1016101E2,7.120313E1,8.145269E0,4.3063803E0,6.941761E1,2.82219E1,2.9929935E1,6.187512E0,1.167363E1,3.061503E0,4.908893E0,3.5756924E2,1.8610669E2,2.3172058E3,3.2651117E2,9.197874E2,2.4777788E2,3.3208627E2,3.103931E2,1.0528687E3,2.2188666E2,2.6780685E2,1.3132114E2,3.4038649E0,2.0623293E2,2.6583246E2,9.577191E2,1.3378044E1,3.1826E0,7.454146E1,1.2354443E2,3.9931607E2,3.9830856E2,7.159931E2,2.5519063E2,1.3418784E3,2.701391E2,2.6100485E2,4.5120398E2,1.1301599E1,1.05260515E1,1.6685393E2,4.6883743E2,7.619173E0,2.3013177E2,1.031276E2,2.346422E1,9.250668E2,1.1421589E2,1.24454926E2,5.95229E2,5.105458E2,1.3828574E2,1.9596595E3,2.953431E2,2.1807063E2,1.9276535E2,1.8860195E3,2.732503E2,7.1909E0,2.5299303E1,6.592573E1,4.423528E1,4.416512E0,3.7287571E0],"tree_param":{"num_deleted":"0","num_feature":"50","num_nodes":"125","size_leaf_vector":"1"}},{"base_weights":[-1.9722818E-3,2.3693106E-1,-2.1924047E-1,2.3370871E-2,4.595393E-1,-4.422239E-1,-1.6524322E-2,-1.5322407E-1,2.0419852E-1,5.820966E-1,2.528736E-1,-3.4648883E-1,-7.007558E-1,2.7241138E-1,-1.3717437E-1,-7.521591E-1,-4.9974218E-2,3.3364493E-1,-1.9807393E-2,7.4465495E-1,4.4208163E-1,6.201214E-1,1.56241E-1,-4.5157376E-1,-1.20418675E-1,-9.228755E-1,-5.066807E-1,1.9960772E-1,9.198102E-1,-2.9913136E-1,8.6885124E-2,-1.2647166E0,-4.9967405E-1,1.1305809E-1,-3.3687946E-1,3.9066356E-1,-6.1300367E-2,2.4034321E-1,-3.2509026E-1,6.1749226E-1,9.40617E-1,3.896638E-1,7.6303464E-1,3.996288E-1,8.0524915E-1,-9.028849E-2,2.8499898E-1,-6.7929876E-1,-2.6717454E-1,4.795805E-2,-4.7630343E-1,-5.2067435E-1,-9.927456E-1,-4.343409E-1,-9.498736E-1,4.2764252E-1,1.5424452E-2,1.1376305E0,4.4674683E-1,-4.0554475E-2,-4.3296584E-1,3.3584157E-1,-4.2929515E-1,-4.1395607E-3,-6.936816E-2,-8.658913E-3,-4.043182E-2,1.2492859E-2,-7.41898E-3,-2.950978E-2,-4.1790823E-3,1.5366951E-2,3.0398568E-2,-2.8958673E-2,9.236989E-3,2.267568E-2,-3.98758E-3,-2.1918735E-2,4.046531E-2,4.6109144E-2,1.9153995E-2,5.809703E-2,3.34575E-2,2.6291195E-2,1.3951805E-2,4.080857E-2,-3.9050277E-2,1.5944343E-2,6.1262783E-2,4.4354092E-2,8.112322E-3,5.093009E-3,-2.4092322E-2,9.827475E-3,3.740228E-2,-3.6860675E-2,-8.925898E-3,-9.685E-3,-3.558373E-2,1.1000128E-2,-3.4828205E-3,-3.1837128E-2,-1.2051691E-2,-1.744952E-2,-5.267896E-2,-5.0853986E-2,-2.4921274E-2,-1.5323909E-2,-3.6465455E-2,-5.0695606E-2,3.6568925E-2,3.8605515E-2,1.6968278E-2,2.6662532E-2,-5.544688E-3,-1.3136922E-2,5.9647262E-2,5.146367E-2,3.6348632E-4,9.848262E-3,-7.1710288E-3,-1.3692933E-2,-3.0227391E-2,-2.6878728E-2,2.1165183E-2,-2.9116616E-2,-5.964198E-3],"categories":[],"categories_nodes":[],"categories_segments":[],"categories_sizes":[],"default_left":[0,0,0,0,0,0,0,0,0,0,0,0,0,0,0,0,0,0,0,0,0,0,0,0,0,0,0,0,0,0,0,0,0,0,0,0,0,0,0,0,0,0,0,0,0,0,0,0,0,0,0,0,0,0,0,0,0,0,0,0,0,0,0,0,0,0,0,0,0,0,0,0,0,0,0,0,0,0,0,0,0,0,0,0,0,0,0,0,0,0,0,0,0,0,0,0,0,0,0,0,0,0,0,0,0,0,0,0,0,0,0,0,0,0,0,0,0,0,0,0,0,0,0,0,0,0,0],"id":10,"left_children":[1,3,5,7,9,11,13,15,17,19,21,23,25,27,29,31,33,35,37,39,41,43,45,47,49,51,53,55,57,59,61,63,65,67,69,71,73,75,77,79,81,83,85,87,89,91,93,95,97,99,101,103,105,107,109,111,113,115,117,119,121,123,125,-1,-1,-1,-1,-1,-1,-1,-1,-1,-1,-1,-1,-1,-1,-1,-1,-1,-1,-1,-1,-1,-1,-1,-1,-1,-1,-1,-1,-1,-1,-1,-1,-1,-1,-1,-1,-1,-1,-1,-1,-1,-1,-1,-1,-1,-1,-1,-1,-1,-1,-1,-1,-1,-1,-1,-1,-1,-1,-1,-1,-1,-1,-1,-1],"loss_changes":[1.087939E3,4.745182E2,4.9613947E2,1.6277287E2,1.2356177E2,1.2902356E2,2.0050966E2,1.5933896E2,7.3069405E1,6.9358765E1,6.446714E1,9.0561066E1,6.0225586E1,7.955648E1,1.473028E2,4.823105E1,1.02993256E2,3.6009888E1,7.339568E1,3.45849E1,2.735556E1,1.5023788E1,4.586922E1,1.0911023E2,7.274147E1,1.7783875E1,2.3674927E1,6.3971672E1,1.6937729E1,8.1464264E1,2.18991E2,1.7753021E1,2.5551582E1,5.025166E1,5.1076836E1,2.4989761E1,2.5892336E1,3.410681E1,5.4971947E1,6.1143494E1,3.2421234E1,2.1179428E1,1.9544968E1,1.1131521E1,1.0523819E1,3.7388523E1,3.8618896E1,3.3554443E1,4.684279E1,1.670436E1,1.4472488E1,8.595385E0,6.0551147E0,2.4249687E1,1.2073975E1,2.03293E1,5.5342762E1,9.406677E0,1.4136973E1,1.9687593E1,4.2117188E1,8.803722E1,2.616513E1,0E0,0E0,0E0,0E0,0E0,0E0,0E0,0E0,0E0,0E0,0E0,0E0,0E0,0E0,0E0,0E0,0E0,0E0,0E0,0E0,0E0,0E0,0E0,0E0,0E0,0E0,0E0,0E0,0E0,0E0,0E0,0E0,0E0,0E0,0E0,0E0,0E0,0E0,0E0,0E0,0E0,0E0,0E0,0E0,0E0,0E0,0E0,0E0,0E0,0E0,0E0,0E0,0E0,0E0,0E0,0E0,0E0,0E0,0E0,0E0,0E0,0E0,0E0,0E0],"parents":[2147483647,0,0,1,1,2,2,3,3,4,4,5,5,6,6,7,7,8,8,9,9,10,10,11,11,12,12,13,13,14,14,15,15,16,16,17,17,18,18,19,19,20,20,21,21,22,22,23,23,24,24,25,25,26,26,27,27,28,28,29,29,30,30,31,31,32,32,33,33,34,34,35,35,36,36,37,37,38,38,39,39,40,40,41,41,42,42,43,43,44,44,45,45,46,46,47,47,48,48,49,49,50,50,51,51,52,52,53,53,54,54,55,55,56,56,57,57,58,58,59,59,60,60,61,61,62,62],"right_children":[2,4,6,8,10,12,14,16,18,20,22,24,26,28,30,32,34,36,38,40,42,44,46,48,50,52,54,56,58,60,62,64,66,68,70,72,74,76,78,80,82,84,86,88,90,92,94,96,98,100,102,104,106,108,110,112,114,116,118,120,122,124,126,-1,-1,-1,-1,-1,-1,-1,-1,-1,-1,-1,-1,-1,-1,-1,-1,-1,-1,-1,-1,-1,-1,-1,-1,-1,-1,-1,-1,-1,-1,-1,-1,-1,-1,-1,-1,-1,-1,-1,-1,-1,-1,-1,-1,-1,-1,-1,-1,-1,-1,-1,-1,-1,-1,-1,-1,-1,-1,-1,-1,-1,-1,-1,-1],"split_conditions":[-1.8193727E-5,-1.4E-2,1.4E-2,1.2246469E-16,-1.7731545E-4,8.4615386E-1,-5E-1,6E0,5E-1,1.2246469E-16,3.243243E-1,-2.4666667E-2,1.2246469E-16,9.314217E1,5E-1,4.6790295E0,9.009009E-2,5.3691274E-1,-1.180747E2,1.74E-1,8.660254E-1,4.4115E2,1.8545454E-2,1.2246469E-16,6.1538464E-1,5.305643E-5,8.660254E-1,-1.8369701E-16,7.1438E2,8.181818E-1,1.3276265E2,-3.8339149E-3,-1.2160558E2,-4.8106138E-4,-1.5913357E-1,-4.3E-2,3.4E-2,8.660254E-1,-1.5699249E-2,1.8181819E-1,6.551724E-1,2.5592417E-1,1.20044075E2,8.257687E-4,7.0710677E-1,6.086956E-1,8.660254E-1,-1.4167316E-2,8.660254E-1,3.75E-1,1E0,-3.7596832E2,8.158181E1,8.2580644E-1,4.8240602E-2,2.3191095E-4,8.5064936E-1,8.730142E-2,9.880597E-1,4.1509435E-1,4.9580575E-4,2.355639E-2,8.660254E-1,-4.1395607E-3,-6.936816E-2,-8.658913E-3,-4.043182E-2,1.2492859E-2,-7.41898E-3,-2.950978E-2,-4.1790823E-3,1.5366951E-2,3.0398568E-2,-2.8958673E-2,9.236989E-3,2.267568E-2,-3.98758E-3,-2.1918735E-2,4.046531E-2,4.6109144E-2,1.9153995E-2,5.809703E-2,3.34575E-2,2.6291195E-2,1.3951805E-2,4.080857E-2,-3.9050277E-2,1.5944343E-2,6.1262783E-2,4.4354092E-2,8.112322E-3,5.093009E-3,-2.4092322E-2,9.827475E-3,3.740228E-2,-3.6860675E-2,-8.925898E-3,-9.685E-3,-3.558373E-2,1.1000128E-2,-3.4828205E-3,-3.1837128E-2,-1.2051691E-2,-1.744952E-2,-5.267896E-2,-5.0853986E-2,-2.4921274E-2,-1.5323909E-2,-3.6465455E-2,-5.0695606E-2,3.6568925E-2,3.8605515E-2,1.6968278E-2,2.6662532E-2,-5.544688E-3,-1.3136922E-2,5.9647262E-2,5.146367E-2,3.6348632E-4,9.848262E-3,-7.1710288E-3,-1.3692933E-2,-3.0227391E-2,-2.6878728E-2,2.1165183E-2,-2.9116616E-2,-5.964198E-3],"split_indices":[0,1,1,3,0,2,3,19,4,3,17,1,3,18,4,18,2,2,9,1,4,42,1,3,17,0,4,4,42,2,9,7,9,0,6,12,12,3,43,2,2,2,9,32,3,17,4,6,4,2,30,33,18,29,43,0,2,31,25,2,0,43,3,0,0,0,0,0,0,0,0,0,0,0,0,0,0,0,0,0,0,0,0,0,0,0,0,0,0,0,0,0,0,0,0,0,0,0,0,0,0,0,0,0,0,0,0,0,0,0,0,0,0,0,0,0,0,0,0,0,0,0,0,0,0,0,0],"split_type":[0,0,0,0,0,0,0,0,0,0,0,0,0,0,0,0,0,0,0,0,0,0,0,0,0,0,0,0,0,0,0,0,0,0,0,0,0,0,0,0,0,0,0,0,0,0,0,0,0,0,0,0,0,0,0,0,0,0,0,0,0,0,0,0,0,0,0,0,0,0,0,0,0,0,0,0,0,0,0,0,0,0,0,0,0,0,0,0,0,0,0,0,0,0,0,0,0,0,0,0,0,0,0,0,0,0,0,0,0,0,0,0,0,0,0,0,0,0,0,0,0,0,0,0,0,0,0],"sum_hessian":[2.0957787E4,9.981642E3,1.0976145E4,5.0951455E3,4.886496E3,5.225991E3,5.7501533E3,2.5775396E3,2.517606E3,3.065994E3,1.8205021E3,3.8157395E3,1.410252E3,1.6931853E3,4.0569683E3,3.7793698E2,2.1996025E3,1.5955448E3,9.2206116E2,1.416451E3,1.649543E3,3.7789133E2,1.4426107E3,2.6039138E3,1.2118256E3,6.556208E2,7.5463116E2,1.5233398E3,1.6984541E2,2.354892E3,1.702076E3,1.23275764E2,2.5466122E2,1.4027532E3,7.968493E2,1.3944856E3,2.0105925E2,4.9776752E2,4.2429367E2,8.61847E2,5.5460406E2,1.4201333E3,2.2940967E2,1.7416019E2,2.0373112E2,4.947837E2,9.478271E2,1.1636412E3,1.4402726E3,8.2302094E2,3.8880463E2,9.8499535E1,5.571213E2,6.506371E2,1.03994064E2,6.7981067E2,8.435292E2,1.1519026E2,5.4655144E1,8.0385077E2,1.5510415E3,1.1486293E3,5.534468E2,1.1823634E1,1.11452126E2,1.2473341E2,1.2992781E2,9.211709E2,4.815823E2,3.9754785E2,3.9930145E2,1.0100617E3,3.8442392E2,6.4451706E1,1.3660754E2,2.9872452E2,1.99043E2,3.864075E2,3.788617E1,3.732864E2,4.8856058E2,3.0350873E2,2.5109532E2,6.3451624E2,7.8561707E2,2.2229573E2,7.1139355E0,1.6001859E2,1.4141615E1,1.8025552E2,2.3475605E1,3.322323E2,1.625514E2,7.97191E2,1.5063612E2,1.0424153E3,1.2122597E2,1.2373955E3,2.0287709E2,3.3417496E2,4.8884598E2,2.298975E2,1.5890714E2,7.589218E1,2.2607357E1,5.2978156E2,2.7339697E1,4.5554544E2,1.9509166E2,1.0061796E2,3.3761013E0,1.3686542E2,5.4294525E2,1.6494154E2,6.7858765E2,4.1659436E0,1.1102432E2,2.2827597E1,3.1827547E1,2.4235704E2,5.614937E2,8.0642554E2,7.446159E2,1.03979256E2,1.04465E3,3.697289E2,1.8371786E2],"tree_param":{"num_deleted":"0","num_feature":"50","num_nodes":"127","size_leaf_vector":"1"}},{"base_weights":[3.7016736E-3,2.1525054E-1,-2.288342E-1,-6.2800133E-1,2.5881395E-1,-4.5139447E-1,-5.6010153E-2,-8.32433E-1,-6.5266755E-3,1.01706795E-1,4.0921575E-1,-5.384298E-1,-2.394247E-1,-1.1104455E-1,5.816355E-1,-1.1917629E0,-3.975959E-1,-1.278038E-1,5.92056E-1,-1.6054603E-1,2.1245193E-1,5.721564E-1,1.9863868E-1,-3.8836607E-1,-7.2133404E-1,-4.7189045E-1,-1.8556312E-1,1.5734805E-1,-2.223209E-1,7.664023E-1,-3.1773072E-1,-7.263251E-1,-1.2989098E0,4.8665944E-1,-5.1095605E-1,-2.2045048E-2,-9.894801E-1,8.973698E-1,-1.7097326E-2,-3.592463E-2,-4.4807053E-1,3.3587998E-1,3.038135E-2,7.2672236E-1,4.3996075E-1,4.915811E-1,1.3379112E-1,-2.9231432E-1,-6.558513E-1,-4.8987296E-1,-8.4711325E-1,-8.3525395E-1,-2.7384654E-1,-8.109345E-2,-3.77259E-1,4.586927E-1,3.3201694E-2,-3.9476812E-1,-2.8976353E-2,3.5698846E-1,1.201046E0,3.4002474E-1,-4.2867368E-1,1.9333756E-2,-4.7258463E-2,-6.6665284E-2,1.5489097E-2,-2.9896704E-2,4.8971288E-2,-2.0439064E-2,-6.2278237E-2,-8.844542E-3,3.2336857E-2,-1.8575985E-2,-8.314046E-2,5.9844237E-2,-1.0471913E-2,4.967527E-3,-1.8201066E-2,-8.045866E-3,-2.8974915E-2,2.5132133E-2,8.665791E-3,1.7880945E-2,-1.060416E-2,4.524142E-2,2.9258344E-2,1.9207535E-2,3.810441E-2,3.481795E-2,1.5789181E-2,-2.8551416E-3,1.3117226E-2,-2.6644742E-2,-4.186643E-3,-3.8847733E-2,-9.503535E-3,-2.5833746E-2,7.524815E-2,-4.376426E-2,-1.452817E-2,-1.3465523E-2,-4.918685E-2,-7.785464E-3,-4.599294E-2,1.6118271E-2,-6.25939E-3,-2.6466656E-2,-5.9626433E-3,2.6793096E-2,-8.7100575E-3,-8.79051E-3,1.00081265E-2,-1.2148364E-2,-3.1061381E-2,7.2458433E-3,-1.6889818E-2,-6.7590885E-3,2.6793336E-2,6.453177E-2,2.2198262E-2,-5.7377038E-3,5.1731694E-2,-4.676866E-2,-8.629122E-3],"categories":[],"categories_nodes":[],"categories_segments":[],"categories_sizes":[],"default_left":[0,0,0,0,0,0,0,0,0,0,0,0,0,0,0,0,0,0,0,0,0,0,0,0,0,0,0,0,0,0,0,0,0,0,0,0,0,0,0,0,0,0,0,0,0,0,0,0,0,0,0,0,0,0,0,0,0,0,0,0,0,0,0,0,0,0,0,0,0,0,0,0,0,0,0,0,0,0,0,0,0,0,0,0,0,0,0,0,0,0,0,0,0,0,0,0,0,0,0,0,0,0,0,0,0,0,0,0,0,0,0,0,0,0,0,0,0,0,0,0,0,0,0,0,0],"id":11,"left_children":[1,3,5,7,9,11,13,15,17,19,21,23,25,27,29,31,33,35,37,39,41,43,45,47,49,51,53,55,57,59,61,63,65,67,69,71,73,75,-1,77,79,81,83,85,87,89,91,93,95,97,99,101,103,105,107,109,111,113,115,117,119,121,123,-1,-1,-1,-1,-1,-1,-1,-1,-1,-1,-1,-1,-1,-1,-1,-1,-1,-1,-1,-1,-1,-1,-1,-1,-1,-1,-1,-1,-1,-1,-1,-1,-1,-1,-1,-1,-1,-1,-1,-1,-1,-1,-1,-1,-1,-1,-1,-1,-1,-1,-1,-1,-1,-1,-1,-1,-1,-1,-1,-1,-1,-1],"loss_changes":[1.0253132E3,4.0105548E2,3.8181866E2,6.804947E1,2.4515033E2,7.9851685E1,1.9619179E2,6.240439E1,9.748234E0,1.4751805E2,1.8172607E2,8.4014465E1,1.5689247E1,1.537619E2,7.409683E1,9.83905E0,1.8711826E1,1.0109711E1,6.805373E0,5.396826E1,8.0201675E1,6.062213E1,4.384247E1,4.3177734E1,3.975757E1,1.6716583E1,2.0536045E1,5.6383266E1,1.21283005E2,6.505252E1,5.7234488E0,1.1056267E1,1.0342865E1,1.2028429E1,1.1622051E1,1.0541065E1,4.233844E0,6.112439E0,0E0,4.6812683E1,1.7028328E1,5.752858E1,1.14675606E2,3.4005066E1,2.8601135E1,1.4757881E1,4.6583035E1,6.245986E1,2.4907547E1,2.6882492E1,1.3667725E1,6.579895E0,1.1584031E1,1.1901196E1,1.409322E1,2.1615639E1,3.7374733E1,6.587579E1,9.22738E1,1.6970196E1,1.1351898E1,3.825019E0,8.275363E0,0E0,0E0,0E0,0E0,0E0,0E0,0E0,0E0,0E0,0E0,0E0,0E0,0E0,0E0,0E0,0E0,0E0,0E0,0E0,0E0,0E0,0E0,0E0,0E0,0E0,0E0,0E0,0E0,0E0,0E0,0E0,0E0,0E0,0E0,0E0,0E0,0E0,0E0,0E0,0E0,0E0,0E0,0E0,0E0,0E0,0E0,0E0,0E0,0E0,0E0,0E0,0E0,0E0,0E0,0E0,0E0,0E0,0E0,0E0,0E0,0E0,0E0],"parents":[2147483647,0,0,1,1,2,2,3,3,4,4,5,5,6,6,7,7,8,8,9,9,10,10,11,11,12,12,13,13,14,14,15,15,16,16,17,17,18,18,19,19,20,20,21,21,22,22,23,23,24,24,25,25,26,26,27,27,28,28,29,29,30,30,31,31,32,32,33,33,34,34,35,35,36,36,37,37,39,39,40,40,41,41,42,42,43,43,44,44,45,45,46,46,47,47,48,48,49,49,50,50,51,51,52,52,53,53,54,54,55,55,56,56,57,57,58,58,59,59,60,60,61,61,62,62],"right_children":[2,4,6,8,10,12,14,16,18,20,22,24,26,28,30,32,34,36,38,40,42,44,46,48,50,52,54,56,58,60,62,64,66,68,70,72,74,76,-1,78,80,82,84,86,88,90,92,94,96,98,100,102,104,106,108,110,112,114,116,118,120,122,124,-1,-1,-1,-1,-1,-1,-1,-1,-1,-1,-1,-1,-1,-1,-1,-1,-1,-1,-1,-1,-1,-1,-1,-1,-1,-1,-1,-1,-1,-1,-1,-1,-1,-1,-1,-1,-1,-1,-1,-1,-1,-1,-1,-1,-1,-1,-1,-1,-1,-1,-1,-1,-1,-1,-1,-1,-1,-1,-1,-1,-1,-1],"split_conditions":[2.3877034E-5,2E0,2E-1,7.0710677E-1,-1.6E-1,7.0710677E-1,8E0,9.504943E0,8E-2,-5E-1,-1.5762098E-4,2.872833E-4,3.5168E2,-5E-1,8.660254E-1,1.3664994E-2,-5.29533E5,1.8269046E-1,7.0710677E-1,1.313485E-1,5E-1,1.2246469E-16,3.026316E-1,6.818182E-1,-7.0710677E-1,-1.04144044E-1,5.835862E-4,-2.5881904E-1,2.5881904E-1,9.9178505E1,9.5523584E-1,-1.6989467E-4,1.3E-1,-5.868266E-1,8.2681704E-1,-4.8E-2,-7.3852986E-1,1.9684264E-1,-1.7097326E-2,-2.7461554E-4,-1.36E0,-3.8473046E-4,-1.2686457E2,-4.944713E-4,8.660254E-1,-7.109173E-5,3.749531E-2,1.4888248E1,6.6754097E-1,8E0,6.2812714E1,-3.1883349E-3,5.6612376E-2,-7E-2,2.5881904E-1,2.1014568E2,2.3847508E-1,5.5303535E-4,1.3690047E2,-2.5344884E5,7.0710677E-1,2.03E-1,9.873464E1,1.9333756E-2,-4.7258463E-2,-6.6665284E-2,1.5489097E-2,-2.9896704E-2,4.8971288E-2,-2.0439064E-2,-6.2278237E-2,-8.844542E-3,3.2336857E-2,-1.8575985E-2,-8.314046E-2,5.9844237E-2,-1.0471913E-2,4.967527E-3,-1.8201066E-2,-8.045866E-3,-2.8974915E-2,2.5132133E-2,8.665791E-3,1.7880945E-2,-1.060416E-2,4.524142E-2,2.9258344E-2,1.9207535E-2,3.810441E-2,3.481795E-2,1.5789181E-2,-2.8551416E-3,1.3117226E-2,-2.6644742E-2,-4.186643E-3,-3.8847733E-2,-9.503535E-3,-2.5833746E-2,7.524815E-2,-4.376426E-2,-1.452817E-2,-1.3465523E-2,-4.918685E-2,-7.785464E-3,-4.599294E-2,1.6118271E-2,-6.25939E-3,-2.6466656E-2,-5.9626433E-3,2.6793096E-2,-8.7100575E-3,-8.79051E-3,1.00081265E-2,-1.2148364E-2,-3.1061381E-2,7.2458433E-3,-1.6889818E-2,-6.7590885E-3,2.6793336E-2,6.453177E-2,2.2198262E-2,-5.7377038E-3,5.1731694E-2,-4.676866E-2,-8.629122E-3],"split_indices":[0,10,8,3,8,3,10,39,40,3,0,0,42,3,3,14,33,26,4,29,4,3,17,17,4,16,0,4,4,5,17,0,40,6,48,12,16,26,0,0,15,0,9,0,4,0,6,5,29,10,39,7,16,13,4,9,6,0,9,33,3,12,5,0,0,0,0,0,0,0,0,0,0,0,0,0,0,0,0,0,0,0,0,0,0,0,0,0,0,0,0,0,0,0,0,0,0,0,0,0,0,0,0,0,0,0,0,0,0,0,0,0,0,0,0,0,0,0,0,0,0,0,0,0,0],"split_type":[0,0,0,0,0,0,0,0,0,0,0,0,0,0,0,0,0,0,0,0,0,0,0,0,0,0,0,0,0,0,0,0,0,0,0,0,0,0,0,0,0,0,0,0,0,0,0,0,0,0,0,0,0,0,0,0,0,0,0,0,0,0,0,0,0,0,0,0,0,0,0,0,0,0,0,0,0,0,0,0,0,0,0,0,0,0,0,0,0,0,0,0,0,0,0,0,0,0,0,0,0,0,0,0,0,0,0,0,0,0,0,0,0,0,0,0,0,0,0,0,0,0,0,0,0],"sum_hessian":[2.0840818E4,1.0913132E4,9.9276875E3,5.3531866E2,1.03778125E4,4.3384736E3,5.589214E3,4.024379E2,1.3288075E2,5.0769053E3,5.300907E3,3.0741912E3,1.2642822E3,5.1460474E3,4.4316623E2,2.1927126E2,1.8316666E2,1.11286804E2,2.1593952E1,1.5069592E3,3.569946E3,2.9872422E3,2.3136653E3,1.6907151E3,1.3834762E3,2.3601732E2,1.0282649E3,1.5078591E3,3.6381882E3,3.678531E2,7.531313E1,4.2662155E1,1.766091E2,2.0338993E1,1.6282767E2,1.0013791E2,1.1148896E1,1.6384388E1,5.2095656E0,1.0523243E3,4.5463498E2,2.1267798E3,1.4431661E3,1.374682E3,1.6125602E3,4.1786746E2,1.8957977E3,1.2458186E3,4.4489655E2,4.891054E2,8.943708E2,8.194509E1,1.5407222E2,6.668126E2,3.614523E2,4.3892978E2,1.0689293E3,1.9221932E3,1.715995E3,1.9048068E2,1.773724E2,1.0441521E1,6.487161E1,6.809004E0,3.5853153E1,1.731405E2,3.4686036E0,6.2238193E0,1.4115173E1,1.4443164E2,1.8396023E1,8.203017E1,1.8107742E1,6.7000666E0,4.4488297E0,1.290194E1,3.4824471E0,7.4539026E2,3.0693402E2,1.4368546E2,3.1094952E2,1.0484968E3,1.0782831E3,6.141832E2,8.289829E2,6.060489E2,7.686331E2,1.3765667E3,2.3599347E2,1.913931E2,2.2647438E2,7.6282574E2,1.132972E3,5.7758746E2,6.682311E2,3.523917E2,9.250486E1,4.834017E2,5.7037034E0,8.505637E2,4.380708E1,1.7755854E1,6.418923E1,1.3143275E2,2.2639479E1,6.485127E1,6.0196136E2,2.2650584E2,1.3494646E2,3.9150467E2,4.7425125E1,4.7439743E2,5.94532E2,1.1522974E3,7.698959E2,1.0979552E3,6.180398E2,5.0691647E1,1.3978903E2,1.5785567E2,1.9516739E1,6.7276073E0,3.7139132E0,2.0757685E1,4.411393E1],"tree_param":{"num_deleted":"0","num_feature":"50","num_nodes":"125","size_leaf_vector":"1"}},{"base_weights":[4.8601846E-3,2.0551866E-1,-2.1609844E-1,2.1307215E-2,3.8318068E-1,-4.4482997E-1,-2.5090234E-2,-5.6151694E-1,8.209023E-2,5.2999735E-1,1.841538E-1,-3.0854976E-1,-6.0462624E-1,-5.9596825E-2,1.0798408E0,-8.0776757E-1,3.54237E-2,-1.5709533E-1,1.8331738E-1,6.237324E-1,3.3097872E-1,6.3258207E-1,1.3659811E-1,-4.2363384E-1,-2.8702779E-2,-7.9000354E-1,-4.3507874E-1,1.943497E-1,-1.6619663E-1,1.3253498E0,1.494301E-1,-1.0291485E0,-3.0630013E-2,-2.8360802E-1,3.4007168E-1,-2.427013E-2,-4.309597E-1,3.179829E-1,-3.7320454E-2,8.147515E-1,5.077672E-1,4.1329926E-1,1.7237628E-1,-4.382994E-1,7.930613E-1,-1.9567108E-2,2.56673E-1,-6.463354E-1,-2.4079047E-1,4.2203882E-1,-1.03631675E-1,-1.1612204E0,-7.2462034E-1,-3.5841444E-1,-8.524886E-1,4.2333966E-1,1.6490864E-2,-3.4231526E-1,1.8062478E-2,1.4095134E0,2.557549E-1,8.893721E-1,-1.0753231E-1,-6.436006E-2,-3.6906227E-2,-1.6341938E-2,1.6228309E-2,-2.8693834E-2,4.0119835E-3,2.8783862E-2,-6.53376E-3,-9.666998E-3,1.2466557E-2,-3.681377E-2,-9.430382E-3,2.611206E-2,7.906395E-3,4.8750616E-3,-1.9804625E-2,4.8312422E-2,3.381438E-2,4.7025234E-2,2.2055766E-2,-2.649585E-2,2.1391867E-2,-4.021707E-2,1.0157577E-2,3.2572806E-2,-3.4030385E-2,4.538935E-2,1.4413059E-3,7.0143803E-3,-1.9822279E-2,3.1201659E-2,6.35516E-3,-5.932744E-3,-3.629656E-2,-7.882532E-3,-3.4549326E-2,2.8835645E-2,-1.9739471E-2,-3.008872E-2,-2.9494744E-3,-1.2049685E-2,-6.0781356E-2,-2.8833473E-2,-4.8775572E-2,-1.9525846E-2,3.2730334E-2,-4.777959E-2,1.4314227E-2,3.9371725E-2,1.4982621E-2,8.27654E-3,-1.6868345E-2,3.3660703E-3,-2.275101E-2,-1.047351E-2,7.3171877E-3,4.4655822E-2,7.254102E-2,-3.3874E-2,3.7832003E-2,6.1943926E-2,6.7372224E-3,-3.8971275E-2,1.0832919E-2],"categories":[],"categories_nodes":[],"categories_segments":[],"categories_sizes":[],"default_left":[0,0,0,0,0,0,0,0,0,0,0,0,0,0,0,0,0,0,0,0,0,0,0,0,0,0,0,0,0,0,0,0,0,0,0,0,0,0,0,0,0,0,0,0,0,0,0,0,0,0,0,0,0,0,0,0,0,0,0,0,0,0,0,0,0,0,0,0,0,0,0,0,0,0,0,0,0,0,0,0,0,0,0,0,0,0,0,0,0,0,0,0,0,0,0,0,0,0,0,0,0,0,0,0,0,0,0,0,0,0,0,0,0,0,0,0,0,0,0,0,0,0,0,0,0,0,0],"id":12,"left_children":[1,3,5,7,9,11,13,15,17,19,21,23,25,27,29,31,33,35,37,39,41,43,45,47,49,51,53,55,57,59,61,63,65,67,69,71,73,75,77,79,81,83,85,87,89,91,93,95,97,99,101,103,105,107,109,111,113,115,117,119,121,123,125,-1,-1,-1,-1,-1,-1,-1,-1,-1,-1,-1,-1,-1,-1,-1,-1,-1,-1,-1,-1,-1,-1,-1,-1,-1,-1,-1,-1,-1,-1,-1,-1,-1,-1,-1,-1,-1,-1,-1,-1,-1,-1,-1,-1,-1,-1,-1,-1,-1,-1,-1,-1,-1,-1,-1,-1,-1,-1,-1,-1,-1,-1,-1,-1],"loss_changes":[9.254018E2,3.5794495E2,4.3392184E2,1.9029411E2,1.625299E2,9.815369E1,2.0639528E2,7.467441E1,1.1783275E2,5.9458496E1,5.0282288E1,7.858507E1,6.488049E1,1.421873E2,3.710013E1,6.1676224E1,1.4582625E1,5.2581966E1,1.0163668E2,4.766223E1,1.3294174E1,3.927941E1,4.0160637E1,7.019922E1,2.4088797E1,2.3039368E1,3.4403366E1,6.3191772E1,1.2009447E2,1.1130051E1,6.9118223E0,1.98378E1,8.606302E0,7.822213E0,8.640685E0,4.5178406E1,3.471608E1,6.9193405E1,6.2785343E1,1.6385925E1,3.8591217E1,9.482407E0,1.0727336E1,8.383879E0,1.7176567E1,5.6161503E1,5.745611E1,3.2553802E1,3.5432804E1,1.3085047E1,1.3514189E1,6.902176E0,3.068753E1,3.0195648E1,2.0060898E1,3.0212791E1,4.619935E1,8.741423E1,5.2815956E1,1.0239563E0,5.547637E0,2.159783E0,6.127017E0,0E0,0E0,0E0,0E0,0E0,0E0,0E0,0E0,0E0,0E0,0E0,0E0,0E0,0E0,0E0,0E0,0E0,0E0,0E0,0E0,0E0,0E0,0E0,0E0,0E0,0E0,0E0,0E0,0E0,0E0,0E0,0E0,0E0,0E0,0E0,0E0,0E0,0E0,0E0,0E0,0E0,0E0,0E0,0E0,0E0,0E0,0E0,0E0,0E0,0E0,0E0,0E0,0E0,0E0,0E0,0E0,0E0,0E0,0E0,0E0,0E0,0E0,0E0,0E0],"parents":[2147483647,0,0,1,1,2,2,3,3,4,4,5,5,6,6,7,7,8,8,9,9,10,10,11,11,12,12,13,13,14,14,15,15,16,16,17,17,18,18,19,19,20,20,21,21,22,22,23,23,24,24,25,25,26,26,27,27,28,28,29,29,30,30,31,