{"learner":{"attributes":{},"feature_names":[],"feature_types":[],"gradient_booster":{"model":{"cats":{"enc":[],"feature_segments":[],"sorted_idx":[]},"gbtree_model_param":{"num_parallel_tree":"1","num_trees":"500"},"iteration_indptr":[0,1,2,3,4,5,6,7,8,9,10,11,12,13,14,15,16,17,18,19,20,21,22,23,24,25,26,27,28,29,30,31,32,33,34,35,36,37,38,39,40,41,42,43,44,45,46,47,48,49,50,51,52,53,54,55,56,57,58,59,60,61,62,63,64,65,66,67,68,69,70,71,72,73,74,75,76,77,78,79,80,81,82,83,84,85,86,87,88,89,90,91,92,93,94,95,96,97,98,99,100,101,102,103,104,105,106,107,108,109,110,111,112,113,114,115,116,117,118,119,120,121,122,123,124,125,126,127,128,129,130,131,132,133,134,135,136,137,138,139,140,141,142,143,144,145,146,147,148,149,150,151,152,153,154,155,156,157,158,159,160,161,162,163,164,165,166,167,168,169,170,171,172,173,174,175,176,177,178,179,180,181,182,183,184,185,186,187,188,189,190,191,192,193,194,195,196,197,198,199,200,201,202,203,204,205,206,207,208,209,210,211,212,213,214,215,216,217,218,219,220,221,222,223,224,225,226,227,228,229,230,231,232,233,234,235,236,237,238,239,240,241,242,243,244,245,246,247,248,249,250,251,252,253,254,255,256,257,258,259,260,261,262,263,264,265,266,267,268,269,270,271,272,273,274,275,276,277,278,279,280,281,282,283,284,285,286,287,288,289,290,291,292,293,294,295,296,297,298,299,300,301,302,303,304,305,306,307,308,309,310,311,312,313,314,315,316,317,318,319,320,321,322,323,324,325,326,327,328,329,330,331,332,333,334,335,336,337,338,339,340,341,342,343,344,345,346,347,348,349,350,351,352,353,354,355,356,357,358,359,360,361,362,363,364,365,366,367,368,369,370,371,372,373,374,375,376,377,378,379,380,381,382,383,384,385,386,387,388,389,390,391,392,393,394,395,396,397,398,399,400,401,402,403,404,405,406,407,408,409,410,411,412,413,414,415,416,417,418,419,420,421,422,423,424,425,426,427,428,429,430,431,432,433,434,435,436,437,438,439,440,441,442,443,444,445,446,447,448,449,450,451,452,453,454,455,456,457,458,459,460,461,462,463,464,465,466,467,468,469,470,471,472,473,474,475,476,477,478,479,480,481,482,483,484,485,486,487,488,489,490,491,492,493,494,495,496,497,498,499,500],"tree_info":[0,0,0,0,0,0,0,0,0,0,0,0,0,0,0,0,0,0,0,0,0,0,0,0,0,0,0,0,0,0,0,0,0,0,0,0,0,0,0,0,0,0,0,0,0,0,0,0,0,0,0,0,0,0,0,0,0,0,0,0,0,0,0,0,0,0,0,0,0,0,0,0,0,0,0,0,0,0,0,0,0,0,0,0,0,0,0,0,0,0,0,0,0,0,0,0,0,0,0,0,0,0,0,0,0,0,0,0,0,0,0,0,0,0,0,0,0,0,0,0,0,0,0,0,0,0,0,0,0,0,0,0,0,0,0,0,0,0,0,0,0,0,0,0,0,0,0,0,0,0,0,0,0,0,0,0,0,0,0,0,0,0,0,0,0,0,0,0,0,0,0,0,0,0,0,0,0,0,0,0,0,0,0,0,0,0,0,0,0,0,0,0,0,0,0,0,0,0,0,0,0,0,0,0,0,0,0,0,0,0,0,0,0,0,0,0,0,0,0,0,0,0,0,0,0,0,0,0,0,0,0,0,0,0,0,0,0,0,0,0,0,0,0,0,0,0,0,0,0,0,0,0,0,0,0,0,0,0,0,0,0,0,0,0,0,0,0,0,0,0,0,0,0,0,0,0,0,0,0,0,0,0,0,0,0,0,0,0,0,0,0,0,0,0,0,0,0,0,0,0,0,0,0,0,0,0,0,0,0,0,0,0,0,0,0,0,0,0,0,0,0,0,0,0,0,0,0,0,0,0,0,0,0,0,0,0,0,0,0,0,0,0,0,0,0,0,0,0,0,0,0,0,0,0,0,0,0,0,0,0,0,0,0,0,0,0,0,0,0,0,0,0,0,0,0,0,0,0,0,0,0,0,0,0,0,0,0,0,0,0,0,0,0,0,0,0,0,0,0,0,0,0,0,0,0,0,0,0,0,0,0,0,0,0,0,0,0,0,0,0,0,0,0,0,0,0,0,0,0,0,0,0,0,0,0,0,0,0,0,0,0,0,0,0,0,0,0,0,0,0,0,0,0,0,0,0,0,0,0,0,0,0,0,0,0,0,0,0,0,0,0,0,0,0,0,0,0,0,0,0,0,0,0,0,0,0,0,0,0,0,0,0,0,0,0,0,0,0,0,0],"trees":[{"base_weights":[2.826157E-3,8.541804E-2,-1.289786E-1,4.1478727E-2,7.043027E-1,3.254762E-1,-2.0071706E-1,1.2311621E-1,-1.2640104E-1,9.2704445E-2,1.0300235E0,-3.3156853E-2,5.183252E-1,-7.732374E-1,-1.5275289E-1,-4.414134E-2,1.4860454E-1,-6.6919036E-2,-7.125523E-2,-2.3501622E-2,3.499226E-2,1.2359939E0,1.6503414E-2,1.1890912E0,2.2003594E-1,1.4644598E-2,-1.1027955E0,1.582736E-2,-3.1956205E-1,-4.079683E-2,2.939327E-1,-7.975061E-1,2.3537932E-3,7.270045E-2,1.4013729E-2,7.59066E-2,1.8615982E-2,-2.6393822E-1,9.8061854E-1,-4.911643E-1,-8.288617E-2,-6.894991E-1,8.975676E-2,-6.405456E-1,5.455971E-2,-1.343293E-2,1.933482E-2,5.66688E-2,1.1673934E-2,-7.315054E-2,-1.4037089E-2,-3.5909414E-2,3.6725395E-3,8.639059E-3,-6.361869E-2,1.0729713E-2,7.255246E-2,-5.427596E-2,8.1283675E-4,1.8615982E-2,-5.9860703E-2,1.1747701E-2,-1.3757381E-2,2.0261561E-2,-3.5940506E-2,3.809888E-2,-4.5878827E-3],"categories":[],"categories_nodes":[],"categories_segments":[],"categories_sizes":[],"default_left":[0,0,0,0,0,0,0,0,0,0,0,0,0,0,0,0,0,0,0,0,0,0,0,0,0,0,0,0,0,0,0,0,0,0,0,0,0,0,0,0,0,0,0,0,0,0,0,0,0,0,0,0,0,0,0,0,0,0,0,0,0,0,0,0,0,0,0],"id":0,"left_children":[1,3,5,7,9,11,13,15,17,19,21,-1,23,25,27,-1,29,31,-1,-1,-1,33,-1,35,37,-1,39,41,43,45,47,49,51,-1,-1,-1,-1,53,55,57,-1,59,61,63,65,-1,-1,-1,-1,-1,-1,-1,-1,-1,-1,-1,-1,-1,-1,-1,-1,-1,-1,-1,-1,-1,-1],"loss_changes":[8.7172785E0,1.3302187E1,1.0100093E1,6.3404927E0,6.2600346E0,8.376141E0,7.1204815E0,8.042681E0,1.1427326E1,4.6185946E0,2.460001E0,0E0,6.793112E0,7.511813E0,7.002137E0,0E0,8.423822E0,7.4501452E0,0E0,0E0,0E0,2.6975365E0,0E0,2.1320686E0,9.983497E0,0E0,4.311409E0,6.461133E0,1.50889015E1,1.3034138E1,8.368962E0,3.7955284E0,6.8457837E0,0E0,0E0,0E0,0E0,7.6993337E0,3.3022747E0,2.8363533E0,0E0,6.856638E0,6.0547705E0,5.8416576E0,6.1859303E0,0E0,0E0,0E0,0E0,0E0,0E0,0E0,0E0,0E0,0E0,0E0,0E0,0E0,0E0,0E0,0E0,0E0,0E0,0E0,0E0,0E0,0E0],"parents":[2147483647,0,0,1,1,2,2,3,3,4,4,5,5,6,6,7,7,8,8,9,9,10,10,12,12,13,13,14,14,16,16,17,17,21,21,23,23,24,24,26,26,27,27,28,28,29,29,30,30,31,31,32,32,37,37,38,38,39,39,41,41,42,42,43,43,44,44],"right_children":[2,4,6,8,10,12,14,16,18,20,22,-1,24,26,28,-1,30,32,-1,-1,-1,34,-1,36,38,-1,40,42,44,46,48,50,52,-1,-1,-1,-1,54,56,58,-1,60,62,64,66,-1,-1,-1,-1,-1,-1,-1,-1,-1,-1,-1,-1,-1,-1,-1,-1,-1,-1,-1,-1,-1,-1],"split_conditions":[3.3348333E3,3.33E3,1.9147379E1,3E0,1.2542583E-2,5.507963E0,-6.1296263E0,4.344323E0,3.3205E3,2.8417176E-1,1.00097656E-1,-3.3156853E-2,1.5333658E-1,-9.671707E1,5.835112E1,-4.414134E-2,4.305241E1,6.626246E-3,-7.125523E-2,-2.3501622E-2,3.499226E-2,4.82045E5,1.6503414E-2,1.3901761E1,3.4286938E1,1.4644598E-2,9.415293E0,1.1708588E1,6.5702034E1,3.023459E-3,5.507963E0,-3.962439E-2,1.0035319E1,7.270045E-2,1.4013729E-2,7.59066E-2,1.8615982E-2,2.0658265E-1,1.6000977E0,0E0,-8.288617E-2,7E0,6.683096E1,-2.8798842E0,4.6376E5,-1.343293E-2,1.933482E-2,5.66688E-2,1.1673934E-2,-7.315054E-2,-1.4037089E-2,-3.5909414E-2,3.6725395E-3,8.639059E-3,-6.361869E-2,1.0729713E-2,7.255246E-2,-5.427596E-2,8.1283675E-4,1.8615982E-2,-5.9860703E-2,1.1747701E-2,-1.3757381E-2,2.0261561E-2,-3.5940506E-2,3.809888E-2,-4.5878827E-3],"split_indices":[39,40,21,59,31,14,9,26,0,27,55,0,57,22,38,0,21,31,0,0,0,36,0,21,18,0,26,14,19,56,14,64,14,0,0,0,0,63,49,55,0,65,21,9,36,0,0,0,0,0,0,0,0,0,0,0,0,0,0,0,0,0,0,0,0,0,0],"split_type":[0,0,0,0,0,0,0,0,0,0,0,0,0,0,0,0,0,0,0,0,0,0,0,0,0,0,0,0,0,0,0,0,0,0,0,0,0,0,0,0,0,0,0,0,0,0,0,0,0,0,0,0,0,0,0,0,0,0,0,0,0,0,0,0,0,0,0],"sum_hessian":[7.9916675E2,4.9198703E2,3.0717972E2,4.6051984E2,3.146719E1,4.1207035E1,2.659727E2,3.1042633E2,1.500935E2,1.1488022E1,1.9979168E1,6.24349E0,3.4963543E1,1.922995E1,2.4674272E2,6.742969E0,3.0368335E2,1.4459923E2,5.4942713E0,5.9937506E0,5.4942713E0,1.4734636E1,5.2445316E0,9.739844E0,2.52237E1,4.4953127E0,1.4734636E1,1.2287189E2,1.2387084E2,1.318625E2,1.7182085E2,1.17377615E1,1.3286147E2,1.1488022E1,3.246615E0,6.24349E0,3.4963543E0,1.5733595E1,9.490105E0,7.9916673E0,6.742969E0,1.0738803E1,1.1213308E2,6.643073E1,5.744011E1,8.6409904E1,4.5452606E1,1.0239324E1,1.6158153E2,4.245573E0,7.492188E0,1.0988543E1,1.21872925E2,1.1488022E1,4.245573E0,4.245573E0,5.2445316E0,3.246615E0,4.7450523E0,3.4963543E0,7.2424483E0,8.066589E1,3.146719E1,4.245573E0,6.218516E1,9.240365E0,4.819974E1],"tree_param":{"num_deleted":"0","num_feature":"66","num_nodes":"67","size_leaf_vector":"1"}},{"base_weights":[-5.7292157E-3,6.189185E-2,-2.3136751E-1,-4.495797E-2,1.7437254E-1,7.605198E-2,-4.2756045E-1,-1.0301636E-1,3.9329404E-1,3.3132496E-1,3.3157855E-2,-3.6380607E-1,2.6966786E-1,-7.339715E-1,-1.2911908E-1,5.2886005E-2,-1.2723546E-1,8.517648E-1,-5.6723546E-2,5.3132612E-2,5.544132E-1,4.5349392E-1,-5.6906022E-2,2.2988679E-1,-7.8382576E-1,-2.0664701E-1,5.09751E-1,-3.1028304E-1,-1.0933332E0,-1.0876257E0,5.2695695E-2,-9.5923886E-2,-7.701727E-1,1.1431216E0,-1.8515145E-2,-4.355336E-1,4.0023997E-2,3.2303035E-1,-3.821619E-1,8.8092154E-1,2.0714955E-1,1.0271449E0,1.4018815E-2,-9.150379E-1,5.7753745E-2,3.6851443E-2,-5.429589E-3,-1.4506503E-3,-1.0348661E0,2.9489914E-2,-5.085426E-1,-1.7511715E-1,6.7859113E-1,3.5690505E-2,-5.654927E-1,-1.3373029E0,-2.2307834E-1,-1.855047E-2,-6.923488E-2,4.0742263E-1,-3.7246147E-1,-1.4392513E-2,7.652497E-4,-5.38403E-2,2.7342911E-3,1.8745495E-2,6.657704E-2,1.435334E-2,-5.243633E-2,-3.542914E-2,2.3314966E-2,-3.0765666E-2,2.9647717E-2,4.892735E-2,-7.34571E-3,-2.1466415E-2,2.838405E-2,1.0336422E-2,7.122615E-2,2.074817E-2,-3.0899057E-2,-6.7621194E-2,-5.8305305E-3,1.0412134E-2,-1.6137008E-2,-7.2013296E-2,-6.207776E-3,3.6373471E-3,-4.6485312E-2,1.4331761E-2,-3.0957768E-2,-1.7260654E-2,4.2767826E-2,-5.4042835E-2,-4.4364994E-3,-3.709257E-2,-7.5014405E-2,3.0178754E-2,-5.3461414E-2,3.418169E-2,-3.5138905E-2,-5.074141E-2,3.862461E-4],"categories":[],"categories_nodes":[],"categories_segments":[],"categories_sizes":[],"default_left":[0,0,0,0,0,0,0,0,0,0,0,0,0,0,0,0,0,0,0,0,0,0,0,0,0,0,0,0,0,0,0,0,0,0,0,0,0,0,0,0,0,0,0,0,0,0,0,0,0,0,0,0,0,0,0,0,0,0,0,0,0,0,0,0,0,0,0,0,0,0,0,0,0,0,0,0,0,0,0,0,0,0,0,0,0,0,0,0,0,0,0,0,0,0,0,0,0,0,0,0,0,0,0],"id":1,"left_children":[1,3,5,7,9,11,13,15,17,19,21,23,25,27,29,-1,31,33,35,37,39,41,43,45,47,49,51,53,55,57,59,61,63,65,-1,67,-1,69,71,73,75,77,79,81,83,-1,-1,-1,85,-1,87,89,91,-1,93,95,97,-1,-1,99,101,-1,-1,-1,-1,-1,-1,-1,-1,-1,-1,-1,-1,-1,-1,-1,-1,-1,-1,-1,-1,-1,-1,-1,-1,-1,-1,-1,-1,-1,-1,-1,-1,-1,-1,-1,-1,-1,-1,-1,-1,-1,-1],"loss_changes":[1.2222844E1,7.4150305E0,1.1213418E1,8.048166E0,6.610224E0,6.2751374E0,1.0166449E1,7.910079E0,7.7523284E0,8.711155E0,6.106127E0,5.838821E0,5.9874015E0,7.9635544E0,1.0390793E1,0E0,5.378787E0,7.07981E0,6.6365995E0,7.6858315E0,8.597801E0,7.057365E0,1.3136418E1,1.8568449E0,2.4189138E0,4.5526853E0,4.1528387E0,7.4383993E0,5.804775E0,1.3317118E0,7.7273955E0,5.6603994E0,3.319538E0,1.5348358E0,0E0,6.6851645E0,0E0,6.2843003E0,6.0443296E0,4.235676E0,9.3095255E0,3.5310335E0,4.6019883E0,5.189501E0,6.776294E0,0E0,0E0,0E0,3.3536015E0,0E0,3.453006E0,1.7466804E0,5.4062414E0,0E0,5.248728E0,8.692627E-1,6.1093035E0,0E0,0E0,9.057697E0,5.782057E0,0E0,0E0,0E0,0E0,0E0,0E0,0E0,0E0,0E0,0E0,0E0,0E0,0E0,0E0,0E0,0E0,0E0,0E0,0E0,0E0,0E0,0E0,0E0,0E0,0E0,0E0,0E0,0E0,0E0,0E0,0E0,0E0,0E0,0E0,0E0,0E0,0E0,0E0,0E0,0E0,0E0,0E0],"parents":[2147483647,0,0,1,1,2,2,3,3,4,4,5,5,6,6,7,7,8,8,9,9,10,10,11,11,12,12,13,13,14,14,16,16,17,17,18,18,19,19,20,20,21,21,22,22,23,23,24,24,25,25,26,26,27,27,28,28,29,29,30,30,31,31,32,32,33,33,35,35,37,37,38,38,39,39,40,40,41,41,42,42,43,43,44,44,48,48,50,50,51,51,52,52,54,54,55,55,56,56,59,59,60,60],"right_children":[2,4,6,8,10,12,14,16,18,20,22,24,26,28,30,-1,32,34,36,38,40,42,44,46,48,50,52,54,56,58,60,62,64,66,-1,68,-1,70,72,74,76,78,80,82,84,-1,-1,-1,86,-1,88,90,92,-1,94,96,98,-1,-1,100,102,-1,-1,-1,-1,-1,-1,-1,-1,-1,-1,-1,-1,-1,-1,-1,-1,-1,-1,-1,-1,-1,-1,-1,-1,-1,-1,-1,-1,-1,-1,-1,-1,-1,-1,-1,-1,-1,-1,-1,-1,-1,-1],"split_conditions":[3.375658E3,4.5091885E-1,3.8321304E1,5.355667E1,3.7235906E5,-1.6883444E0,3.4163325E3,-5.459597E0,3.3003806E3,2.9094167E3,2.9542E3,-1.1546563E1,1.2001953E0,-1.11579426E-1,6.4372716E0,5.2886005E-2,1.05E1,6.5078473E-1,6.527234E1,1.9499756E0,5.907896E-4,1.4169714E0,3.1662E3,3.0937569E1,1.3999023E0,2.0917187E1,5.7001953E0,4.6516014E1,4E0,2.9049702E1,1.4706732E0,-1.2100098E1,3.267163E1,-4.582072E0,-1.8515145E-2,-6.4876373E-4,4.0023997E-2,-1.4214398E-1,8E0,2.087054E1,3.018E3,6.1606956E-1,2.9337334E3,1.5927261E0,9.190038E-1,3.6851443E-2,-5.429589E-3,-1.4506503E-3,-2.034588E0,2.9489914E-2,6.0940533E0,2.2277282E-1,-3.6600786E-3,3.5690505E-2,8.9990234E-1,4.6000977E0,7.181383E1,-1.855047E-2,-6.923488E-2,1.1944886E1,7.826751E0,-1.4392513E-2,7.652497E-4,-5.38403E-2,2.7342911E-3,1.8745495E-2,6.657704E-2,1.435334E-2,-5.243633E-2,-3.542914E-2,2.3314966E-2,-3.0765666E-2,2.9647717E-2,4.892735E-2,-7.34571E-3,-2.1466415E-2,2.838405E-2,1.0336422E-2,7.122615E-2,2.074817E-2,-3.0899057E-2,-6.7621194E-2,-5.8305305E-3,1.0412134E-2,-1.6137008E-2,-7.2013296E-2,-6.207776E-3,3.6373471E-3,-4.6485312E-2,1.4331761E-2,-3.0957768E-2,-1.7260654E-2,4.2767826E-2,-5.4042835E-2,-4.4364994E-3,-3.709257E-2,-7.5014405E-2,3.0178754E-2,-5.3461414E-2,3.418169E-2,-3.5138905E-2,-5.074141E-2,3.862461E-4],"split_indices":[7,61,20,16,37,64,1,11,8,4,0,9,52,64,26,0,23,60,16,58,47,61,42,38,52,15,53,17,49,16,64,23,16,11,0,47,0,50,62,9,45,60,42,61,63,0,0,0,64,0,26,60,47,0,23,53,17,0,0,26,15,0,0,0,0,0,0,0,0,0,0,0,0,0,0,0,0,0,0,0,0,0,0,0,0,0,0,0,0,0,0,0,0,0,0,0,0,0,0,0,0,0,0],"split_type":[0,0,0,0,0,0,0,0,0,0,0,0,0,0,0,0,0,0,0,0,0,0,0,0,0,0,0,0,0,0,0,0,0,0,0,0,0,0,0,0,0,0,0,0,0,0,0,0,0,0,0,0,0,0,0,0,0,0,0,0,0,0,0,0,0,0,0,0,0,0,0,0,0,0,0,0,0,0,0,0,0,0,0,0,0,0,0,0,0,0,0,0,0,0,0,0,0,0,0,0,0,0,0],"sum_hessian":[7.980336E2,6.142368E2,1.8379683E2,3.1485498E2,2.9938184E2,7.164196E1,1.1215487E2,2.7890018E2,3.5954792E1,1.4081702E2,1.5856483E2,2.147023E1,5.0171726E1,5.4453156E1,5.770171E1,4.7438126E0,2.7415637E2,1.7477982E1,1.8476812E1,6.3419247E1,7.7397766E1,2.7463823E1,1.3110101E2,8.984847E0,1.2485384E1,1.6720903E1,3.345082E1,2.5972828E1,2.8480328E1,8.493406E0,4.9208305E1,2.626689E2,1.1487456E1,1.4231448E1,3.2465327E0,1.3236147E1,5.2406645E0,3.944784E1,2.3971401E1,3.8950523E1,3.8447243E1,1.1234531E1,1.6229292E1,1.473248E1,1.1636853E2,3.2433314E0,5.7415156E0,3.493939E0,8.991445E0,4.2428217E0,1.2478082E1,6.491167E0,2.6959656E1,4.7447066E0,2.122812E1,2.1735384E1,6.7449455E0,3.2467904E0,5.2466154E0,2.6977083E1,2.2231222E1,9.612153E1,1.6654738E2,8.240076E0,3.2473795E0,3.4964442E0,1.0735004E1,6.2453055E0,6.990842E0,4.2441177E0,3.5203724E1,1.9726347E1,4.2450557E0,3.57045E1,3.2460258E0,1.3733716E1,2.4713526E1,4.2441177E0,6.9904137E0,1.0236705E1,5.992587E0,8.989075E0,5.743406E0,8.390058E1,3.2467953E1,5.7434764E0,3.2479682E0,5.490262E0,6.9878197E0,3.2454844E0,3.2456827E0,3.7457938E0,2.3213861E1,9.49141E0,1.173671E1,5.995729E0,1.5739655E1,3.49701E0,3.2479353E0,2.1982315E1,4.994768E0,7.742743E0,1.4488479E1],"tree_param":{"num_deleted":"0","num_feature":"66","num_nodes":"103","size_leaf_vector":"1"}},{"base_weights":[-1.3400256E-2,8.137762E-2,-2.0252754E-1,2.5630978E-1,-4.3847016E-3,6.7178875E-1,-2.542605E-1,-1.3759365E-2,4.2542765E-1,9.948101E-2,-3.4296954E-1,-6.624444E-3,9.545325E-1,-2.1081133E-1,-1.0736148E0,2.831755E-1,-3.79258E-1,3.4282908E-1,7.626042E-2,-5.8429325E-1,1.4965215E-1,-6.0500896E-1,2.2553097E-1,7.00187E-2,-1.3437303E-3,-2.5315022E-1,4.5751464E-1,-8.228729E-2,-5.671963E-1,-1.8617166E-2,6.336149E-1,-6.8414557E-1,1.6536364E-1,2.6703924E-1,6.2926345E-2,-6.5311946E-2,-1.6478646E-1,7.6262444E-2,4.548413E-1,-4.107708E-1,-1.1623544E0,-5.2571096E-2,6.240812E-2,-1.05773985E-1,-5.536829E-1,-2.111416E-2,8.3331156E-1,-5.0351467E-2,3.0153373E-3,-1.9033192E-2,2.7068272E-2,-0E0,4.675445E-2,1.8495448E-2,-4.6431717E-2,-2.4415625E-2,3.3732943E-2,2.1665357E-2,-5.3946124E-3,2.4795018E-2,-3.9674576E-2,1.2654854E-3,3.5410177E-2,4.640638E-3,3.7335914E-2,-3.443973E-2,1.4360398E-2,7.252341E-4,-8.7374866E-2,1.5506494E-2,-2.7351236E-2,-4.7844496E-2,-2.7820168E-3,-3.1700145E-2,4.138951E-2,6.3685805E-2,1.058021E-2],"categories":[],"categories_nodes":[],"categories_segments":[],"categories_sizes":[],"default_left":[0,0,0,0,0,0,0,0,0,0,0,0,0,0,0,0,0,0,0,0,0,0,0,0,0,0,0,0,0,0,0,0,0,0,0,0,0,0,0,0,0,0,0,0,0,0,0,0,0,0,0,0,0,0,0,0,0,0,0,0,0,0,0,0,0,0,0,0,0,0,0,0,0,0,0,0,0],"id":2,"left_children":[1,3,5,7,9,11,13,15,17,19,21,-1,23,25,27,29,31,33,-1,35,37,39,41,-1,-1,43,45,-1,47,49,51,53,55,57,-1,-1,59,61,63,65,67,69,-1,71,73,-1,75,-1,-1,-1,-1,-1,-1,-1,-1,-1,-1,-1,-1,-1,-1,-1,-1,-1,-1,-1,-1,-1,-1,-1,-1,-1,-1,-1,-1,-1,-1],"loss_changes":[1.4459141E1,8.077524E0,1.2313968E1,8.128816E0,1.2743597E1,3.6688557E0,8.729599E0,7.5922885E0,9.198172E0,9.532262E0,1.2855771E1,0E0,5.1946077E0,6.990801E0,2.4640694E0,4.1371374E0,5.3877163E0,6.6474304E0,0E0,5.38418E0,5.704393E0,5.7157516E0,7.9964304E0,0E0,0E0,1.0060451E1,5.264271E0,0E0,2.4307446E0,4.541548E0,3.4793706E0,5.676367E0,4.3350687E0,6.0846934E0,0E0,0E0,5.9198313E0,6.668587E0,5.0949116E0,9.005466E0,1.0170507E1,4.2242403E0,0E0,6.491328E0,8.849915E0,0E0,2.5225244E0,0E0,0E0,0E0,0E0,0E0,0E0,0E0,0E0,0E0,0E0,0E0,0E0,0E0,0E0,0E0,0E0,0E0,0E0,0E0,0E0,0E0,0E0,0E0,0E0,0E0,0E0,0E0,0E0,0E0,0E0],"parents":[2147483647,0,0,1,1,2,2,3,3,4,4,5,5,6,6,7,7,8,8,9,9,10,10,12,12,13,13,14,14,15,15,16,16,17,17,19,19,20,20,21,21,22,22,25,25,26,26,28,28,29,29,30,30,31,31,32,32,33,33,36,36,37,37,38,38,39,39,40,40,41,41,43,43,44,44,46,46],"right_children":[2,4,6,8,10,12,14,16,18,20,22,-1,24,26,28,30,32,34,-1,36,38,40,42,-1,-1,44,46,-1,48,50,52,54,56,58,-1,-1,60,62,64,66,68,70,-1,72,74,-1,76,-1,-1,-1,-1,-1,-1,-1,-1,-1,-1,-1,-1,-1,-1,-1,-1,-1,-1,-1,-1,-1,-1,-1,-1,-1,-1,-1,-1,-1,-1],"split_conditions":[3.3460117E3,1.332352E1,-1.7091321E2,6.765315E0,3.4631793E0,1.6000977E0,9.523859E-1,8.1152664E1,3.3875E3,1.50868225E1,2.151514E1,-6.624444E-3,3E0,1.7458047E2,1.8145527E-1,1.1276653E1,8.854981E1,9.7267747E-1,7.626042E-2,6.2136155E-1,5.971187E-3,6.932176E1,7.000015E-1,7.00187E-2,-1.3437303E-3,5.7878605E1,4.7249362E5,-8.228729E-2,6.2595387E1,7.733962E1,3.4923856E5,6.0960808E1,9.600028E-1,8.9825736E-4,6.2926345E-2,-6.5311946E-2,2.4754574E1,6.374172E1,1.6999512E0,1.2200195E1,1.5095471E-2,2.8999023E0,6.240812E-2,-1.15E1,3.8773663E0,-2.111416E-2,3.6327694E1,-5.0351467E-2,3.0153373E-3,-1.9033192E-2,2.7068272E-2,-0E0,4.675445E-2,1.8495448E-2,-4.6431717E-2,-2.4415625E-2,3.3732943E-2,2.1665357E-2,-5.3946124E-3,2.4795018E-2,-3.9674576E-2,1.2654854E-3,3.5410177E-2,4.640638E-3,3.7335914E-2,-3.443973E-2,1.4360398E-2,7.252341E-4,-8.7374866E-2,1.5506494E-2,-2.7351236E-2,-4.7844496E-2,-2.7820168E-3,-3.1700145E-2,4.138951E-2,6.3685805E-2,1.058021E-2],"split_indices":[4,15,22,15,9,52,57,17,44,15,15,0,51,22,50,10,38,60,0,57,56,38,61,0,0,38,37,0,38,38,37,38,63,47,0,0,14,38,51,23,31,52,0,49,64,0,14,0,0,0,0,0,0,0,0,0,0,0,0,0,0,0,0,0,0,0,0,0,0,0,0,0,0,0,0,0,0],"split_type":[0,0,0,0,0,0,0,0,0,0,0,0,0,0,0,0,0,0,0,0,0,0,0,0,0,0,0,0,0,0,0,0,0,0,0,0,0,0,0,0,0,0,0,0,0,0,0,0,0,0,0,0,0,0,0,0,0,0,0,0,0,0,0,0,0,0,0,0,0,0,0,0,0,0,0,0,0],"sum_hessian":[8.040476E2,5.3565454E2,2.6839307E2,1.7594707E2,3.597075E2,1.4215997E1,2.5417708E2,6.787803E1,1.0806904E2,2.7558017E2,8.41273E1,3.7439368E0,1.047206E1,2.4268707E2,1.14900055E1,3.7425117E1,3.0452913E1,1.0182423E2,6.2448125E0,1.7974155E1,2.5760602E2,5.766117E1,2.6466127E1,6.9773316E0,3.4947288E0,2.2895355E2,1.37335205E1,4.245911E0,7.244095E0,2.0463663E1,1.6961452E1,1.9476883E1,1.097603E1,9.533447E1,6.489748E0,5.741411E0,1.2232745E1,2.0893933E2,4.866669E1,4.4180458E1,1.3480712E1,2.1476463E1,4.989665E0,1.5475095E2,7.42026E1,3.9937475E0,9.739773E0,3.9970217E0,3.247073E0,1.2731282E1,7.732382E0,5.7354436E0,1.1226009E1,3.493498E0,1.5983385E1,4.7387433E0,6.2372875E0,6.612262E1,2.9211853E1,5.990105E0,6.24264E0,1.9445863E2,1.4480699E1,2.2464067E1,2.6202623E1,3.1707096E1,1.2473363E1,4.7439113E0,8.736801E0,1.2487174E1,8.989288E0,7.491236E0,1.472597E2,7.070519E1,3.4974022E0,4.993146E0,4.746627E0],"tree_param":{"num_deleted":"0","num_feature":"66","num_nodes":"77","size_leaf_vector":"1"}},{"base_weights":[1.9990126E-2,7.96728E-2,-1.944749E-1,5.8093995E-2,6.852037E-1,-3.4007522E-1,1.6086395E-1,1.0042757E-1,-2.4817918E-1,1.011565E0,-1.28280325E-2,8.239343E-2,-5.144957E-1,2.6876274E-1,-4.6783518E-2,1.011756E0,7.888344E-2,5.462819E-1,-4.0383863E-1,7.69067E-2,4.090519E-3,6.031491E-1,-2.5295886E-1,8.560919E-2,-6.106388E-1,1.1460902E-1,5.8687266E-2,-7.561095E-3,7.299001E-2,-2.8872888E-3,3.1503475E-1,9.3232113E-1,-1.9930257E-2,-2.875198E-1,-1.2090776E0,1.0730506E0,1.251871E-2,4.5000747E-1,-6.95184E-1,-6.2243164E-1,4.8304524E-2,3.0702263E-2,-6.7890704E-1,-2.9717058E-1,4.8088902E-1,2.767834E-2,-1.6685715E-3,-3.563304E-2,1.8023996E-2,6.760048E-2,1.1452056E-2,1.2068446E-2,-3.0308673E-2,-3.0161193E-2,-7.531832E-2,7.352359E-2,2.2460578E-2,-2.9336035E-2,2.9932251E-2,5.886979E-2,-2.0946668E-2,5.2052266E-3,-5.0557524E-2,-5.6369897E-2,1.7788941E-3,-4.099831E-2,-4.692118E-3,5.03545E-2,-3.0586502E-2,-2.9018372E-3,5.483824E-2],"categories":[],"categories_nodes":[],"categories_segments":[],"categories_sizes":[],"default_left":[0,0,0,0,0,0,0,0,0,0,0,0,0,0,0,0,0,0,0,0,0,0,0,0,0,0,0,0,0,0,0,0,0,0,0,0,0,0,0,0,0,0,0,0,0,0,0,0,0,0,0,0,0,0,0,0,0,0,0,0,0,0,0,0,0,0,0,0,0,0,0],"id":3,"left_children":[1,3,5,7,9,11,13,15,17,19,-1,21,23,25,-1,27,29,31,33,-1,-1,35,37,39,41,43,-1,-1,-1,45,47,49,-1,51,53,55,57,59,61,63,-1,-1,65,67,69,-1,-1,-1,-1,-1,-1,-1,-1,-1,-1,-1,-1,-1,-1,-1,-1,-1,-1,-1,-1,-1,-1,-1,-1,-1,-1],"loss_changes":[1.0312319E1,8.13214E0,9.139708E0,7.9273605E0,6.9320498E0,9.284322E0,6.268172E0,1.0363814E1,9.37665E0,7.653702E0,0E0,6.6793785E0,5.2201977E0,6.387013E0,0E0,6.7195168E0,1.0194256E1,4.9730673E0,5.3741074E0,0E0,0E0,4.0337644E0,7.5493646E0,8.725445E0,6.8347836E0,6.4861956E0,0E0,0E0,0E0,6.6087832E0,6.558381E0,2.2555466E0,0E0,9.653271E0,2.2971153E-1,1.1886616E0,3.071171E0,6.5599875E0,3.9137573E0,2.720346E0,0E0,0E0,5.8718224E0,8.876614E0,7.7032776E0,0E0,0E0,0E0,0E0,0E0,0E0,0E0,0E0,0E0,0E0,0E0,0E0,0E0,0E0,0E0,0E0,0E0,0E0,0E0,0E0,0E0,0E0,0E0,0E0,0E0,0E0],"parents":[2147483647,0,0,1,1,2,2,3,3,4,4,5,5,6,6,7,7,8,8,9,9,11,11,12,12,13,13,15,15,16,16,17,17,18,18,21,21,22,22,23,23,24,24,25,25,29,29,30,30,31,31,33,33,34,34,35,35,36,36,37,37,38,38,39,39,42,42,43,43,44,44],"right_children":[2,4,6,8,10,12,14,16,18,20,-1,22,24,26,-1,28,30,32,34,-1,-1,36,38,40,42,44,-1,-1,-1,46,48,50,-1,52,54,56,58,60,62,64,-1,-1,66,68,70,-1,-1,-1,-1,-1,-1,-1,-1,-1,-1,-1,-1,-1,-1,-1,-1,-1,-1,-1,-1,-1,-1,-1,-1,-1,-1],"split_conditions":[3.3587422E3,3.3928333E3,3.4145964E3,4.88174E5,1.8204481E1,-8.3757544E-1,9.36008E1,9.9853516E-2,2.9641E3,9.170182E-1,-1.28280325E-2,2.611726E1,3.5972503E-1,9.2335325E-1,-4.6783518E-2,-8.509011E-1,1.7752009E-2,2.5998535E0,3.36271E3,7.69067E-2,4.090519E-3,9.367551E0,-2.9177885E-3,4.457385E1,3.3790303E3,1.7105839E1,5.8687266E-2,-7.561095E-3,7.299001E-2,5.858046E-3,3.9990234E-1,1.7001953E0,-1.9930257E-2,2.548896E-1,4.5947015E-1,4.6362305E-1,1.1278292E1,1.7251915E-1,1.4135797E-1,3.3747214E3,4.8304524E-2,3.0702263E-2,2.1273656E0,3.4528652E3,3.436126E3,2.767834E-2,-1.6685715E-3,-3.563304E-2,1.8023996E-2,6.760048E-2,1.1452056E-2,1.2068446E-2,-3.0308673E-2,-3.0161193E-2,-7.531832E-2,7.352359E-2,2.2460578E-2,-2.9336035E-2,2.9932251E-2,5.886979E-2,-2.0946668E-2,5.2052266E-3,-5.0557524E-2,-5.6369897E-2,1.7788941E-3,-4.099831E-2,-4.692118E-3,5.03545E-2,-3.0586502E-2,-2.9018372E-3,5.483824E-2],"split_indices":[35,42,30,36,26,61,21,51,44,63,0,15,32,32,0,61,31,51,7,0,0,26,56,21,2,15,0,0,0,32,51,52,0,64,57,57,26,63,57,35,0,0,64,34,35,0,0,0,0,0,0,0,0,0,0,0,0,0,0,0,0,0,0,0,0,0,0,0,0,0,0],"split_type":[0,0,0,0,0,0,0,0,0,0,0,0,0,0,0,0,0,0,0,0,0,0,0,0,0,0,0,0,0,0,0,0,0,0,0,0,0,0,0,0,0,0,0,0,0,0,0,0,0,0,0,0,0,0,0,0,0,0,0,0,0,0,0,0,0,0,0,0,0,0,0],"sum_hessian":[8.0434595E2,6.300942E2,1.7425177E2,6.096304E2,2.0463814E1,1.2383477E2,5.0417E1,5.364763E2,7.315402E1,1.5221117E1,5.242697E0,3.617312E1,8.766165E1,4.6670704E1,3.7462952E0,1.1220936E1,5.252554E2,1.1468537E1,6.1685486E1,9.231138E0,5.9899783E0,1.3973636E1,2.2199484E1,1.19764805E1,7.568517E1,4.093502E1,5.735685E0,3.242847E0,7.978089E0,3.9057693E2,1.3467847E2,8.226629E0,3.2419074E0,5.519384E1,6.4916425E0,7.2330065E0,6.7406287E0,8.478396E0,1.37210865E1,6.7377825E0,5.238698E0,3.496739E0,7.218843E1,1.9230904E1,2.1704117E1,1.9224033E1,3.713529E2,4.988413E0,1.2969005E2,4.4853396E0,3.74129E0,2.0724632E1,3.4469208E1,3.2446764E0,3.2469664E0,3.491372E0,3.7416346E0,3.2481668E0,3.492462E0,4.4845195E0,3.9938765E0,3.9876673E0,9.733419E0,3.4946012E0,3.243181E0,5.7703655E1,1.4484779E1,3.2472615E0,1.5983642E1,1.1971649E1,9.732468E0],"tree_param":{"num_deleted":"0","num_feature":"66","num_nodes":"71","size_leaf_vector":"1"}},{"base_weights":[1.9288723E-3,8.697577E-2,-1.1798247E-1,-2.9341072E-2,2.3315188E-1,-1.603408E-1,4.6624187E-1,-7.510159E-2,6.244868E-1,2.9767928E-1,-2.7021247E-1,-1.1874894E-1,-6.5206444E-1,6.89104E-1,-3.214724E-2,3.2058206E-1,-1.4821121E-1,6.489929E-2,-1.5826657E-2,1.7303897E-1,7.4219257E-1,-6.98194E-1,5.943529E-1,-1.5397169E-1,5.3109086E-1,-1.333806E0,-2.2112991E-1,9.7842145E-1,-2.347473E-2,-4.7770545E-2,5.191679E-1,-1.15310475E-1,-9.027403E-1,3.6883783E-2,-2.6086656E-2,4.241831E-1,-6.584347E-2,8.543969E-1,-1.9562254E-2,-2.0567015E-1,-7.640823E-2,-1.3822011E-2,6.399646E-2,-1.0670466E-1,-7.908763E-1,8.2072616E-1,-1.8512568E-2,-2.929236E-2,-8.1830576E-2,4.9520376E-1,-1.0110539E0,1.3295134E0,-1.982942E-3,-1.3508575E-2,3.4568116E-2,-1.8830651E-2,-2.234594E-4,-0E0,-7.699295E-2,8.011364E-3,3.671957E-2,-4.9984444E-2,1.8959213E-3,4.7698695E-2,-3.0242782E-3,-4.4647414E-2,2.1060003E-2,2.723196E-2,-6.908977E-3,1.5906606E-2,-5.852229E-2,5.5593636E-2,1.0224711E-3,-1.2714944E-2,5.182283E-2,-1.6963637E-2,-6.892095E-2,7.802171E-2,2.5909072E-2],"categories":[],"categories_nodes":[],"categories_segments":[],"categories_sizes":[],"default_left":[0,0,0,0,0,0,0,0,0,0,0,0,0,0,0,0,0,0,0,0,0,0,0,0,0,0,0,0,0,0,0,0,0,0,0,0,0,0,0,0,0,0,0,0,0,0,0,0,0,0,0,0,0,0,0,0,0,0,0,0,0,0,0,0,0,0,0,0,0,0,0,0,0,0,0,0,0,0,0],"id":4,"left_children":[1,3,5,7,9,11,13,15,17,19,21,23,25,27,-1,29,31,-1,33,35,37,39,41,43,45,47,49,51,-1,-1,53,55,57,-1,-1,59,61,63,-1,65,-1,-1,-1,67,69,71,-1,-1,-1,73,75,77,-1,-1,-1,-1,-1,-1,-1,-1,-1,-1,-1,-1,-1,-1,-1,-1,-1,-1,-1,-1,-1,-1,-1,-1,-1,-1,-1],"loss_changes":[8.219807E0,8.056149E0,8.312034E0,7.874908E0,6.8957615E0,6.2349396E0,6.0545897E0,7.183475E0,7.565519E0,1.0116354E1,9.372492E0,6.669603E0,6.587023E0,7.0282593E0,0E0,1.0250092E1,4.9975185E0,0E0,4.0716734E0,8.894011E0,5.5154533E0,6.3434534E0,5.5102706E0,8.119685E0,4.254803E0,8.5479164E-1,9.586367E0,5.883897E0,0E0,0E0,4.8738737E0,5.814326E0,4.9313955E0,0E0,0E0,5.695676E0,7.50759E0,3.5299358E0,0E0,5.4720683E0,0E0,0E0,0E0,5.3191347E0,8.342426E0,2.5942793E0,0E0,0E0,0E0,3.9837487E0,1.3319035E0,1.225071E0,0E0,0E0,0E0,0E0,0E0,0E0,0E0,0E0,0E0,0E0,0E0,0E0,0E0,0E0,0E0,0E0,0E0,0E0,0E0,0E0,0E0,0E0,0E0,0E0,0E0,0E0,0E0],"parents":[2147483647,0,0,1,1,2,2,3,3,4,4,5,5,6,6,7,7,8,8,9,9,10,10,11,11,12,12,13,13,15,15,16,16,18,18,19,19,20,20,21,21,22,22,23,23,24,24,25,25,26,26,27,27,30,30,31,31,32,32,35,35,36,36,37,37,39,39,43,43,44,44,45,45,49,49,50,50,51,51],"right_children":[2,4,6,8,10,12,14,16,18,20,22,24,26,28,-1,30,32,-1,34,36,38,40,42,44,46,48,50,52,-1,-1,54,56,58,-1,-1,60,62,64,-1,66,-1,-1,-1,68,70,72,-1,-1,-1,74,76,78,-1,-1,-1,-1,-1,-1,-1,-1,-1,-1,-1,-1,-1,-1,-1,-1,-1,-1,-1,-1,-1,-1,-1,-1,-1,-1,-1],"split_conditions":[4.52465E5,3.686612E1,1.8778606E1,1.2448598E1,9.273932E-1,9.4202566E-1,7.359743E1,2.6993933E-1,1.1552896E1,1.2731346E0,3.232855E3,1.7458047E2,2.5505662E0,1.3700606E0,-3.214724E-2,-5.356389E0,3.384128E3,6.489929E-2,6.796397E1,4.0206795E1,2.5955074E1,3.2624312E5,4E0,7E0,9.094098E1,7.091168E1,1.5E0,2.265077E1,-2.347473E-2,-4.7770545E-2,1.8343262E-1,4.9341198E1,-4.8352528E-4,3.6883783E-2,-2.6086656E-2,3.1148079E1,4.2813007E1,4.776091E0,-1.9562254E-2,6.49134E0,-7.640823E-2,-1.3822011E-2,6.399646E-2,-1.7091321E2,-3.3999023E0,3.9961113E1,-1.8512568E-2,-2.929236E-2,-8.1830576E-2,5.16507E5,9.057426E1,1.1049646E2,-1.982942E-3,-1.3508575E-2,3.4568116E-2,-1.8830651E-2,-2.234594E-4,-0E0,-7.699295E-2,8.011364E-3,3.671957E-2,-4.9984444E-2,1.8959213E-3,4.7698695E-2,-3.0242782E-3,-4.4647414E-2,2.1060003E-2,2.723196E-2,-6.908977E-3,1.5906606E-2,-5.852229E-2,5.5593636E-2,1.0224711E-3,-1.2714944E-2,5.182283E-2,-1.6963637E-2,-6.892095E-2,7.802171E-2,2.5909072E-2],"split_indices":[36,16,9,10,32,57,16,63,15,11,6,22,9,24,0,9,3,0,22,17,26,37,58,62,21,17,52,10,0,0,27,21,48,0,0,18,17,64,0,9,0,0,0,22,49,16,0,0,0,36,21,22,0,0,0,0,0,0,0,0,0,0,0,0,0,0,0,0,0,0,0,0,0,0,0,0,0,0,0],"split_type":[0,0,0,0,0,0,0,0,0,0,0,0,0,0,0,0,0,0,0,0,0,0,0,0,0,0,0,0,0,0,0,0,0,0,0,0,0,0,0,0,0,0,0,0,0,0,0,0,0,0,0,0,0,0,0,0,0,0,0,0,0,0,0,0,0,0,0,0,0,0,0,0,0,0,0,0,0,0,0],"sum_hessian":[8.043124E2,4.712136E2,3.3309875E2,2.6247183E2,2.0874178E2,3.1141666E2,2.1682098E1,2.4627356E2,1.6198269E1,1.8556151E2,2.3180262E1,2.8846228E2,2.2954384E1,1.8444952E1,3.2371466E0,3.766584E1,2.0860771E2,7.470091E0,8.728178E0,1.4618568E2,3.9375824E1,1.5711014E1,7.469248E0,2.745007E2,1.3961592E1,7.988816E0,1.4965569E1,1.4952851E1,3.492101E0,4.4915047E0,3.317433E1,2.0112323E2,7.4844837E0,3.2426898E0,5.485488E0,7.1089806E1,7.509588E1,3.613324E1,3.2425816E0,1.0718624E1,4.99239E0,3.4888082E0,3.9804397E0,2.5676944E2,1.773125E1,1.0717909E1,3.2436833E0,3.2430773E0,4.7457385E0,7.9776406E0,6.987928E0,1.0964121E1,3.9887302E0,5.735063E0,2.743927E1,5.8920734E1,1.422025E2,3.4887376E0,3.9957461E0,3.9401775E1,3.1688028E1,6.7425933E0,6.835329E1,3.2646526E1,3.4867141E0,4.9865813E0,5.7320423E0,1.0937927E1,2.4583151E2,4.4953494E0,1.3235901E1,7.481696E0,3.2362127E0,3.4901068E0,4.4875336E0,3.2466636E0,3.7412646E0,7.720238E0,3.2438834E0],"tree_param":{"num_deleted":"0","num_feature":"66","num_nodes":"79","size_leaf_vector":"1"}},{"base_weights":[-2.8816454E-2,5.6586504E-2,-1.6309658E-1,1.4618684E-2,7.278507E-1,4.663136E-1,-2.10461E-1,-1.3530245E-1,1.0596496E-1,-4.533066E-2,1.0566233E0,7.299608E-1,-3.5635386E-2,7.3812914E-1,-2.397652E-1,-2.3922838E-1,3.8371477E-1,4.2244887E-1,3.985587E-3,-3.4939922E-2,4.0711395E-2,1.3339218E0,1.3981476E-2,-3.605159E-3,1.0341508E0,-0E0,6.2963895E-2,-4.7703737E-1,-1.2647887E-1,-1.6836995E-1,-8.7270725E-1,6.1217153E-1,-1.9735863E-2,-2.5046853E-2,5.09653E-1,-5.982601E-1,7.392245E-2,2.363596E-2,7.6372676E-2,1.1860977E-2,1.2476009E0,-7.2191936E-1,-6.0871545E-2,5.7055645E-2,-3.5908902E-1,-2.0757653E-3,-3.4916904E-2,-2.2678128E-2,-6.8707146E-2,1.4158349E-2,5.8650352E-2,8.218661E-3,4.7600288E-2,-5.2634723E-2,-1.0506435E-3,-1.9728696E-2,7.3519037E-3,2.5969384E-2,7.444325E-2,-2.4506947E-2,-5.4831196E-2,-4.2306777E-2,1.1333651E-2,1.821757E-2,-9.075376E-3,-2.490363E-2,7.4139745E-3],"categories":[],"categories_nodes":[],"categories_segments":[],"categories_sizes":[],"default_left":[0,0,0,0,0,0,0,0,0,0,0,0,0,0,0,0,0,0,0,0,0,0,0,0,0,0,0,0,0,0,0,0,0,0,0,0,0,0,0,0,0,0,0,0,0,0,0,0,0,0,0,0,0,0,0,0,0,0,0,0,0,0,0,0,0,0,0],"id":5,"left_children":[1,3,5,7,9,11,13,15,17,19,21,23,-1,25,27,29,31,33,35,-1,-1,37,-1,-1,39,-1,-1,41,43,45,47,49,-1,-1,51,53,55,-1,-1,-1,57,59,61,63,65,-1,-1,-1,-1,-1,-1,-1,-1,-1,-1,-1,-1,-1,-1,-1,-1,-1,-1,-1,-1,-1,-1],"loss_changes":[9.277517E0,1.3824029E1,9.449544E0,6.390853E0,7.493101E0,7.415453E0,8.281988E0,9.591896E0,9.329533E0,5.8866844E0,3.8616543E0,4.73005E0,0E0,3.3843455E0,7.55159E0,6.380705E0,5.5365143E0,5.9355726E0,9.296227E0,0E0,0E0,1.5240707E0,0E0,0E0,1.8867245E0,0E0,0E0,9.212212E0,8.368664E0,8.92317E0,2.2377691E0,3.8426914E0,0E0,0E0,9.665766E0,5.8895655E0,6.8485885E0,0E0,0E0,0E0,8.663101E-1,4.2906837E0,8.195913E0,8.113963E0,6.194872E0,0E0,0E0,0E0,0E0,0E0,0E0,0E0,0E0,0E0,0E0,0E0,0E0,0E0,0E0,0E0,0E0,0E0,0E0,0E0,0E0,0E0,0E0],"parents":[2147483647,0,0,1,1,2,2,3,3,4,4,5,5,6,6,7,7,8,8,9,9,10,10,11,11,13,13,14,14,15,15,16,16,17,17,18,18,21,21,24,24,27,27,28,28,29,29,30,30,31,31,34,34,35,35,36,36,40,40,41,41,42,42,43,43,44,44],"right_children":[2,4,6,8,10,12,14,16,18,20,22,24,-1,26,28,30,32,34,36,-1,-1,38,-1,-1,40,-1,-1,42,44,46,48,50,-1,-1,52,54,56,-1,-1,-1,58,60,62,64,66,-1,-1,-1,-1,-1,-1,-1,-1,-1,-1,-1,-1,-1,-1,-1,-1,-1,-1,-1,-1,-1,-1],"split_conditions":[3.3338667E3,3.33E3,3.6736944E5,-3.1758404E-1,1.2070266E-2,3.5998535E0,-1.9229053E2,1.9995117E-1,1.6222895E1,2E0,8.2334965E-1,-1.3000488E0,-3.5635386E-2,3.0998535E0,-4.2312053E-1,4.692591E5,1.0433435E-1,4.010941E1,-4.6946516E0,-3.4939922E-2,4.0711395E-2,-7.3999023E0,1.3981476E-2,-3.605159E-3,3.34366E3,-0E0,6.2963895E-2,2.3999023E0,2.3000488E0,4.869627E1,3.1000977E0,3.7283478E1,-1.9735863E-2,-2.5046853E-2,1.944977E1,2.3999023E0,3.9990234E-1,2.363596E-2,7.6372676E-2,1.1860977E-2,3.341868E3,1.3999023E0,-1.8733852E0,5.656231E1,1.4907509E1,-2.0757653E-3,-3.4916904E-2,-2.2678128E-2,-6.8707146E-2,1.4158349E-2,5.8650352E-2,8.218661E-3,4.7600288E-2,-5.2634723E-2,-1.0506435E-3,-1.9728696E-2,7.3519037E-3,2.5969384E-2,7.444325E-2,-2.4506947E-2,-5.4831196E-2,-4.2306777E-2,1.1333651E-2,1.821757E-2,-9.075376E-3,-2.490363E-2,7.4139745E-3],"split_indices":[39,40,37,61,31,52,22,55,14,59,57,49,0,52,10,37,50,18,10,0,0,49,0,0,6,0,0,52,52,18,52,17,0,0,15,51,52,0,0,0,7,52,64,38,10,0,0,0,0,0,0,0,0,0,0,0,0,0,0,0,0,0,0,0,0,0,0],"split_type":[0,0,0,0,0,0,0,0,0,0,0,0,0,0,0,0,0,0,0,0,0,0,0,0,0,0,0,0,0,0,0,0,0,0,0,0,0,0,0,0,0,0,0,0,0,0,0,0,0,0,0,0,0,0,0,0,0,0,0,0,0,0,0,0,0,0,0],"sum_hessian":[8.062639E2,4.9272302E2,3.1354092E2,4.648322E2,2.7890825E1,2.1176535E1,2.9236438E2,1.753935E2,2.8943872E2,8.487815E0,1.940301E1,1.7687117E1,3.4894183E0,7.934065E0,2.844303E2,1.4674217E2,2.865132E1,6.9531334E1,2.1990738E2,4.9943175E0,3.4934974E0,1.3676559E1,5.7264504E0,4.98288E0,1.2704236E1,3.7303612E0,4.2037034E0,9.059349E1,1.9383682E2,1.3325989E2,1.348228E1,2.2414951E1,6.2363667E0,5.4915295E0,6.40398E1,2.1945389E1,1.9796199E2,3.2359807E0,1.0440578E1,3.2288694E0,9.475366E0,5.6419758E1,3.4173733E1,1.0852949E2,8.5307335E1,1.08545235E2,2.4714663E1,8.489747E0,4.9925323E0,1.5188238E1,7.2267137E0,3.6863525E1,2.7176277E1,1.1721125E1,1.0224265E1,2.5945984E1,1.72016E2,3.2457874E0,6.229579E0,3.644869E1,1.9971071E1,8.732107E0,2.5441624E1,4.738468E1,6.1144806E1,6.713299E1,1.8174341E1],"tree_param":{"num_deleted":"0","num_feature":"66","num_nodes":"67","size_leaf_vector":"1"}},{"base_weights":[4.7255103E-3,5.253487E-1,-1.8077215E-2,7.4425125E-1,-3.3215052E-1,3.2758266E-2,-2.3524813E-1,-1.4615046E-2,9.1201574E-1,1.2055044E-2,-4.2455506E-2,-7.785903E-2,1.4714742E-1,-7.1837096E-3,-4.5878032E-1,7.3677563E-4,1.0473869E0,1.9867481E-1,-2.1289353E-1,1.1441875E0,9.996286E-2,-2.9280266E-1,2.5936022E-1,-8.388913E-1,-2.789146E-1,1.2342236E0,1.6473707E-2,3.0231568E-1,-4.206719E-1,-3.833552E-1,-8.1582814E-2,1.5721234E-2,7.6798484E-2,5.8133755E-2,6.4636636E-1,-2.922516E-2,-9.2693573E-1,7.665966E-1,-6.6142134E-2,-1.1464775E0,-1.3722079E-1,4.942756E-1,-4.5587477E-1,3.5733607E-2,7.992702E-2,5.832424E-3,3.7370414E-2,-6.534516E-2,3.1547074E-3,1.160407E-2,-2.5571972E-2,-3.682311E-2,6.969152E-4,4.319328E-3,-4.0065322E-2,-2.8982554E-2,5.142503E-2,-1.4508883E-2,3.035058E-2,-4.4536884E-3,-6.819071E-2,1.2182601E-2,7.3183395E-2,1.2706404E-2,-2.8930148E-2,4.1710204E-3,-7.728163E-2,2.048059E-2,-3.8587343E-2,-6.978174E-3,5.2842665E-2,-7.5404935E-2,-1.6038598E-2],"categories":[],"categories_nodes":[],"categories_segments":[],"categories_sizes":[],"default_left":[0,0,0,0,0,0,0,0,0,0,0,0,0,0,0,0,0,0,0,0,0,0,0,0,0,0,0,0,0,0,0,0,0,0,0,0,0,0,0,0,0,0,0,0,0,0,0,0,0,0,0,0,0,0,0,0,0,0,0,0,0,0,0,0,0,0,0,0,0,0,0,0,0],"id":6,"left_children":[1,3,5,7,9,11,13,-1,15,-1,-1,17,19,21,23,-1,25,27,29,31,33,35,37,39,41,43,-1,45,47,49,51,-1,-1,53,55,57,59,61,63,65,67,69,71,-1,-1,-1,-1,-1,-1,-1,-1,-1,-1,-1,-1,-1,-1,-1,-1,-1,-1,-1,-1,-1,-1,-1,-1,-1,-1,-1,-1,-1,-1],"loss_changes":[9.566146E0,6.6360846E0,8.505665E0,5.0830536E0,2.480911E0,7.8983893E0,7.4009237E0,0E0,2.776291E0,0E0,0E0,1.187383E1,1.4201603E1,5.680946E0,4.6842995E0,0E0,2.202711E0,6.8050604E0,4.703103E0,3.7786655E0,6.6176996E0,5.922859E0,6.462534E0,4.6685333E0,7.2839775E0,1.6332893E0,0E0,7.2638063E0,6.7319093E0,7.425419E0,7.729952E0,0E0,0E0,6.6657963E0,1.03187895E1,4.5764017E0,3.5678844E0,5.018365E0,4.150819E0,7.9943924E0,3.2082844E0,3.8007827E0,5.393482E0,0E0,0E0,0E0,0E0,0E0,0E0,0E0,0E0,0E0,0E0,0E0,0E0,0E0,0E0,0E0,0E0,0E0,0E0,0E0,0E0,0E0,0E0,0E0,0E0,0E0,0E0,0E0,0E0,0E0,0E0],"parents":[2147483647,0,0,1,1,2,2,3,3,4,4,5,5,6,6,8,8,11,11,12,12,13,13,14,14,16,16,17,17,18,18,19,19,20,20,21,21,22,22,23,23,24,24,25,25,27,27,28,28,29,29,30,30,33,33,34,34,35,35,36,36,37,37,38,38,39,39,40,40,41,41,42,42],"right_children":[2,4,6,8,10,12,14,-1,16,-1,-1,18,20,22,24,-1,26,28,30,32,34,36,38,40,42,44,-1,46,48,50,52,-1,-1,54,56,58,60,62,64,66,68,70,72,-1,-1,-1,-1,-1,-1,-1,-1,-1,-1,-1,-1,-1,-1,-1,-1,-1,-1,-1,-1,-1,-1,-1,-1,-1,-1,-1,-1,-1,-1],"split_conditions":[-1.8018195E2,2.4063481E-1,3.383812E3,3.2642063E1,-7.48559E-4,4.5091885E-1,5.5418587E1,-1.4615046E-2,4.2975448E-2,1.2055044E-2,-4.2455506E-2,3.506557E1,1.9995117E-1,3.4034934E3,3.005371E-2,7.3677563E-4,4.5402676E1,-3.5573646E-1,2.0009462E1,2.0716263E1,6.6000977E0,3.3955146E3,2.7727276E-1,6.79795E1,2.6000977E0,3.3214216E3,1.6473707E-2,3.0332622E-3,-1.4164588E-1,-1.0639363E-1,-1.2566029E2,1.5721234E-2,7.6798484E-2,9.64099E1,1.7001953E0,5.086436E1,3.3723E3,2.9348128E-3,4.5947015E-1,5.2543986E-1,2.5531915E-1,6.5409124E-1,5.8749896E-1,3.5733607E-2,7.992702E-2,5.832424E-3,3.7370414E-2,-6.534516E-2,3.1547074E-3,1.160407E-2,-2.5571972E-2,-3.682311E-2,6.969152E-4,4.319328E-3,-4.0065322E-2,-2.8982554E-2,5.142503E-2,-1.4508883E-2,3.035058E-2,-4.4536884E-3,-6.819071E-2,1.2182601E-2,7.3183395E-2,1.2706404E-2,-2.8930148E-2,4.1710204E-3,-7.728163E-2,2.048059E-2,-3.8587343E-2,-6.978174E-3,5.2842665E-2,-7.5404935E-2,-1.6038598E-2],"split_indices":[22,63,7,15,47,61,20,0,63,0,0,38,51,4,58,0,16,11,15,14,51,4,27,38,23,4,0,56,11,50,22,0,0,21,52,38,45,56,57,32,57,57,63,0,0,0,0,0,0,0,0,0,0,0,0,0,0,0,0,0,0,0,0,0,0,0,0,0,0,0,0,0,0],"split_type":[0,0,0,0,0,0,0,0,0,0,0,0,0,0,0,0,0,0,0,0,0,0,0,0,0,0,0,0,0,0,0,0,0,0,0,0,0,0,0,0,0,0,0,0,0,0,0,0,0,0,0,0,0,0,0,0,0,0,0,0,0,0,0,0,0,0,0,0,0,0,0,0,0],"sum_hessian":[7.99726E2,3.281659E1,7.669094E2,2.6340954E1,6.4756374E0,6.217569E2,1.451525E2,3.482921E0,2.2858032E1,3.2319446E0,3.2436926E0,3.1580774E2,3.0594916E2,7.258019E1,7.2572296E1,3.2386765E0,1.9619356E1,1.032181E2,2.1258965E2,1.2678379E1,2.9327078E2,3.516997E1,3.7410225E1,2.1954916E1,5.061738E1,1.4886633E1,4.732723E0,8.899852E1,1.4219584E1,9.13379E1,1.2125175E2,4.726285E0,7.952094E0,2.7361407E2,1.9656708E1,2.5694027E1,9.475944E0,1.4213367E1,2.3196857E1,1.4724016E1,7.2309003E0,8.987993E0,4.1629383E1,7.4699354E0,7.416698E0,6.385049E1,2.514803E1,4.4933043E0,9.726279E0,1.5460156E1,7.587774E1,1.4713692E1,1.06538055E2,2.6588922E2,7.724866E0,4.4858847E0,1.5170822E1,1.871795E1,6.976077E0,3.7386334E0,5.73731E0,8.974025E0,5.2393427E0,1.4465431E1,8.731425E0,3.7401493E0,1.0983867E1,3.9895666E0,3.2413337E0,4.496308E0,4.491685E0,3.4963007E0,3.8133083E1],"tree_param":{"num_deleted":"0","num_feature":"66","num_nodes":"73","size_leaf_vector":"1"}},{"base_weights":[-2.3459308E-3,7.933779E-2,-1.2670928E-1,2.2703707E-2,5.7411206E-1,-8.950355E-2,-6.58737E-1,4.3131895E-2,-5.947091E-2,3.7392762E-1,1.190058E0,1.02746174E-1,-2.113877E-1,1.4398393E-2,-8.9080125E-1,5.9560332E-2,-6.873822E-1,-2.3527512E-2,4.8533413E-1,7.274559E-2,2.830255E-2,2.1901612E-1,-7.022828E-1,-3.515196E-1,2.5732502E-1,-1.2830156E0,-2.2472541E-3,4.3726306E-2,5.1088043E-2,9.877718E-4,-6.41315E-2,1.1637366E0,2.6604682E-1,1.1159874E0,1.3900177E-1,2.0819746E-2,-1.0881263E0,1.7045489E-1,-4.4550416E-1,4.4241408E-1,-5.4133105E-1,-7.792375E-2,-3.186238E-2,1.3736937E-3,3.8666528E-2,2.3794984E-2,7.4732594E-2,-2.402742E-2,2.2115827E-2,7.414865E-2,2.559836E-2,2.2365551E-2,-1.0386751E-2,4.9211304E-3,-7.89672E-2,-6.478162E-3,4.931466E-2,-2.8611964E-2,4.5939008E-4,1.1730543E-2,4.719298E-2,1.1810621E-2,-5.4219496E-2],"categories":[],"categories_nodes":[],"categories_segments":[],"categories_sizes":[],"default_left":[0,0,0,0,0,0,0,0,0,0,0,0,0,0,0,0,0,0,0,0,0,0,0,0,0,0,0,0,0,0,0,0,0,0,0,0,0,0,0,0,0,0,0,0,0,0,0,0,0,0,0,0,0,0,0,0,0,0,0,0,0,0,0],"id":7,"left_children":[1,3,5,7,9,11,13,15,-1,17,19,21,23,-1,25,27,29,-1,31,-1,-1,33,35,37,39,41,-1,43,-1,-1,-1,45,47,49,51,-1,53,55,57,59,61,-1,-1,-1,-1,-1,-1,-1,-1,-1,-1,-1,-1,-1,-1,-1,-1,-1,-1,-1,-1,-1,-1],"loss_changes":[8.237042E0,1.3619982E1,6.2349424E0,1.0824048E1,5.5596123E0,7.110181E0,4.863759E0,5.180072E0,0E0,3.9263778E0,9.039364E-1,1.110811E1,1.2283637E1,0E0,5.433197E0,6.323406E0,4.1416507E0,0E0,4.8001175E0,0E0,0E0,7.153697E0,6.9792743E0,7.137808E0,6.60182E0,8.265476E-1,0E0,4.8699174E0,0E0,0E0,0E0,9.62059E-1,3.9056046E0,8.6755466E-1,1.0416437E1,0E0,6.988677E0,5.705949E0,7.0890026E0,3.3753734E0,3.9126177E0,0E0,0E0,0E0,0E0,0E0,0E0,0E0,0E0,0E0,0E0,0E0,0E0,0E0,0E0,0E0,0E0,0E0,0E0,0E0,0E0,0E0,0E0],"parents":[2147483647,0,0,1,1,2,2,3,3,4,4,5,5,6,6,7,7,9,9,10,10,11,11,12,12,14,14,15,15,16,16,18,18,21,21,22,22,23,23,24,24,25,25,27,27,31,31,32,32,33,33,34,34,36,36,37,37,38,38,39,39,40,40],"right_children":[2,4,6,8,10,12,14,16,-1,18,20,22,24,-1,26,28,30,-1,32,-1,-1,34,36,38,40,42,-1,44,-1,-1,-1,46,48,50,52,-1,54,56,58,60,62,-1,-1,-1,-1,-1,-1,-1,-1,-1,-1,-1,-1,-1,-1,-1,-1,-1,-1,-1,-1,-1,-1],"split_conditions":[3.3338667E3,3.3277002E3,5.028234E-1,3.33062E3,3.3641953E3,-2.7592113E-2,3.3513667E3,5.126375E-3,-5.947091E-2,-2.3734912E-3,3.532604E1,4.9690525E1,4.9381054E1,1.4398393E-2,1.3797814E1,4.2280806E-3,3.3999023E0,-2.3527512E-2,3.3194E3,7.274559E-2,2.830255E-2,3.3223E3,1.1688044E1,9E0,6.8068115E1,2.4862362E1,-2.2472541E-3,1.795517E-2,5.1088043E-2,9.877718E-4,-6.41315E-2,2E0,-1.5956515E0,3.34239E3,4.531312E1,2.0819746E-2,1E0,3.4274666E3,3.411363E3,5.554971E-3,3.3711274E3,-7.792375E-2,-3.186238E-2,1.3736937E-3,3.8666528E-2,2.3794984E-2,7.4732594E-2,-2.402742E-2,2.2115827E-2,7.414865E-2,2.559836E-2,2.2365551E-2,-1.0386751E-2,4.9211304E-3,-7.89672E-2,-6.478162E-3,4.931466E-2,-2.8611964E-2,4.5939008E-4,1.1730543E-2,4.719298E-2,1.1810621E-2,-5.4219496E-2],"split_indices":[39,42,27,6,34,64,40,48,0,48,20,16,16,0,10,48,52,0,0,0,0,45,17,65,16,15,0,56,0,0,0,59,11,7,19,0,52,42,4,56,29,0,0,0,0,0,0,0,0,0,0,0,0,0,0,0,0,0,0,0,0,0,0],"split_type":[0,0,0,0,0,0,0,0,0,0,0,0,0,0,0,0,0,0,0,0,0,0,0,0,0,0,0,0,0,0,0,0,0,0,0,0,0,0,0,0,0,0,0,0,0,0,0,0,0,0,0,0,0,0,0,0,0,0,0,0,0,0,0],"sum_hessian":[8.0839935E2,4.8765692E2,3.2074243E2,4.3869043E2,4.8966476E1,3.010459E2,1.9696537E1,4.324492E2,6.2412567E0,3.8291153E1,1.0675321E1,1.16548584E2,1.844973E2,3.7453973E0,1.595114E1,4.2396994E2,8.479247E0,3.9824278E0,3.4308727E1,6.4470944E0,4.228226E0,1.0258451E2,1.3964073E1,1.4239006E2,4.2107243E1,1.0464033E1,5.4871078E0,4.182368E2,5.7331567E0,4.240484E0,4.238763E0,7.2174377E0,2.709129E1,7.238858E0,9.534565E1,3.494398E0,1.0469675E1,2.143973E1,1.2095033E2,3.4648655E1,7.4585857E0,6.2358446E0,4.2281885E0,4.102724E2,7.964383E0,3.2345216E0,3.9829159E0,4.736441E0,2.2354849E1,3.4947934E0,3.7440646E0,5.0468624E1,4.487703E1,3.2398336E0,7.2298417E0,1.6200674E1,5.2390547E0,9.4556305E1,2.6394028E1,2.5675716E1,8.9729395E0,3.2237542E0,4.2348313E0],"tree_param":{"num_deleted":"0","num_feature":"66","num_nodes":"63","size_leaf_vector":"1"}},{"base_weights":[-2.1038692E-2,-2.9244173E-2,6.459462E-2,-5.1957853E-2,3.9586666E-1,-1.3798833E-3,-2.8347924E-1,-2.7984735E-1,7.805234E-1,-3.943862E-2,3.8010484E-1,5.2485424E-1,-3.4976307E-1,3.94042E-1,-8.1916577E-1,9.436764E-1,2.5023443E-3,1.3188258E-2,-2.7760136E-1,8.859131E-1,2.0161374E-1,-3.1739974E-3,4.6764396E-2,-4.1511607E-1,2.1610948E-1,-1.0933946E-2,4.678757E-2,-1.1609531E-2,-6.6557184E-2,9.305287E-3,1.141897E0,-1.3426759E-3,2.6368339E-2,-4.4167038E-2,-7.434799E-3,2.9211415E-3,5.5562664E-2,4.9729474E-2,4.10927E-5,-1.6734274E-2,-5.1276166E-2,-1.9859035E-2,3.4332633E-2,1.1302667E-2,6.692659E-2],"categories":[],"categories_nodes":[],"categories_segments":[],"categories_sizes":[],"default_left":[0,0,0,0,0,0,0,0,0,0,0,0,0,0,0,0,0,0,0,0,0,0,0,0,0,0,0,0,0,0,0,0,0,0,0,0,0,0,0,0,0,0,0,0,0],"id":8,"left_children":[1,3,-1,5,7,9,11,13,15,17,19,21,23,25,27,29,-1,31,33,35,37,-1,-1,39,41,-1,-1,-1,-1,-1,43,-1,-1,-1,-1,-1,-1,-1,-1,-1,-1,-1,-1,-1,-1],"loss_changes":[8.633116E0,7.764795E0,0E0,8.938965E0,1.0860714E1,9.126144E0,7.5036726E0,5.971339E0,2.991066E0,7.2231207E0,4.8583317E0,2.7216942E0,4.816758E0,2.749034E0,2.2317834E0,2.8611393E0,0E0,9.754037E0,7.905738E0,2.50805E0,6.836956E0,0E0,0E0,5.1474094E0,4.2486806E0,0E0,0E0,0E0,0E0,0E0,2.5349083E0,0E0,0E0,0E0,0E0,0E0,0E0,0E0,0E0,0E0,0E0,0E0,0E0,0E0,0E0],"parents":[2147483647,0,0,1,1,3,3,4,4,5,5,6,6,7,7,8,8,9,9,10,10,11,11,12,12,13,13,14,14,15,15,17,17,18,18,19,19,20,20,23,23,24,24,30,30],"right_children":[2,4,-1,6,8,10,12,14,16,18,20,22,24,26,28,30,-1,32,34,36,38,-1,-1,40,42,-1,-1,-1,-1,-1,44,-1,-1,-1,-1,-1,-1,-1,-1,-1,-1,-1,-1,-1,-1],"split_conditions":[9.9363214E-1,1.8232025E1,6.459462E-2,3.3792E3,6.3305087E0,3.3673E3,1.5773352E1,8.2813627E-1,2.569373E-3,3.3348333E3,-6.4876373E-4,-2.6691723E0,1.6877872E2,8.115649E1,3.246532E3,3.5195282E-1,2.5023443E-3,3.33E3,3.3084966E3,4.2161584E5,4.1121088E5,-3.1739974E-3,4.6764396E-2,4.800049E0,3.4258667E3,-1.0933946E-2,4.678757E-2,-1.1609531E-2,-6.6557184E-2,9.305287E-3,3.1317395E3,-1.3426759E-3,2.6368339E-2,-4.4167038E-2,-7.434799E-3,2.9211415E-3,5.5562664E-2,4.9729474E-2,4.10927E-5,-1.6734274E-2,-5.1276166E-2,-1.9859035E-2,3.4332633E-2,1.1302667E-2,6.692659E-2],"split_indices":[60,9,0,43,15,0,21,32,47,39,47,64,22,38,8,27,0,40,30,37,37,0,0,51,39,0,0,0,0,0,1,0,0,0,0,0,0,0,0,0,0,0,0,0,0],"split_type":[0,0,0,0,0,0,0,0,0,0,0,0,0,0,0,0,0,0,0,0,0,0,0,0,0,0,0,0,0,0,0,0,0,0,0,0,0,0,0,0,0,0,0,0,0],"sum_hessian":[8.085621E2,8.045875E2,3.9745727E0,7.648353E2,3.975216E1,6.288871E2,1.3594826E2,1.4424903E1,2.5327255E1,5.728915E2,5.5995632E1,9.66434E0,1.2628393E2,6.4497547E0,7.9751487E0,2.0352692E1,4.974564E0,4.6963977E2,1.0325167E2,1.342585E1,4.2569782E1,4.2187223E0,5.445617E0,1.1360656E2,1.2677369E1,3.2197032E0,3.2300513E0,4.483602E0,3.4915464E0,4.727652E0,1.5625039E1,4.364077E2,3.3232067E1,1.6954124E1,8.629755E1,3.2380772E0,1.0187773E1,7.70187E0,3.4867912E1,1.0189274E2,1.171382E1,5.4792666E0,7.198102E0,3.2316265E0,1.2393413E1],"tree_param":{"num_deleted":"0","num_feature":"66","num_nodes":"45","size_leaf_vector":"1"}},{"base_weights":[5.58679E-3,-5.588537E-2,1.6207205E-1,-9.286721E-3,-2.9031852E-1,6.5967545E-2,5.549444E-1,-2.7692588E-2,7.2830826E-1,2.1414265E-1,-4.6824196E-1,2.6751003E-1,-2.0148057E-1,9.071046E-1,-1.3974845E-1,-1.3923906E-2,-4.803453E-2,-8.864098E-3,1.1089063E0,-2.6642182E-1,7.658284E-1,-9.638914E-1,-2.598946E-1,1.5795201E-1,1.0655717E0,-9.6164364E-1,-5.7029314E-2,1.1314368E0,-5.064692E-4,-7.245609E-1,3.9581135E-2,-2.1166823E-4,-4.8415188E-2,7.163101E-2,2.120809E-2,1.2273142E-1,-5.4443486E-2,-4.8056655E-4,1.1534654E0,-5.042604E-1,-1.305649E0,-1.5223274E-1,-5.354923E-2,3.079545E-1,-4.0867433E-1,7.14023E-2,1.8450513E-4,3.0207199E-3,-7.0914984E-2,1.0474957E-1,-6.9552755E-1,1.1825759E-2,1.2554424E0,-6.814827E-2,-8.707006E-3,3.3012547E-2,-9.0244843E-4,-2.5833193E-2,4.09159E-2,7.073208E-2,3.004394E-2,1.588697E-2,-5.1150586E-2,-7.692768E-2,-3.0199064E-2,-1.9754225E-2,3.719398E-2,2.5291378E-2,-7.943551E-3,1.3324002E-2,-4.444998E-2,2.0400096E-2,-1.9544084E-2,-4.8474688E-2,1.0644156E-3,1.230579E-2,7.11297E-2],"categories":[],"categories_nodes":[],"categories_segments":[],"categories_sizes":[],"default_left":[0,0,0,0,0,0,0,0,0,0,0,0,0,0,0,0,0,0,0,0,0,0,0,0,0,0,0,0,0,0,0,0,0,0,0,0,0,0,0,0,0,0,0,0,0,0,0,0,0,0,0,0,0,0,0,0,0,0,0,0,0,0,0,0,0,0,0,0,0,0,0,0,0,0,0,0,0],"id":9,"left_children":[1,3,5,7,9,11,13,15,17,19,21,23,25,27,29,31,-1,-1,33,35,37,39,41,43,45,47,49,51,-1,53,-1,55,-1,-1,-1,57,-1,-1,59,61,63,65,-1,67,69,-1,-1,-1,-1,71,73,-1,75,-1,-1,-1,-1,-1,-1,-1,-1,-1,-1,-1,-1,-1,-1,-1,-1,-1,-1,-1,-1,-1,-1,-1,-1],"loss_changes":[7.7278705E0,6.2553034E0,8.461325E0,6.487576E0,8.657135E0,9.951287E0,1.1021516E1,5.9386106E0,4.2975883E0,6.9677105E0,6.9310837E0,8.914692E0,8.541261E0,6.2087173E0,9.089109E0,5.9906993E0,0E0,0E0,1.0692463E0,4.768381E0,3.7759051E0,2.368393E0,4.1950254E0,8.093355E0,4.63379E0,6.043994E0,7.1288257E0,2.2015343E0,0E0,3.192934E0,0E0,5.363381E0,0E0,0E0,0E0,5.0966783E0,0E0,0E0,1.3056469E-1,4.8569994E0,6.4730835E-1,1.0393705E1,0E0,7.035813E0,6.7644143E0,0E0,0E0,0E0,0E0,8.395838E0,2.8548198E0,0E0,2.9625435E0,0E0,0E0,0E0,0E0,0E0,0E0,0E0,0E0,0E0,0E0,0E0,0E0,0E0,0E0,0E0,0E0,0E0,0E0,0E0,0E0,0E0,0E0,0E0,0E0],"parents":[2147483647,0,0,1,1,2,2,3,3,4,4,5,5,6,6,7,7,8,8,9,9,10,10,11,11,12,12,13,13,14,14,15,15,18,18,19,19,20,20,21,21,22,22,23,23,24,24,25,25,26,26,27,27,29,29,31,31,35,35,38,38,39,39,40,40,41,41,43,43,44,44,49,49,50,50,52,52],"right_children":[2,4,6,8,10,12,14,16,18,20,22,24,26,28,30,32,-1,-1,34,36,38,40,42,44,46,48,50,52,-1,54,-1,56,-1,-1,-1,58,-1,-1,60,62,64,66,-1,68,70,-1,-1,-1,-1,72,74,-1,76,-1,-1,-1,-1,-1,-1,-1,-1,-1,-1,-1,-1,-1,-1,-1,-1,-1,-1,-1,-1,-1,-1,-1,-1],"split_conditions":[3.1005347E-3,3.4215E3,5.0561806E1,1.9586601E1,-1.2539358E0,2.0304592E1,6.1098053E1,6.285332E-1,1.4699951E1,-2.7109094E0,3.4310667E3,7.5316375E-1,4.363163E-2,4.199951E0,2.9286334E-2,3.058565E-3,-4.803453E-2,-8.864098E-3,8.5198176E-1,2.3322803E-1,3.3738765E3,8.899902E0,5.706669E0,4.9345303E-2,2.8100097E0,7.998047E-1,1.6294755E0,6.4372716E0,-5.064692E-4,1.3999023E0,3.9581135E-2,5.1213462E-2,-4.8415188E-2,7.163101E-2,2.120809E-2,3.2359154E1,-5.4443486E-2,-4.8056655E-4,0E0,4.9035865E-1,1.2770537E1,9.058896E-1,-5.354923E-2,1E1,1.9001465E0,7.14023E-2,1.8450513E-4,3.0207199E-3,-7.0914984E-2,7.2985534E-3,3.5614872E1,1.1825759E-2,-3.3860528E0,-6.814827E-2,-8.707006E-3,3.3012547E-2,-9.0244843E-4,-2.5833193E-2,4.09159E-2,7.073208E-2,3.004394E-2,1.588697E-2,-5.1150586E-2,-7.692768E-2,-3.0199064E-2,-1.9754225E-2,3.719398E-2,2.5291378E-2,-7.943551E-3,1.3324002E-2,-4.444998E-2,2.0400096E-2,-1.9544084E-2,-4.8474688E-2,1.0644156E-3,1.230579E-2,7.11297E-2],"split_indices":[56,44,16,10,61,14,16,50,53,61,42,63,61,52,31,56,0,0,63,63,8,53,61,24,58,52,64,26,0,52,0,63,0,0,0,19,0,0,55,32,26,32,0,65,52,0,0,0,0,56,14,0,61,0,0,0,0,0,0,0,0,0,0,0,0,0,0,0,0,0,0,0,0,0,0,0,0],"split_type":[0,0,0,0,0,0,0,0,0,0,0,0,0,0,0,0,0,0,0,0,0,0,0,0,0,0,0,0,0,0,0,0,0,0,0,0,0,0,0,0,0,0,0,0,0,0,0,0,0,0,0,0,0,0,0,0,0,0,0,0,0,0,0,0,0,0,0,0,0,0,0,0,0,0,0,0,0],"sum_hessian":[8.003103E2,5.745956E2,2.2571475E2,4.8054337E2,9.405219E1,1.824952E2,4.3219555E1,4.699152E2,1.0628182E1,2.4323336E1,6.972886E1,1.042834E2,7.821179E1,2.8573164E1,1.464639E1,4.6418707E2,5.728118E0,3.2253294E0,7.402853E0,1.3179073E1,1.1144263E1,1.9420938E1,5.030792E1,9.285893E1,1.1424465E1,1.1475165E1,6.6736626E1,2.2858135E1,5.71503E0,9.199437E0,5.446954E0,4.5870157E2,5.4854817E0,4.1857815E0,3.2170715E0,9.441075E0,3.7379982E0,3.9532685E0,7.1909943E0,9.462666E0,9.958272E0,4.5570053E1,4.737866E0,7.392249E1,1.8936441E1,8.189853E0,3.2346125E0,3.7440946E0,7.731071E0,5.378758E1,1.2949049E1,3.2338476E0,1.9624287E1,3.4916968E0,5.7077403E0,1.0967987E1,4.4773358E2,4.9783506E0,4.4627247E0,3.7008233E0,3.490171E0,3.7365487E0,5.726117E0,6.474098E0,3.4841738E0,3.638123E1,9.188824E0,5.2008392E1,2.19141E1,7.9702797E0,1.0966162E1,3.360494E1,2.018264E1,9.214344E0,3.734706E0,3.2244546E0,1.6399832E1],"tree_param":{"num_deleted":"0","num_feature":"66","num_nodes":"77","size_leaf_vector":"1"}},{"base_weights":[1.7439786E-2,7.5099066E-2,-1.7600213E-1,-4.7035318E-2,1.5693998E-1,-1.4453849E-1,-4.9736932E-2,3.4369102E-1,-1.13508224E-1,9.3414605E-1,1.2688167E-1,-1.8220003E-1,4.318456E-2,-2.1767749E-1,7.8449106E-1,2.8630006E-3,-4.2355916E-1,5.913972E-4,6.3871644E-2,1.5227203E-1,-5.7688546E-1,-2.2548902E-1,5.345044E-1,-5.440213E-1,3.4189817E-2,-2.7349157E-2,1.1222268E0,-1.1206779E-1,3.6703318E-1,-1.5351193E-1,-8.9964753E-1,7.357477E-2,3.8101104E-1,-7.180945E-2,7.4424416E-2,4.146199E-2,-2.5606084E-1,-2.053332E-2,5.619921E-2,3.9380095E-3,-5.6185365E-2,6.7396894E-2,2.9984502E-2,3.172985E-2,-1.0250835E-2,3.399264E-2,-1.0195269E-2,-3.0128231E-2,1.9397052E-3,-5.6040622E-2,3.2102712E-3,-1.0468173E-2,8.046375E-3,2.783491E-2,1.1284965E-3,3.3083405E-2,-2.879015E-2,-2.6751442E-2,-5.881845E-3],"categories":[],"categories_nodes":[],"categories_segments":[],"categories_sizes":[],"default_left":[0,0,0,0,0,0,0,0,0,0,0,0,0,0,0,0,0,0,0,0,0,0,0,0,0,0,0,0,0,0,0,0,0,0,0,0,0,0,0,0,0,0,0,0,0,0,0,0,0,0,0,0,0,0,0,0,0,0,0],"id":10,"left_children":[1,3,5,7,9,11,-1,13,15,17,19,21,-1,23,25,27,29,-1,-1,31,33,35,37,39,-1,-1,41,43,45,47,49,51,53,-1,55,-1,57,-1,-1,-1,-1,-1,-1,-1,-1,-1,-1,-1,-1,-1,-1,-1,-1,-1,-1,-1,-1,-1,-1],"loss_changes":[8.8810005E0,6.158497E0,4.4480243E0,6.4247036E0,8.384913E0,6.817769E0,0E0,9.112083E0,7.686799E0,4.11174E0,6.4083943E0,5.417952E0,0E0,5.2049584E0,9.858046E0,6.545252E0,7.2203074E0,0E0,0E0,6.13011E0,7.222981E0,5.4042854E0,6.075211E0,4.790492E0,0E0,0E0,9.645481E-1,8.291449E0,6.8971243E0,3.3942618E0,4.584158E0,6.4047174E0,5.4492416E0,0E0,3.4362288E0,0E0,6.014179E0,0E0,0E0,0E0,0E0,0E0,0E0,0E0,0E0,0E0,0E0,0E0,0E0,0E0,0E0,0E0,0E0,0E0,0E0,0E0,0E0,0E0,0E0],"parents":[2147483647,0,0,1,1,2,2,3,3,4,4,5,5,7,7,8,8,9,9,10,10,11,11,13,13,14,14,15,15,16,16,19,19,20,20,21,21,22,22,23,23,26,26,27,27,28,28,29,29,30,30,31,31,32,32,34,34,36,36],"right_children":[2,4,6,8,10,12,-1,14,16,18,20,22,-1,24,26,28,30,-1,-1,32,34,36,38,40,-1,-1,42,44,46,48,50,52,54,-1,56,-1,58,-1,-1,-1,-1,-1,-1,-1,-1,-1,-1,-1,-1,-1,-1,-1,-1,-1,-1,-1,-1,-1,-1],"split_conditions":[3.375942E3,2.659626E-1,5.9969563E0,5.9908666E-3,2.0689411E1,4.070308E0,-4.9736932E-2,-2.12136E-2,2.4144772E-1,-5.074531E0,5.126375E-3,8.976779E-3,4.318456E-2,2.3870352E-1,3.9990234E-1,1.2799805E1,3.007533E3,5.913972E-4,6.3871644E-2,3.4093661E-3,4.890039E0,3.8896947E5,3.0792196E1,1.890087E-1,3.4189817E-2,-2.7349157E-2,1.5575372E-1,3E0,1.4740398E2,9.001465E-1,3.361388E3,9.760529E0,8.894698E-3,-7.180945E-2,3.0800049E1,4.146199E-2,3.3746826E3,-2.053332E-2,5.619921E-2,3.9380095E-3,-5.6185365E-2,6.7396894E-2,2.9984502E-2,3.172985E-2,-1.0250835E-2,3.399264E-2,-1.0195269E-2,-3.0128231E-2,1.9397052E-3,-5.6040622E-2,3.2102712E-3,-1.0468173E-2,8.046375E-3,2.783491E-2,1.1284965E-3,3.3083405E-2,-2.879015E-2,-2.6751442E-2,-5.881845E-3],"split_indices":[7,27,61,31,38,61,0,61,27,61,48,56,0,27,52,23,5,0,0,56,58,37,16,27,0,0,24,62,22,52,7,14,56,0,53,0,30,0,0,0,0,0,0,0,0,0,0,0,0,0,0,0,0,0,0,0,0,0,0],"split_type":[0,0,0,0,0,0,0,0,0,0,0,0,0,0,0,0,0,0,0,0,0,0,0,0,0,0,0,0,0,0,0,0,0,0,0,0,0,0,0,0,0,0,0,0,0,0,0,0,0,0,0,0,0,0,0,0,0,0,0],"sum_hessian":[7.949562E2,6.132834E2,1.8167279E2,2.4574779E2,3.6753558E2,1.762002E2,5.4726086E0,3.4904587E1,2.108432E2,1.244129E1,3.550943E2,1.7074078E2,5.4594016E0,1.5475507E1,1.9429081E1,1.5378966E2,5.705354E1,3.734219E0,8.707071E0,3.4362286E2,1.1471424E1,1.6179337E2,8.947421E0,1.17348175E1,3.7406888E0,3.7458735E0,1.56832075E1,1.17214775E2,3.657489E1,3.7382114E1,1.9671425E1,2.5697122E2,8.665167E1,4.492594E0,6.97883E0,3.7295172E0,1.5806384E2,3.48818E0,5.459241E0,5.9905443E0,5.7442737E0,9.7155695E0,5.967638E0,1.221197E1,1.050028E2,2.3618567E1,1.2956323E1,1.0724961E1,2.6657154E1,1.5951997E1,3.719427E0,6.0020706E1,1.969505E2,5.759153E1,2.9060143E1,3.738581E0,3.240249E0,5.123054E1,1.06833305E2],"tree_param":{"num_deleted":"0","num_feature":"66","num_nodes":"59","size_leaf_vector":"1"}},{"base_weights":[1.1124271E-2,2.1387972E-2,-7.0444334E-1,8.47583E-2,-9.661177E-2,-5.5691373E-2,-5.0985627E-3,1.21626206E-1,-2.7909786E-1,1.3896577E-1,-1.9019634E-1,1.734508E-2,3.937922E-1,3.3388946E-2,-4.411363E-1,-7.083937E-2,4.825911E-1,-3.2891306E-1,1.0249282E-1,1.5854268E-1,-1.1723844E-1,5.0604916E-1,-4.9708754E-2,-7.169442E-1,1.570348E-1,-3.077441E-1,5.0561917E-1,7.06594E-1,-3.8411435E-2,-1.0738589E0,-2.500247E-1,8.23573E-1,-2.3938332E-2,3.3164624E-2,3.6961127E-3,-1.0322411E-2,2.4675826E-2,2.9218707E-2,-5.291452E-3,-4.100547E-2,1.723604E-2,2.253841E-3,-5.106579E-2,-2.0592947E-2,3.159784E-2,-2.2002445E-3,-5.0096255E-2,4.2075958E-2,-2.1084394E-2,-2.5087835E-3,4.3522988E-2,-1.3368188E-2,-6.887707E-2,3.759586E-2,-1.4973371E-2,2.6783939E-3,6.9486365E-2,-5.906074E-2,4.6497323E-3],"categories":[],"categories_nodes":[],"categories_segments":[],"categories_sizes":[],"default_left":[0,0,0,0,0,0,0,0,0,0,0,0,0,0,0,0,0,0,0,0,0,0,0,0,0,0,0,0,0,0,0,0,0,0,0,0,0,0,0,0,0,0,0,0,0,0,0,0,0,0,0,0,0,0,0,0,0,0,0],"id":11,"left_children":[1,3,5,7,9,-1,-1,11,13,15,17,19,21,-1,23,25,27,29,31,33,35,37,39,41,43,45,47,49,-1,51,53,55,57,-1,-1,-1,-1,-1,-1,-1,-1,-1,-1,-1,-1,-1,-1,-1,-1,-1,-1,-1,-1,-1,-1,-1,-1,-1,-1],"loss_changes":[5.8106117E0,5.9011545E0,2.52274E0,6.9120994E0,6.1014357E0,0E0,0E0,1.3222647E1,7.5345974E0,5.738478E0,8.086043E0,6.4715595E0,6.5037937E0,0E0,6.951067E0,6.8908944E0,8.966793E0,7.512066E0,5.945594E0,6.984503E0,9.5515785E0,5.064348E0,8.4831085E0,6.737955E0,3.9782345E0,6.4059343E0,4.9639716E0,3.36312E0,0E0,2.5210228E0,6.2820816E0,4.0151286E0,7.717103E0,0E0,0E0,0E0,0E0,0E0,0E0,0E0,0E0,0E0,0E0,0E0,0E0,0E0,0E0,0E0,0E0,0E0,0E0,0E0,0E0,0E0,0E0,0E0,0E0,0E0,0E0],"parents":[2147483647,0,0,1,1,2,2,3,3,4,4,7,7,8,8,9,9,10,10,11,11,12,12,14,14,15,15,16,16,17,17,18,18,19,19,20,20,21,21,22,22,23,23,24,24,25,25,26,26,27,27,29,29,30,30,31,31,32,32],"right_children":[2,4,6,8,10,-1,-1,12,14,16,18,20,22,-1,24,26,28,30,32,34,36,38,40,42,44,46,48,50,-1,52,54,56,58,-1,-1,-1,-1,-1,-1,-1,-1,-1,-1,-1,-1,-1,-1,-1,-1,-1,-1,-1,-1,-1,-1,-1,-1,-1,-1],"split_conditions":[2.05E1,3.3435E3,2.276738E-1,9.3989885E-1,-3.566913E-1,-5.5691373E-2,-5.0985627E-3,9.4200397E-1,5.430676E1,-8.5346055E-1,6.535166E1,1.8999023E0,9.2376626E-1,3.3388946E-2,2.9799805E1,4.1079745E-1,5.56298E5,3.3230056E3,6.7115524E1,7E0,5.3999023E0,2.491008E1,9.044792E1,6.283499E0,3.1448E3,4.4586124E1,1.3599854E0,3.80504E5,-3.8411435E-2,1.5333363E-1,3.6398453E5,1.1920018E-2,8.9878374E-1,3.3164624E-2,3.6961127E-3,-1.0322411E-2,2.4675826E-2,2.9218707E-2,-5.291452E-3,-4.100547E-2,1.723604E-2,2.253841E-3,-5.106579E-2,-2.0592947E-2,3.159784E-2,-2.2002445E-3,-5.0096255E-2,4.2075958E-2,-2.1084394E-2,-2.5087835E-3,4.3522988E-2,-1.3368188E-2,-6.887707E-2,3.759586E-2,-1.4973371E-2,2.6783939E-3,6.9486365E-2,-5.906074E-2,4.6497323E-3],"split_indices":[49,0,64,32,64,0,0,11,38,64,19,52,63,0,23,10,36,30,19,65,51,26,21,26,0,20,58,36,0,61,37,31,61,0,0,0,0,0,0,0,0,0,0,0,0,0,0,0,0,0,0,0,0,0,0,0,0,0,0],"split_type":[0,0,0,0,0,0,0,0,0,0,0,0,0,0,0,0,0,0,0,0,0,0,0,0,0,0,0,0,0,0,0,0,0,0,0,0,0,0,0,0,0,0,0,0,0,0,0,0,0,0,0,0,0,0,0,0,0,0,0],"sum_hessian":[7.9741425E2,7.872325E2,1.0181763E1,5.129097E2,2.7432275E2,5.458159E0,4.7236032E0,4.6657437E2,4.6335327E1,7.7551445E1,1.9677132E2,3.3836145E2,1.2821294E2,6.224429E0,4.0110897E1,4.846395E1,2.9087494E1,1.3364816E2,6.312315E1,1.6539897E2,1.7296248E2,1.0238273E2,2.5830202E1,2.7431328E1,1.2679568E1,3.480139E1,1.36625595E1,2.5106367E1,3.9811268E0,1.1468711E1,1.2217945E2,8.712085E0,5.4411064E1,2.2596087E1,1.4280289E2,1.5163905E2,2.1323414E1,9.094897E1,1.1433761E1,8.466913E0,1.7363289E1,7.978874E0,1.9452454E1,5.733645E0,6.945923E0,2.6094711E1,8.706679E0,1.0176618E1,3.4859412E0,4.4836044E0,2.0622763E1,3.7416477E0,7.727063E0,4.98239E0,1.1719706E2,4.2301135E0,4.4819713E0,4.2364826E0,5.0174583E1],"tree_param":{"num_deleted":"0","num_feature":"66","num_nodes":"59","size_leaf_vector":"1"}},{"base_weights":[-1.9022784E-3,-9.942223E-3,4.3947294E-2,-5.798406E-2,1.2718314E-1,-1.215741E-1,6.874222E-2,2.5050533E-1,-1.4835565E-1,-3.322448E-2,-4.852243E-1,2.7062762E-1,-2.5187412E-1,6.3463144E-2,2.099078E-1,1.8914498E-2,-9.1308933E-1,-1.1109654E-1,2.028823E-1,-7.472327E-1,-7.795664E-2,5.5354524E-1,7.928729E-2,-1.4694166E-1,-7.554226E-2,8.20038E-2,5.687543E-1,-5.9566116E-1,2.6265717E-1,-8.593252E-3,-1.1627682E0,-7.1159997E-3,3.285464E-2,5.5425137E-2,4.3449216E-3,-6.468605E-2,-2.6997125E-2,2.5199994E-2,-2.3361037E-2,-4.7845934E-3,3.8745664E-2,-4.47249E-2,8.37161E-3,-1.3745645E-2,2.8260056E-2,1.0704398E-2,-3.4988616E-2,8.140053E-3,4.547925E-2,-4.6526767E-2,1.7307738E-3,-1.4260356E-2,2.3708394E-2,-7.335785E-2,-3.1758346E-2],"categories":[],"categories_nodes":[],"categories_segments":[],"categories_sizes":[],"default_left":[0,0,0,0,0,0,0,0,0,0,0,0,0,0,0,0,0,0,0,0,0,0,0,0,0,0,0,0,0,0,0,0,0,0,0,0,0,0,0,0,0,0,0,0,0,0,0,0,0,0,0,0,0,0,0],"id":12,"left_children":[1,3,-1,5,7,9,11,13,15,17,19,21,23,-1,25,27,29,31,33,35,37,39,41,43,-1,45,47,49,51,-1,53,-1,-1,-1,-1,-1,-1,-1,-1,-1,-1,-1,-1,-1,-1,-1,-1,-1,-1,-1,-1,-1,-1,-1,-1],"loss_changes":[5.6165986E0,5.257146E0,0E0,4.7854743E0,7.0745134E0,1.2628538E1,1.2883956E1,5.520027E0,8.334003E0,5.8827972E0,8.070248E0,6.5051928E0,9.760305E0,0E0,6.280857E0,8.159331E0,1.8266068E0,5.8230715E0,8.104169E0,4.392372E0,7.342689E0,7.1704664E0,6.4498944E0,6.696034E0,0E0,1.084586E1,4.756729E0,3.3772278E0,4.6992292E0,0E0,2.1584606E-1,0E0,0E0,0E0,0E0,0E0,0E0,0E0,0E0,0E0,0E0,0E0,0E0,0E0,0E0,0E0,0E0,0E0,0E0,0E0,0E0,0E0,0E0,0E0,0E0],"parents":[2147483647,0,0,1,1,3,3,4,4,5,5,6,6,7,7,8,8,9,9,10,10,11,11,12,12,14,14,15,15,16,16,17,17,18,18,19,19,20,20,21,21,22,22,23,23,25,25,26,26,27,27,28,28,30,30],"right_children":[2,4,-1,6,8,10,12,14,16,18,20,22,24,-1,26,28,30,32,34,36,38,40,42,44,-1,46,48,50,52,-1,54,-1,-1,-1,-1,-1,-1,-1,-1,-1,-1,-1,-1,-1,-1,-1,-1,-1,-1,-1,-1,-1,-1,-1,-1],"split_conditions":[9.901968E1,3.301379E-3,4.3947294E-2,9.551417E-1,4.69883E5,5.996649E1,8.8250114E1,5.8623214E0,4.5E0,3.3961113E3,4.1525483E-1,3.96177E5,1.7187098E1,6.3463144E-2,4.19841E5,1.1000977E0,-1.6999512E0,8.488777E-1,-1.6034552E2,5.998535E-1,1.1106296E0,1.2001953E0,1.44767685E1,4.3999023E0,-7.554226E-2,3.90432E5,1.8000488E0,1.1883483E0,-5.052312E-1,-8.593252E-3,7.440656E-1,-7.1159997E-3,3.285464E-2,5.5425137E-2,4.3449216E-3,-6.468605E-2,-2.6997125E-2,2.5199994E-2,-2.3361037E-2,-4.7845934E-3,3.8745664E-2,-4.47249E-2,8.37161E-3,-1.3745645E-2,2.8260056E-2,1.0704398E-2,-3.4988616E-2,8.140053E-3,4.547925E-2,-4.6526767E-2,1.7307738E-3,-1.4260356E-2,2.3708394E-2,-7.335785E-2,-3.1758346E-2],"split_indices":[20,56,0,61,36,38,21,20,52,29,11,36,15,0,36,51,23,63,22,51,11,52,14,51,0,36,51,64,10,0,63,0,0,0,0,0,0,0,0,0,0,0,0,0,0,0,0,0,0,0,0,0,0,0,0],"split_type":[0,0,0,0,0,0,0,0,0,0,0,0,0,0,0,0,0,0,0,0,0,0,0,0,0,0,0,0,0,0,0,0,0,0,0,0,0,0,0,0,0,0,0,0,0,0,0,0,0,0,0,0,0,0,0],"sum_hessian":[8.031208E2,7.9694885E2,6.1719136E0,5.9114703E2,2.0580182E2,3.9418073E2,1.9696634E2,1.4248428E2,6.3317543E1,3.1823193E2,7.594879E1,1.211491E2,7.581723E1,4.206185E0,1.3827809E2,5.264665E1,1.0670897E1,2.4002167E2,7.821025E1,4.555896E1,3.0389828E1,4.7903263E1,7.3245834E1,7.1088326E1,4.72891E0,1.0305374E2,3.522435E1,1.4423921E1,3.8222725E1,3.2150888E0,7.4558077E0,2.3155492E2,8.466762E0,7.8098817E0,7.040037E1,1.0954802E1,3.460416E1,1.1959108E1,1.843072E1,1.2209815E1,3.569345E1,5.2262335E0,6.80196E1,6.0899193E1,1.018913E1,8.8889565E1,1.4164178E1,1.688463E1,1.833972E1,9.211826E0,5.2120943E0,1.0417541E1,2.7805185E1,3.478573E0,3.9772344E0],"tree_param":{"num_deleted":"0","num_feature":"66","num_nodes":"55","size_leaf_vector":"1"}},{"base_weights":[-1.5661113E-2,-2.3075227E-2,5.313511E-2,-1.2539115E-2,-8.7006515E-1,-2.8052399E-2,4.5197377E-1,-5.431204E-2,-1.5625732E-2,1.5047705E-2,-1.892679E-1,7.291919E-1,-2.987251E-1,2.8397417E-1,-1.8597148E-2,1.6357592E-1,-2.9558143E-1,1.1248388E0,1.263381E-1,-5.1895745E-2,2.4383148E-2,8.580895E-3,5.0868865E-2,-5.6283128E-2,-3.763636E-4,-8.611086E-4,3.7129115E-2,-4.4471096E-2,-1.1120773E-2,7.479164E-2,1.7036807E-2,-3.5841655E-2,4.622262E-2],"categories":[],"categories_nodes":[],"categories_segments":[],"categories_sizes":[],"default_left":[0,0,0,0,0,0,0,0,0,0,0,0,0,0,0,0,0,0,0,0,0,0,0,0,0,0,0,0,0,0,0,0,0],"id":13,"left_children":[1,3,-1,5,7,9,11,-1,-1,13,15,17,19,21,23,25,27,29,31,-1,-1,-1,-1,-1,-1,-1,-1,-1,-1,-1,-1,-1,-1],"loss_changes":[6.332954E0,7.0188994E0,0E0,5.655663E0,6.860523E-1,5.333142E0,5.535885E0,0E0,0E0,5.494628E0,6.133184E0,4.2406273E0,4.8906636E0,5.27096E0,6.4620214E0,4.053099E0,5.1201735E0,2.560072E0,6.548462E0,0E0,0E0,0E0,0E0,0E0,0E0,0E0,0E0,0E0,0E0,0E0,0E0,0E0,0E0],"parents":[2147483647,0,0,1,1,3,3,4,4,5,5,6,6,9,9,10,10,11,11,12,12,13,13,14,14,15,15,16,16,17,17,18,18],"right_children":[2,4,-1,6,8,10,12,-1,-1,14,16,18,20,22,24,26,28,30,32,-1,-1,-1,-1,-1,-1,-1,-1,-1,-1,-1,-1,-1,-1],"split_conditions":[9.9363214E-1,6.285332E-1,5.313511E-2,1.2E1,6.750259E1,3.3684126E3,4.9001465E0,-5.431204E-2,-1.5625732E-2,2.8094303E1,-1.1558835E-3,9.0963906E-1,9.426797E1,5.697145E1,1.0102794E1,3E0,3.363493E3,2.2065817E1,9.600028E-1,-5.1895745E-2,2.4383148E-2,8.580895E-3,5.0868865E-2,-5.6283128E-2,-3.763636E-4,-8.611086E-4,3.7129115E-2,-4.4471096E-2,-1.1120773E-2,7.479164E-2,1.7036807E-2,-3.5841655E-2,4.622262E-2],"split_indices":[60,50,0,49,19,8,52,0,0,38,48,60,22,16,21,59,29,15,63,0,0,0,0,0,0,0,0,0,0,0,0,0,0],"split_type":[0,0,0,0,0,0,0,0,0,0,0,0,0,0,0,0,0,0,0,0,0,0,0,0,0,0,0,0,0,0,0,0,0],"sum_hessian":[8.010398E2,7.96634E2,4.405794E0,7.8796497E2,8.669003E0,7.6361743E2,2.4347555E1,5.4343734E0,3.2346294E0,6.027593E2,1.6085811E2,1.789949E1,6.4480653E0,6.652785E1,5.3623145E2,3.6902668E1,1.23955444E2,1.0184059E1,7.7154307E0,3.2244534E0,3.223612E0,5.887815E1,7.649695E0,4.2225866E0,5.3200885E2,2.8729319E1,8.173349E0,1.2223365E1,1.1173208E2,6.210405E0,3.973654E0,3.7404075E0,3.975023E0],"tree_param":{"num_deleted":"0","num_feature":"66","num_nodes":"33","size_leaf_vector":"1"}},{"base_weights":[-1.1632245E-2,-3.3656567E-2,3.367869E-1,1.9355768E-1,-6.4901225E-2,5.1281446E-1,-4.1666606E-1,2.4971046E-1,-4.3299627E-2,1.16987884E-1,-1.2690616E-1,8.496694E-1,1.295642E-2,4.869187E-3,-4.3317594E-2,5.11692E-1,2.6657043E-2,-3.0472616E-2,4.5720905E-1,-4.3502817E-1,-7.563167E-2,1.0693536E0,-0E0,4.6347222E-1,-6.0574406E-1,1.4622389E-1,9.625869E-1,-5.2393556E-2,1.76084E-1,-4.4806674E-1,1.7650156E-1,7.7067167E-1,1.7257622E-3,-1.2278215E-2,-6.301058E-1,-1.4530021E-1,2.246618E-1,1.2107722E0,1.40768755E-2,1.7932978E-3,4.7827754E-2,-6.47587E-2,1.0360903E-2,3.9682683E-2,-7.0689917E-3,1.6383851E-2,6.805511E-2,4.2248618E-2,-1.2361066E-3,2.5719633E-2,-2.7486801E-2,-1.918861E-3,2.9525584E-2,5.1058818E-2,-8.69346E-4,1.6200533E-2,-4.781821E-2,-1.2327406E-2,4.1626107E-2,-1.10912165E-2,-5.365346E-2,-5.738621E-3,-3.5151977E-2,3.250792E-2,1.6136458E-3,3.5043906E-2,7.685176E-2],"categories":[],"categories_nodes":[],"categories_segments":[],"categories_sizes":[],"default_left":[0,0,0,0,0,0,0,0,0,0,0,0,0,0,0,0,0,0,0,0,0,0,0,0,0,0,0,0,0,0,0,0,0,0,0,0,0,0,0,0,0,0,0,0,0,0,0,0,0,0,0,0,0,0,0,0,0,0,0,0,0,0,0,0,0,0,0],"id":14,"left_children":[1,3,5,7,9,11,13,15,-1,17,19,21,23,-1,-1,25,27,29,31,33,35,37,-1,39,41,43,45,-1,47,49,51,53,55,57,59,61,63,65,-1,-1,-1,-1,-1,-1,-1,-1,-1,-1,-1,-1,-1,-1,-1,-1,-1,-1,-1,-1,-1,-1,-1,-1,-1,-1,-1,-1,-1],"loss_changes":[6.1284695E0,5.357178E0,6.516488E0,5.5743723E0,7.510798E0,6.472821E0,2.3411856E0,5.0383286E0,0E0,8.538286E0,7.760163E0,4.380953E0,4.9615183E0,0E0,0E0,6.326665E0,7.87738E0,1.0363448E1,7.258276E0,5.7294254E0,8.961226E0,1.5668411E0,0E0,2.0606775E0,4.545575E0,4.5253177E0,3.830616E0,0E0,5.9425936E0,4.177917E0,7.1863613E0,6.101017E0,7.064522E0,4.776485E0,8.304947E0,5.7558575E0,6.5055795E0,1.2346153E0,0E0,0E0,0E0,0E0,0E0,0E0,0E0,0E0,0E0,0E0,0E0,0E0,0E0,0E0,0E0,0E0,0E0,0E0,0E0,0E0,0E0,0E0,0E0,0E0,0E0,0E0,0E0,0E0,0E0],"parents":[2147483647,0,0,1,1,2,2,3,3,4,4,5,5,6,6,7,7,9,9,10,10,11,11,12,12,15,15,16,16,17,17,18,18,19,19,20,20,21,21,23,23,24,24,25,25,26,26,28,28,29,29,30,30,31,31,32,32,33,33,34,34,35,35,36,36,37,37],"right_children":[2,4,6,8,10,12,14,16,-1,18,20,22,24,-1,-1,26,28,30,32,34,36,38,-1,40,42,44,46,-1,48,50,52,54,56,58,60,62,64,66,-1,-1,-1,-1,-1,-1,-1,-1,-1,-1,-1,-1,-1,-1,-1,-1,-1,-1,-1,-1,-1,-1,-1,-1,-1,-1,-1,-1,-1],"split_conditions":[1.5379472E1,8.571758E0,7.2273895E1,6.42622E5,3.506557E1,1.332352E1,9.022304E-1,7.445526E1,-4.3299627E-2,-2.8148727E-2,1.1650462E1,4.967276E0,1.942217E1,4.869187E-3,-4.3317594E-2,1.6787894E0,-4.84713E-2,3.701817E1,2.8999023E0,-2.9289427E-3,8.5150546E-1,3.617704E3,-0E0,-2.5060294E0,3.4146665E3,2.9147974E3,1.2502744E2,-5.2393556E-2,1.1E1,1.4620447E1,2.6999512E0,9.49935E-2,-8.5767494E1,3.3655896E3,3.3388E3,1.1399902E1,8.995164E-1,6.4778013E0,1.40768755E-2,1.7932978E-3,4.7827754E-2,-6.47587E-2,1.0360903E-2,3.9682683E-2,-7.0689917E-3,1.6383851E-2,6.805511E-2,4.2248618E-2,-1.2361066E-3,2.5719633E-2,-2.7486801E-2,-1.918861E-3,2.9525584E-2,5.1058818E-2,-8.69346E-4,1.6200533E-2,-4.781821E-2,-1.2327406E-2,4.1626107E-2,-1.10912165E-2,-5.365346E-2,-5.738621E-3,-3.5151977E-2,3.250792E-2,1.6136458E-3,3.5043906E-2,7.685176E-2],"split_indices":[10,15,16,36,38,15,63,18,0,10,15,61,14,0,0,61,50,16,52,56,57,29,0,11,39,5,22,0,65,15,51,50,22,2,41,52,57,15,0,0,0,0,0,0,0,0,0,0,0,0,0,0,0,0,0,0,0,0,0,0,0,0,0,0,0,0,0],"split_type":[0,0,0,0,0,0,0,0,0,0,0,0,0,0,0,0,0,0,0,0,0,0,0,0,0,0,0,0,0,0,0,0,0,0,0,0,0,0,0,0,0,0,0,0,0,0,0,0,0,0,0,0,0,0,0,0,0,0,0,0,0,0,0,0,0,0,0],"sum_hessian":[8.001065E2,7.536567E2,4.6449844E1,9.009336E1,6.635633E2,3.8019527E1,8.430315E0,8.637449E1,3.7188687E0,1.6806157E2,4.955017E2,2.2175533E1,1.5843996E1,4.1954403E0,4.2348747E0,3.891985E1,4.745464E1,1.1767482E2,5.0386753E1,6.934638E1,4.2615533E2,1.746256E1,4.712972E0,9.406812E0,6.4371843E0,2.2350204E1,1.6569645E1,4.9777627E0,4.247688E1,3.877007E1,7.8904755E1,2.9306528E1,2.1080223E1,2.2393436E1,4.6952946E1,3.4659412E2,7.956122E1,1.4242181E1,3.2203794E0,5.721026E0,3.6857858E0,3.2288344E0,3.20835E0,6.4403596E0,1.5909845E1,7.18915E0,9.380494E0,9.181904E0,3.3294975E1,3.222356E0,3.5547714E1,5.238286E1,2.6521893E1,2.210953E1,7.196999E0,1.6347424E1,4.7327995E0,1.8178831E1,4.214606E0,2.5331404E1,2.1621542E1,3.2992102E2,1.6673103E1,2.3869997E1,5.569122E1,6.905208E0,7.336973E0],"tree_param":{"num_deleted":"0","num_feature":"66","num_nodes":"67","size_leaf_vector":"1"}},{"base_weights":[2.2689924E-2,3.2154292E-2,-6.116954E-1,8.524399E-3,3.587169E-1,-1.0753151E0,7.5669014E-3,7.805788E-2,-1.05779015E-1,-4.550534E-1,4.833311E-1,-1.8904937E-2,-7.4758664E-2,3.820212E-2,5.612587E-1,6.283695E-2,-2.3781975E-1,1.1999953E-2,-5.317554E-2,6.205076E-1,-3.0840233E-1,7.544258E-2,-4.194696E-1,7.603001E-1,4.451224E-2,-2.3550145E-1,2.534218E-1,6.462082E-1,-2.9444307E-1,3.5270658E-1,9.702367E-1,1.3107799E-2,-4.142182E-2,-4.4120373E-3,8.330621E-3,-2.8999833E-2,2.2458421E-2,4.7154717E-2,8.040866E-3,-2.8843263E-2,3.399095E-2,-1.953935E-3,-5.7252735E-2,2.178155E-2,-2.4908002E-2,-2.140295E-2,6.691422E-2,-1.104587E-2,-4.435389E-2,2.8569547E-2,-2.0375824E-2,6.841739E-2,2.122668E-2],"categories":[],"categories_nodes":[],"categories_segments":[],"categories_sizes":[],"default_left":[0,0,0,0,0,0,0,0,0,0,0,0,0,0,0,0,0,0,0,0,0,0,0,0,0,0,0,0,0,0,0,0,0,0,0,0,0,0,0,0,0,0,0,0,0,0,0,0,0,0,0,0,0],"id":15,"left_children":[1,3,5,7,9,11,-1,13,15,17,19,-1,-1,21,23,25,27,-1,-1,29,31,33,35,37,39,41,43,45,47,49,51,-1,-1,-1,-1,-1,-1,-1,-1,-1,-1,-1,-1,-1,-1,-1,-1,-1,-1,-1,-1,-1,-1],"loss_changes":[4.7753625E0,6.0644865E0,4.386955E0,5.878873E0,5.6042395E0,1.4341354E0,0E0,8.788895E0,6.252836E0,3.490694E0,5.2849903E0,0E0,0E0,7.2709417E0,3.4682913E0,7.064171E0,8.025537E0,0E0,0E0,3.2875767E0,2.482448E0,5.927558E0,4.744434E0,2.4713888E0,4.700569E0,8.469901E0,1.0596333E1,7.854297E0,6.166539E0,4.3193192E0,2.864954E0,0E0,0E0,0E0,0E0,0E0,0E0,0E0,0E0,0E0,0E0,0E0,0E0,0E0,0E0,0E0,0E0,0E0,0E0,0E0,0E0,0E0,0E0],"parents":[2147483647,0,0,1,1,2,2,3,3,4,4,5,5,7,7,8,8,9,9,10,10,13,13,14,14,15,15,16,16,19,19,20,20,21,21,22,22,23,23,24,24,25,25,26,26,27,27,28,28,29,29,30,30],"right_children":[2,4,6,8,10,12,-1,14,16,18,20,-1,-1,22,24,26,28,-1,-1,30,32,34,36,38,40,42,44,46,48,50,52,-1,-1,-1,-1,-1,-1,-1,-1,-1,-1,-1,-1,-1,-1,-1,-1,-1,-1,-1,-1,-1,-1],"split_conditions":[7.359743E1,1.4157492E1,1.2100098E1,3.3338667E3,5.0254875E1,3.3041E3,7.5669014E-3,3.3158E3,4.980408E-1,-7.1775686E-4,4.967276E0,-1.8904937E-2,-7.4758664E-2,3.1300049E1,6.0574512E1,3.6311214E1,3.6284984E5,1.1999953E-2,-5.317554E-2,3.368652E0,6.5742226E1,4.2609943E1,9.175163E1,2.998334E-3,1.2799805E1,2.574741E-1,1.45E0,1.0357378E0,9.157655E1,8.9535095E1,2.3999023E0,1.3107799E-2,-4.142182E-2,-4.4120373E-3,8.330621E-3,-2.8999833E-2,2.2458421E-2,4.7154717E-2,8.040866E-3,-2.8843263E-2,3.399095E-2,-1.953935E-3,-5.7252735E-2,2.178155E-2,-2.4908002E-2,-2.140295E-2,6.691422E-2,-1.104587E-2,-4.435389E-2,2.8569547E-2,-2.0375824E-2,6.841739E-2,2.122668E-2],"split_indices":[16,10,53,39,38,43,0,41,32,47,61,0,0,53,38,18,37,0,0,64,38,21,21,56,23,60,58,61,21,20,51,0,0,0,0,0,0,0,0,0,0,0,0,0,0,0,0,0,0,0,0,0,0],"split_type":[0,0,0,0,0,0,0,0,0,0,0,0,0,0,0,0,0,0,0,0,0,0,0,0,0,0,0,0,0,0,0,0,0,0,0,0,0,0,0,0,0,0,0,0,0,0,0,0,0,0,0,0,0],"sum_hessian":[8.0073254E2,7.9005273E2,1.0679817E1,7.3798486E2,5.2067863E1,6.470269E0,4.2095475E0,4.5959454E2,2.783903E2,6.45573E0,4.5612133E1,3.2357304E0,3.2345388E0,4.2576248E2,3.3832066E1,1.2215947E2,1.5623083E2,3.2193813E0,3.2363489E0,3.9168358E1,6.4437737E0,3.9469968E2,3.1062803E1,2.394431E1,9.887758E0,4.7322002E1,7.483746E1,8.671357E0,1.4755948E2,2.3481853E1,1.5686505E1,3.2173889E0,3.2263849E0,1.4081691E2,2.5388277E2,2.659532E1,4.4674845E0,1.7782179E1,6.16213E0,4.9656076E0,4.9221506E0,3.9865704E1,7.4562974E0,6.067999E1,1.41574745E1,3.4904065E0,5.1809506E0,1.3264436E2,1.4915111E1,1.8531149E1,4.9507046E0,8.092196E0,7.594309E0],"tree_param":{"num_deleted":"0","num_feature":"66","num_nodes":"53","size_leaf_vector":"1"}},{"base_weights":[-6.1207736E-4,1.384694E-1,-6.831818E-2,1.8741815E-1,-3.8302335E-1,-3.1093094E-1,-1.4583399E-2,1.3619028E-1,1.0101963E0,3.1088164E-1,-7.6717883E-1,-6.8057483E-1,1.1979021E-1,-5.3150203E-2,-4.1584154E-3,2.1186887E-1,-1.7121927E-1,6.832461E-2,9.827609E-3,-1.6088005E-2,4.995015E-2,-7.714432E-2,-3.5995328E-1,-9.8826104E-1,-9.973556E-2,-1.1139404E-1,8.727417E-1,6.2070435E-1,-2.5261205E-2,6.1984384E-1,1.4653909E-1,-4.3675137E-1,4.1695052E-1,2.7244497E-2,-8.115341E-1,-1.0976124E0,-0E0,-6.9840723E-1,3.025291E-1,4.3462798E-2,-3.3194584E-1,1.1379974E0,8.078139E-3,6.840255E-2,1.5511239E-1,3.6710143E-2,-2.5412604E-1,-2.4914695E-2,4.4027194E-2,1.2975118E-2,-1.4853621E-2,1.3838137E-2,-3.51499E-2,5.2488007E-2,-1.7242238E-2,-6.161977E-2,-6.130616E-3,-2.0566247E-2,-6.1334062E-2,-0E0,-6.369616E-2,-2.7367994E-2,4.3923803E-2,-3.286587E-2,4.679391E-3,2.3792777E-2,7.410495E-2,-3.996233E-2,3.7475128E-2,6.3875564E-3,-5.7426635E-3,-2.237464E-2,9.062133E-3],"categories":[],"categories_nodes":[],"categories_segments":[],"categories_sizes":[],"default_left":[0,0,0,0,0,0,0,0,0,0,0,0,0,0,0,0,0,0,0,0,0,0,0,0,0,0,0,0,0,0,0,0,0,0,0,0,0,0,0,0,0,0,0,0,0,0,0,0,0,0,0,0,0,0,0,0,0,0,0,0,0,0,0,0,0,0,0,0,0,0,0,0,0],"id":16,"left_children":[1,3,5,7,9,11,13,15,17,19,21,23,25,-1,27,29,31,-1,-1,-1,-1,-1,33,35,37,39,41,43,45,47,49,51,53,-1,55,57,-1,59,61,-1,63,65,-1,-1,67,69,71,-1,-1,-1,-1,-1,-1,-1,-1,-1,-1,-1,-1,-1,-1,-1,-1,-1,-1,-1,-1,-1,-1,-1,-1,-1,-1],"loss_changes":[7.501688E0,6.7043195E0,6.960824E0,9.8248825E0,6.285803E0,1.5572528E1,4.707128E0,5.305959E0,3.5591736E0,4.151203E0,3.9525242E0,9.165596E0,8.093352E0,0E0,5.726439E0,4.692259E0,7.2128677E0,0E0,0E0,0E0,0E0,0E0,5.0214815E0,3.5931435E0,4.9195623E0,7.9336276E0,1.7429676E0,4.5695243E0,6.050601E0,7.6614027E0,8.025442E0,6.2426057E0,7.3707705E0,0E0,2.0062013E0,2.0415878E0,0E0,3.2905407E0,6.482315E0,0E0,4.253173E0,8.472376E-1,0E0,0E0,6.2367554E0,4.6317215E0,7.7606206E0,0E0,0E0,0E0,0E0,0E0,0E0,0E0,0E0,0E0,0E0,0E0,0E0,0E0,0E0,0E0,0E0,0E0,0E0,0E0,0E0,0E0,0E0,0E0,0E0,0E0,0E0],"parents":[2147483647,0,0,1,1,2,2,3,3,4,4,5,5,6,6,7,7,8,8,9,9,10,10,11,11,12,12,14,14,15,15,16,16,22,22,23,23,24,24,25,25,26,26,27,27,28,28,29,29,30,30,31,31,32,32,34,34,35,35,37,37,38,38,40,40,41,41,44,44,45,45,46,46],"right_children":[2,4,6,8,10,12,14,16,18,20,22,24,26,-1,28,30,32,-1,-1,-1,-1,-1,34,36,38,40,42,44,46,48,50,52,54,-1,56,58,-1,60,62,-1,64,66,-1,-1,68,70,72,-1,-1,-1,-1,-1,-1,-1,-1,-1,-1,-1,-1,-1,-1,-1,-1,-1,-1,-1,-1,-1,-1,-1,-1,-1,-1],"split_conditions":[-6.0096866E-4,5.893449E5,-1.03706356E-4,1.3365307E1,1.6331997E1,1.8157429E1,9.4937146E-2,5.271763E0,1.9E1,1.3423381E1,-1.479956E0,1.4047064E-2,3.3913718E3,-5.3150203E-2,-3.729282E-5,2.0342799E-1,3.8926736E-1,6.832461E-2,9.827609E-3,-1.6088005E-2,4.995015E-2,-7.714432E-2,4.5614034E-1,8.7864065E-1,-1.1999512E0,2.7534E3,5.958572E-1,4.032555E-1,3.3800728E3,-1.4214398E-1,3.3514333E3,3.899015E1,2.5E0,2.7244497E-2,1.2582888E1,2.1156748E1,-0E0,8.35585E0,-2.972197E-3,4.3462798E-2,4.2071597E5,-5.9774786E-1,8.078139E-3,6.840255E-2,6.4631605E-1,1.1E1,3.4145964E3,-2.4914695E-2,4.4027194E-2,1.2975118E-2,-1.4853621E-2,1.3838137E-2,-3.51499E-2,5.2488007E-2,-1.7242238E-2,-6.161977E-2,-6.130616E-3,-2.0566247E-2,-6.1334062E-2,-0E0,-6.369616E-2,-2.7367994E-2,4.3923803E-2,-3.286587E-2,4.679391E-3,2.3792777E-2,7.410495E-2,-3.996233E-2,3.7475128E-2,6.3875564E-3,-5.7426635E-3,-2.237464E-2,9.062133E-3],"split_indices":[47,37,47,10,14,15,60,10,52,14,58,31,29,0,47,27,24,0,0,0,0,0,60,60,49,0,63,63,2,50,41,18,52,0,26,16,0,10,56,0,37,64,0,0,64,65,30,0,0,0,0,0,0,0,0,0,0,0,0,0,0,0,0,0,0,0,0,0,0,0,0,0,0],"split_type":[0,0,0,0,0,0,0,0,0,0,0,0,0,0,0,0,0,0,0,0,0,0,0,0,0,0,0,0,0,0,0,0,0,0,0,0,0,0,0,0,0,0,0,0,0,0,0,0,0,0,0,0,0,0,0,0,0,0,0,0,0,0,0,0,0,0,0,0,0,0,0,0,0],"sum_hessian":[7.9538E2,2.5959644E2,5.3578357E2,2.3808179E2,2.1514647E1,9.594485E1,4.398387E2,2.2533879E2,1.2742992E1,7.6417274E0,1.387292E1,5.144605E1,4.44988E1,3.2419572E0,4.3659677E2,1.8133383E2,4.4004967E1,8.304199E0,4.4387937E0,4.183034E0,3.4586935E0,3.7311895E0,1.014173E1,3.3059788E1,1.8386261E1,3.459583E1,9.9029665E0,1.3179972E1,4.234168E2,2.3646467E1,1.5768736E2,3.0612339E1,1.3392629E1,3.233872E0,6.9078584E0,2.9593805E1,3.4659822E0,7.193265E0,1.1192996E1,5.7288194E0,2.886701E1,6.6732197E0,3.229747E0,4.232721E0,8.947251E0,3.3351205E2,8.990475E1,4.2260523E0,1.9420414E1,1.2619336E2,3.1494003E1,8.205999E0,2.240634E1,7.1808705E0,6.2117586E0,3.7083828E0,3.1994755E0,5.4700403E0,2.4123764E1,3.7031045E0,3.4901605E0,4.471173E0,6.7218227E0,1.618327E1,1.2683742E1,3.1962664E0,3.4769533E0,3.2370002E0,5.7102504E0,2.0886693E2,1.2464512E2,6.2394432E1,2.7510317E1],"tree_param":{"num_deleted":"0","num_feature":"66","num_nodes":"73","size_leaf_vector":"1"}},{"base_weights":[-1.6013948E-2,5.220337E-1,-2.8476894E-2,-1.97308E-1,1.0084058E0,-2.272018E-2,-5.232832E-2,2.2274014E-2,-3.740523E-2,1.33071495E-2,6.910288E-2,-2.8756274E-2,4.1363098E-2,2.845566E-4,-2.8432631E-1,2.440324E-1,-3.355867E-2,-6.2573634E-2,-2.1457157E-1,-1.5115996E-2,1.8100478E-2,5.80874E-4,-1.1293437E-2,5.6075365E-3,-2.1514455E-2],"categories":[],"categories_nodes":[],"categories_segments":[],"categories_sizes":[],"default_left":[0,0,0,0,0,0,0,0,0,0,0,0,0,0,0,0,0,0,0,0,0,0,0,0,0],"id":17,"left_children":[1,3,5,7,9,11,-1,-1,-1,-1,-1,13,-1,15,17,19,21,-1,23,-1,-1,-1,-1,-1,-1],"loss_changes":[5.2755585E0,6.506763E0,4.4119115E0,3.1720448E0,2.4806356E0,3.90392E0,0E0,0E0,0E0,0E0,0E0,5.7247033E0,0E0,5.7196865E0,4.891763E0,5.5673194E0,5.290917E0,0E0,5.3431635E0,0E0,0E0,0E0,0E0,0E0,0E0],"parents":[2147483647,0,0,1,1,2,2,3,3,4,4,5,5,11,11,13,13,14,14,15,15,16,16,18,18],"right_children":[2,4,6,8,10,12,-1,-1,-1,-1,-1,14,-1,16,18,20,22,-1,24,-1,-1,-1,-1,-1,-1],"split_conditions":[1.8353086E1,4.3837066E0,1.4581188E0,3.81339E5,-8.710034E0,9.9363214E-1,-5.232832E-2,2.2274014E-2,-3.740523E-2,1.33071495E-2,6.910288E-2,9.306937E-1,4.1363098E-2,8.6721325E0,7.5764E4,1.0786406E-2,5.4444065E0,-6.2573634E-2,3.7437162E5,-1.5115996E-2,1.8100478E-2,5.80874E-4,-1.1293437E-2,5.6075365E-3,-2.1514455E-2],"split_indices":[18,14,27,36,58,60,0,0,0,0,0,60,0,15,36,31,9,0,37,0,0,0,0,0,0],"split_type":[0,0,0,0,0,0,0,0,0,0,0,0,0,0,0,0,0,0,0,0,0,0,0,0,0],"sum_hessian":[7.908757E2,1.679726E1,7.740784E2,6.932642E0,9.864618E0,7.708403E2,3.2381215E0,3.2036197E0,3.7290225E0,3.9660091E0,5.8986087E0,7.66481E2,4.359298E0,6.888172E2,7.766379E1,8.358197E1,6.052352E2,3.98852E0,7.367527E1,1.4415168E1,6.91668E1,4.904433E2,1.1479195E2,2.9305765E1,4.4369507E1],"tree_param":{"num_deleted":"0","num_feature":"66","num_nodes":"25","size_leaf_vector":"1"}},{"base_weights":[-9.714061E-3,-8.085872E-1,4.5983895E-4,-5.4346997E-2,-9.4668865E-3,8.053691E-2,-8.463565E-2,-1.9361777E-3,2.6944202E-1,-5.1918525E-1,-3.9685458E-2,-2.380725E-2,4.336452E-2,3.27317E-1,-6.6895866E-1,-6.190268E-2,-8.569957E-1,4.7248545E-1,-8.7907165E-2,-1.4483511E-1,9.7039774E-2,4.3942964E-1,-3.0396575E-2,-4.989861E-3,-5.2830506E-2,5.3395516E-1,-5.107405E-1,-1.1413424E0,1.8424506E-4,6.8596596E-1,-2.7109236E-2,-3.559053E-1,-1.1133042E-2,-4.7665142E-4,-3.296051E-2,9.3801937E-4,4.866747E-2,1.7579481E-2,6.403097E-2,3.0491931E-2,-2.2717543E-2,4.758623E-2,-0E0,1.1154175E-2,-6.174711E-2,-1.5131471E-3,-7.427301E-2,1.339252E-2,5.4583043E-2,-6.992999E-4,-2.948007E-2,3.4054156E-2,-2.3975025E-3],"categories":[],"categories_nodes":[],"categories_segments":[],"categories_sizes":[],"default_left":[0,0,0,0,0,0,0,0,0,0,0,0,0,0,0,0,0,0,0,0,0,0,0,0,0,0,0,0,0,0,0,0,0,0,0,0,0,0,0,0,0,0,0,0,0,0,0,0,0,0,0,0,0],"id":18,"left_children":[1,3,5,-1,-1,7,9,11,13,15,17,19,-1,21,23,25,27,29,31,33,35,37,39,-1,-1,41,43,45,-1,47,-1,49,51,-1,-1,-1,-1,-1,-1,-1,-1,-1,-1,-1,-1,-1,-1,-1,-1,-1,-1,-1,-1],"loss_changes":[6.60281E0,1.4272404E0,5.4113255E0,0E0,0E0,6.4111624E0,7.432515E0,5.3706903E0,6.968302E0,5.3769474E0,8.639359E0,4.1129894E0,0E0,4.803383E0,1.4301505E0,4.65408E0,5.099512E0,6.899448E0,6.555999E0,9.717116E0,9.503455E0,6.069088E0,8.127699E0,0E0,0E0,1.7107766E0,5.667522E0,5.6880436E0,0E0,3.874174E0,0E0,5.6103735E0,6.354416E0,0E0,0E0,0E0,0E0,0E0,0E0,0E0,0E0,0E0,0E0,0E0,0E0,0E0,0E0,0E0,0E0,0E0,0E0,0E0,0E0],"parents":[2147483647,0,0,1,1,2,2,5,5,6,6,7,7,8,8,9,9,10,10,11,11,13,13,14,14,15,15,16,16,17,17,18,18,19,19,20,20,21,21,22,22,25,25,26,26,27,27,29,29,31,31,32,32],"right_children":[2,4,6,-1,-1,8,10,12,14,16,18,20,-1,22,24,26,28,30,32,34,36,38,40,-1,-1,42,44,46,-1,48,-1,50,52,-1,-1,-1,-1,-1,-1,-1,-1,-1,-1,-1,-1,-1,-1,-1,-1,-1,-1,-1,-1],"split_conditions":[1.4601548E-1,1.2001953E0,4.2785672E5,-5.4346997E-2,-9.4668865E-3,1.5726754E-2,3.9990234E-1,5.998535E-1,1.2103087E0,2.1583601E1,2.9616E3,1.9192045E1,4.336452E-2,5E0,-6.389237E-3,2E0,4.88195E1,1.0137423E1,3.346643E3,1.7105839E1,1.0593913E0,3.45E1,1.6999512E0,-4.989861E-3,-5.2830506E-2,2.517837E1,7.1000977E0,2.4339241E1,1.8424506E-4,7.8506374E0,-2.7109236E-2,9.300049E0,3.3214946E3,-4.7665142E-4,-3.296051E-2,9.3801937E-4,4.866747E-2,1.7579481E-2,6.403097E-2,3.0491931E-2,-2.2717543E-2,4.758623E-2,-0E0,1.1154175E-2,-6.174711E-2,-1.5131471E-3,-7.427301E-2,1.339252E-2,5.4583043E-2,-6.992999E-4,-2.948007E-2,3.4054156E-2,-2.3975025E-3],"split_indices":[27,52,37,0,0,31,52,55,27,14,44,15,0,49,56,59,16,26,29,15,61,53,52,0,0,15,53,16,0,26,0,53,2,0,0,0,0,0,0,0,0,0,0,0,0,0,0,0,0,0,0,0,0],"split_type":[0,0,0,0,0,0,0,0,0,0,0,0,0,0,0,0,0,0,0,0,0,0,0,0,0,0,0,0,0,0,0,0,0,0,0,0,0,0,0,0,0,0,0,0,0,0,0,0,0,0,0,0,0],"sum_hessian":[8.0139935E2,9.214475E0,7.921849E2,5.72455E0,3.4899251E0,4.087599E2,3.83425E2,2.8485635E2,1.2390356E2,3.4746197E1,3.486788E2,2.789258E2,5.930545E0,1.1741958E2,6.4839835E0,1.5391083E1,1.9355114E1,2.9068233E1,3.1961057E2,1.3967288E2,1.3925291E2,8.943916E1,2.7980415E1,3.2409408E0,3.2430427E0,6.4353504E0,8.955732E0,1.4390843E1,4.96427E0,2.4364578E1,4.703655E0,7.007145E1,2.4953911E2,1.1154488E2,2.8128008E1,1.2887613E2,1.0376782E1,8.23742E1,7.0649595E0,1.08782625E1,1.7102152E1,3.2291243E0,3.206226E0,4.723425E0,4.232307E0,3.7290652E0,1.06617775E1,1.29376E1,1.1426978E1,2.905257E1,4.101888E1,1.1581116E1,2.37958E2],"tree_param":{"num_deleted":"0","num_feature":"66","num_nodes":"53","size_leaf_vector":"1"}},{"base_weights":[-1.980614E-3,6.7075384E-3,-4.8330996E-2,-9.480247E-3,4.5604834E-1,1.717185E-3,-5.2551067E-1,2.5190067E-1,6.710055E-2,-2.2437364E-2,2.602143E-1,7.749596E-3,-8.6705476E-1,-2.6422236E-2,4.1486323E-1,-1.4327162E-2,-5.3073812E-2,6.529002E-2,1.6007832E-1,-6.987978E-2,3.0035493E-3,7.141757E-1,-8.313382E-2,-1.3388873E-3,2.602812E-2,-1.0159516E-3,3.4812473E-2,-0E0,5.0074797E-2,-4.345689E-2,2.7546678E-2],"categories":[],"categories_nodes":[],"categories_segments":[],"categories_sizes":[],"default_left":[0,0,0,0,0,0,0,0,0,0,0,0,0,0,0,0,0,0,0,0,0,0,0,0,0,0,0,0,0,0,0],"id":19,"left_children":[1,3,-1,5,7,9,11,13,-1,15,17,-1,19,-1,21,23,-1,-1,25,-1,-1,27,29,-1,-1,-1,-1,-1,-1,-1,-1],"loss_changes":[6.7628446E0,5.784409E0,0E0,4.455404E0,4.5041976E0,4.690515E0,4.0111012E0,3.2341595E0,0E0,5.6348333E0,6.368751E0,0E0,5.7027454E0,0E0,3.1561859E0,4.4869375E0,0E0,0E0,5.8695393E0,0E0,0E0,2.6687102E0,4.7024198E0,0E0,0E0,0E0,0E0,0E0,0E0,0E0,0E0],"parents":[2147483647,0,0,1,1,3,3,4,4,5,5,6,6,7,7,9,9,10,10,12,12,14,14,15,15,18,18,21,21,22,22],"right_children":[2,4,-1,6,8,10,12,14,-1,16,18,-1,20,-1,22,24,-1,-1,26,-1,-1,28,30,-1,-1,-1,-1,-1,-1,-1,-1],"split_conditions":[8.704639E5,1.8553856E1,-4.8330996E-2,8.1052216E1,8.199951E0,3.0654607E0,1.6967729E-2,2.611125E0,6.710055E-2,2.05E1,4.0014648E-1,7.749596E-3,8.940203E1,-2.6422236E-2,4.169089E0,1.795517E-2,-5.3073812E-2,6.529002E-2,4.5E0,-6.987978E-2,3.0035493E-3,2.6057977E-2,8.717308E-1,-1.3388873E-3,2.602812E-2,-1.0159516E-3,3.4812473E-2,-0E0,5.0074797E-2,-4.345689E-2,2.7546678E-2],"split_indices":[37,10,0,19,51,61,31,64,0,49,51,0,38,0,61,56,0,0,51,0,0,31,57,0,0,0,0,0,0,0,0],"split_type":[0,0,0,0,0,0,0,0,0,0,0,0,0,0,0,0,0,0,0,0,0,0,0,0,0,0,0,0,0,0,0],"sum_hessian":[7.93705E2,7.8750165E2,6.2033577E0,7.6084796E2,2.6653673E1,7.454747E2,1.5373296E1,2.2797712E1,3.8559606E0,6.8225006E2,6.3224625E1,5.22208E0,1.0151216E1,3.444995E0,1.9352718E1,6.7806744E2,4.182613E0,4.3862257E0,5.8838398E1,6.202368E0,3.9488478E0,1.1941934E1,7.410784E0,6.6375415E2,1.4313262E1,4.4606068E1,1.423233E1,3.6999009E0,8.242033E0,3.2138286E0,4.196955E0],"tree_param":{"num_deleted":"0","num_feature":"66","num_nodes":"31","size_leaf_vector":"1"}},{"base_weights":[5.2037537E-3,-2.2878784E-1,3.3271223E-2,3.3919215E-1,-4.4682348E-1,1.8046966E-2,4.5351428E-1,6.178698E-1,-1.9194951E-2,9.0806246E-2,-6.443698E-1,4.1334756E-2,1.0219456E-2,6.510466E-1,-1.1409402E-2,1.0130993E0,7.17562E-2,-5.0932956E-1,9.2731357E-1,-8.3003634E-1,3.498517E-2,-5.473811E-2,1.7224919E-2,-2.7996139E-3,8.713175E-1,1.5076682E-2,7.014429E-2,-2.4165599E-2,2.777733E-2,-5.7965487E-2,1.20879235E-2,1.0302056E-2,7.2333835E-2,7.6177395E-3,-9.7779214E-1,3.8204316E-2,-2.7202833E-2,2.5044236E-2,-3.665485E-2,5.5740174E-2,8.583969E-3,-0E0,-5.5777937E-2,1.5755737E-3,-4.9262445E-2],"categories":[],"categories_nodes":[],"categories_segments":[],"categories_sizes":[],"default_left":[0,0,0,0,0,0,0,0,0,0,0,0,0,0,0,0,0,0,0,0,0,0,0,0,0,0,0,0,0,0,0,0,0,0,0,0,0,0,0,0,0,0,0,0,0],"id":20,"left_children":[1,3,5,7,9,11,13,15,-1,17,19,-1,21,23,-1,25,27,29,31,33,35,-1,37,-1,39,-1,-1,-1,-1,-1,-1,-1,-1,-1,41,-1,-1,43,-1,-1,-1,-1,-1,-1,-1],"loss_changes":[5.226424E0,1.0710085E1,4.5091705E0,5.1104355E0,6.7098417E0,4.2738914E0,3.5130434E0,3.6727223E0,0E0,9.263506E0,5.8698883E0,0E0,5.208138E0,3.1675358E0,0E0,2.2289991E0,2.6063974E0,5.60733E0,2.4228163E0,5.4612217E0,4.9330316E0,0E0,3.9433055E0,0E0,2.2416544E0,0E0,0E0,0E0,0E0,0E0,0E0,0E0,0E0,0E0,4.142603E0,0E0,0E0,4.346836E0,0E0,0E0,0E0,0E0,0E0,0E0,0E0],"parents":[2147483647,0,0,1,1,2,2,3,3,4,4,5,5,6,6,7,7,9,9,10,10,12,12,13,13,15,15,16,16,17,17,18,18,19,19,20,20,22,22,24,24,34,34,37,37],"right_children":[2,4,6,8,10,12,14,16,-1,18,20,-1,22,24,-1,26,28,30,32,34,36,-1,38,-1,40,-1,-1,-1,-1,-1,-1,-1,-1,-1,42,-1,-1,44,-1,-1,-1,-1,-1,-1,-1],"split_conditions":[3.9990234E-1,1.5788018E1,3.8773663E0,3.3242998E3,2.4403011E1,-3.6326E4,9.299805E0,4.033613E1,-1.9194951E-2,6.406557E1,7.4533594E-1,4.1334756E-2,2.6364858E3,2.4947546E1,-1.1409402E-2,1.79248E-1,5.3796597E1,3.025961E3,2.0402138E1,3.6842392E1,9.141774E-1,-5.473811E-2,9.64099E1,-2.7996139E-3,5.2599854E1,1.5076682E-2,7.014429E-2,-2.4165599E-2,2.777733E-2,-5.7965487E-2,1.20879235E-2,1.0302056E-2,7.2333835E-2,7.6177395E-3,5.1210213E0,3.8204316E-2,-2.7202833E-2,3.7589462E0,-3.665485E-2,5.5740174E-2,8.583969E-3,-0E0,-5.5777937E-2,1.5755737E-3,-4.9262445E-2],"split_indices":[52,14,64,41,16,36,52,21,0,21,25,0,1,14,0,60,17,4,16,21,60,0,21,0,23,0,0,0,0,0,0,0,0,0,26,0,0,64,0,0,0,0,0,0,0],"split_type":[0,0,0,0,0,0,0,0,0,0,0,0,0,0,0,0,0,0,0,0,0,0,0,0,0,0,0,0,0,0,0,0,0,0,0,0,0,0,0,0,0,0,0,0,0],"sum_hessian":[7.9661285E2,8.417258E1,7.124403E2,2.3067564E1,6.1105015E1,6.88769E2,2.3671316E1,1.685536E1,6.2122045E0,1.642846E1,4.4676556E1,5.477785E0,6.832912E2,1.8501827E1,5.16949E0,9.176203E0,7.6791563E0,9.723851E0,6.704608E0,3.5028675E1,9.647881E0,3.2365606E0,6.800546E2,4.4641967E0,1.4037631E1,3.9661064E0,5.2100964E0,3.4803395E0,4.198817E0,4.992795E0,4.731056E0,3.4720352E0,3.2325728E0,4.4871097E0,3.0541567E1,4.2055664E0,5.4423146E0,6.741292E2,5.925394E0,9.86731E0,4.1703215E0,3.9806368E0,2.656093E1,6.7090234E2,3.226888E0],"tree_param":{"num_deleted":"0","num_feature":"66","num_nodes":"45","size_leaf_vector":"1"}},{"base_weights":[3.0923335E-2,-3.7369657E-2,1.8193719E-1,2.3303997E-2,-2.0923601E-1,3.4283894E-1,4.6047535E-2,-1.9158423E-2,6.6867E-1,7.203746E-2,-4.1348237E-1,1.8148239E-1,6.2487704E-1,-1.1103835E-1,3.6460906E-1,-2.0688042E-1,5.23685E-2,-2.5493533E-3,8.7470716E-1,-3.1878057E-1,2.6351714E-1,-8.953383E-1,-1.4425294E-1,-1.1605097E-3,8.4058607E-1,1.1500994E0,3.8577098E-1,5.3316187E-2,-4.7730833E-1,-2.959498E-1,5.48894E-1,4.5790076E-1,-2.9681265E-1,9.116576E-3,5.493858E-1,1.090961E0,-4.5558824E-3,3.3703807E-1,-7.528673E-1,7.613811E-1,1.7768923E-2,-1.2332261E0,-2.3361616E-1,-1.6010288E-2,-9.2293847E-1,1.1234518E-1,-7.219821E-1,1.1501821E0,-6.091116E-4,6.669413E-2,2.5854995E-2,-2.774701E-2,6.022213E-1,-5.51736E-2,9.0711063E-1,-7.165169E-1,4.821696E-2,-4.8474345E-2,1.5133113E-2,3.1613898E-1,1.1929299E0,-4.3829405E-3,5.670333E-2,-6.0096826E-2,-1.074089E-2,9.135483E-3,-6.705578E-3,-8.3096875E-3,3.931981E-2,6.671738E-2,2.4594633E-2,-2.3199387E-2,4.875348E-2,-5.952829E-3,-6.193052E-2,-4.2430824E-3,6.148835E-2,-8.026069E-3,4.9714144E-2,-2.4904137E-2,-7.398798E-2,1.6476104E-2,-3.480926E-2,-1.5120513E-2,3.219278E-2,-2.1296129E-2,-5.80566E-2,1.7353289E-2,-1.4451548E-2,-5.843956E-2,-3.2001883E-3,2.8177062E-2,7.2134666E-2,4.1471314E-2,-7.4124383E-3,-4.5502782E-2,2.9660033E-3,1.3622847E-2,6.53671E-2,-4.4148274E-2,8.877284E-3,2.6481098E-2,-1.9605331E-2,7.415333E-2,3.118198E-2],"categories":[],"categories_nodes":[],"categories_segments":[],"categories_sizes":[],"default_left":[0,0,0,0,0,0,0,0,0,0,0,0,0,0,0,0,0,0,0,0,0,0,0,0,0,0,0,0,0,0,0,0,0,0,0,0,0,0,0,0,0,0,0,0,0,0,0,0,0,0,0,0,0,0,0,0,0,0,0,0,0,0,0,0,0,0,0,0,0,0,0,0,0,0,0,0,0,0,0,0,0,0,0,0,0,0,0,0,0,0,0,0,0,0,0,0,0,0,0,0,0,0,0,0,0],"id":21,"left_children":[1,3,5,7,9,11,13,15,17,19,21,23,25,27,29,31,33,-1,35,37,39,41,43,45,47,49,51,53,55,57,59,61,63,65,67,69,-1,71,73,75,77,79,81,83,85,87,89,91,-1,-1,-1,-1,93,95,97,99,-1,-1,-1,101,103,-1,-1,-1,-1,-1,-1,-1,-1,-1,-1,-1,-1,-1,-1,-1,-1,-1,-1,-1,-1,-1,-1,-1,-1,-1,-1,-1,-1,-1,-1,-1,-1,-1,-1,-1,-1,-1,-1,-1,-1,-1,-1,-1,-1],"loss_changes":[8.217832E0,5.7341976E0,5.370433E0,1.1182497E1,8.303312E0,4.9535675E0,6.871844E0,5.142531E0,3.861969E0,4.6417794E0,1.0591723E1,8.943056E0,4.492424E0,5.5847726E0,5.7095804E0,6.440057E0,5.8791947E0,0E0,4.3236074E0,6.08374E0,5.00395E0,6.1799927E0,5.369358E0,4.928213E0,4.374892E0,5.26165E-1,6.34263E0,6.060737E0,1.0554957E1,4.563694E0,4.8587265E0,4.947213E0,6.5658455E0,6.3795147E0,3.910211E0,1.5369568E0,0E0,4.948483E0,3.606914E0,5.611385E0,5.299185E0,2.5541306E0,3.2184598E0,9.274904E0,2.4990988E-1,4.937741E0,2.2164073E0,1.02812E0,0E0,0E0,0E0,0E0,4.374714E0,5.7766137E0,1.358746E0,3.9815588E0,0E0,0E0,0E0,4.435364E0,3.6168098E-1,0E0,0E0,0E0,0E0,0E0,0E0,0E0,0E0,0E0,0E0,0E0,0E0,0E0,0E0,0E0,0E0,0E0,0E0,0E0,0E0,0E0,0E0,0E0,0E0,0E0,0E0,0E0,0E0,0E0,0E0,0E0,0E0,0E0,0E0,0E0,0E0,0E0,0E0,0E0,0E0,0E0,0E0,0E0,0E0],"parents":[2147483647,0,0,1,1,2,2,3,3,4,4,5,5,6,6,7,7,8,8,9,9,10,10,11,11,12,12,13,13,14,14,15,15,16,16,18,18,19,19,20,20,21,21,22,22,23,23,24,24,25,25,26,26,27,27,28,28,29,29,30,30,31,31,32,32,33,33,34,34,35,35,37,37,38,38,39,39,40,40,41,41,42,42,43,43,44,44,45,45,46,46,47,47,52,52,53,53,54,54,55,55,59,59,60,60],"right_children":[2,4,6,8,10,12,14,16,18,20,22,24,26,28,30,32,34,-1,36,38,40,42,44,46,48,50,52,54,56,58,60,62,64,66,68,70,-1,72,74,76,78,80,82,84,86,88,90,92,-1,-1,-1,-1,94,96,98,100,-1,-1,-1,102,104,-1,-1,-1,-1,-1,-1,-1,-1,-1,-1,-1,-1,-1,-1,-1,-1,-1,-1,-1,-1,-1,-1,-1,-1,-1,-1,-1,-1,-1,-1,-1,-1,-1,-1,-1,-1,-1,-1,-1,-1,-1,-1,-1,-1],"split_conditions":[2.994288E-3,3.3587422E3,1E0,3.3673E3,5.038011E1,2.6999512E0,8.756773E1,3.2759455E-1,6.4778013E0,1.5946253E-1,3.3746826E3,5.3311237E1,2.0958145E1,3.3999023E0,7.001953E-1,2.6083332E1,5.800049E0,-2.5493533E-3,2.569373E-3,8.9990234E-1,3.3846655E-1,3.3941667E3,9.057426E1,4.7496754E1,6.948216E1,1.1379663E1,-3.5162492E0,1.1276653E1,2.4545158E1,1.8205885E0,3.298203E3,3.3498E3,-2.9105237E0,5.5827103E1,-1.0755229E-3,8.840094E-1,-4.5558824E-3,3.3977563E3,1.7836607E1,7.5396374E-3,6.450194E1,3.3837666E3,5.150204E-1,1.6787894E0,2E0,3.3336882E3,-1.5288578E-1,9.707456E-3,-6.091116E-4,6.669413E-2,2.5854995E-2,-2.774701E-2,2.041819E1,-1.3148166E-3,1.6236402E0,7.235547E1,4.821696E-2,-4.8474345E-2,1.5133113E-2,3.1999512E0,8.198369E1,-4.3829405E-3,5.670333E-2,-6.0096826E-2,-1.074089E-2,9.135483E-3,-6.705578E-3,-8.3096875E-3,3.931981E-2,6.671738E-2,2.4594633E-2,-2.3199387E-2,4.875348E-2,-5.952829E-3,-6.193052E-2,-4.2430824E-3,6.148835E-2,-8.026069E-3,4.9714144E-2,-2.4904137E-2,-7.398798E-2,1.6476104E-2,-3.480926E-2,-1.5120513E-2,3.219278E-2,-2.1296129E-2,-5.80566E-2,1.7353289E-2,-1.4451548E-2,-5.843956E-2,-3.2001883E-3,2.8177062E-2,7.2134666E-2,4.1471314E-2,-7.4124383E-3,-4.5502782E-2,2.9660033E-3,1.3622847E-2,6.53671E-2,-4.4148274E-2,8.877284E-3,2.6481098E-2,-1.9605331E-2,7.415333E-2,3.118198E-2],"split_indices":[56,35,23,0,21,51,21,60,15,60,30,20,20,52,52,19,51,0,47,51,57,43,21,21,21,14,11,10,15,11,5,44,64,22,47,60,0,5,17,31,17,39,57,61,52,4,24,31,0,0,0,0,14,47,61,38,0,0,0,51,17,0,0,0,0,0,0,0,0,0,0,0,0,0,0,0,0,0,0,0,0,0,0,0,0,0,0,0,0,0,0,0,0,0,0,0,0,0,0,0,0,0,0,0,0],"split_type":[0,0,0,0,0,0,0,0,0,0,0,0,0,0,0,0,0,0,0,0,0,0,0,0,0,0,0,0,0,0,0,0,0,0,0,0,0,0,0,0,0,0,0,0,0,0,0,0,0,0,0,0,0,0,0,0,0,0,0,0,0,0,0,0,0,0,0,0,0,0,0,0,0,0,0,0,0,0,0,0,0,0,0,0,0,0,0,0,0,0,0,0,0,0,0,0,0,0,0,0,0,0,0,0,0],"sum_hessian":[7.937665E2,5.466467E2,2.471197E2,4.0422614E2,1.4242062E2,1.1211261E2,1.350071E2,3.8003665E2,2.418948E1,5.9979225E1,8.244141E1,7.258443E1,3.9528187E1,9.064612E1,4.4360985E1,1.0471596E2,2.753207E2,5.4434633E0,1.8746017E1,1.9332895E1,4.0646328E1,2.858469E1,5.3856712E1,5.7497833E1,1.5086592E1,1.1042941E1,2.8485245E1,6.29709E1,2.7675213E1,9.42588E0,3.49351E1,1.1857972E1,9.285799E1,2.5440146E2,2.091923E1,1.5295287E1,3.4507296E0,7.6971836E0,1.1635713E1,1.2604863E1,2.8041466E1,1.8250736E1,1.0333954E1,4.7227707E1,6.6290054E0,5.028501E1,7.2128224E0,1.0898436E1,4.1881566E0,7.577649E0,3.465292E0,4.94931E0,2.3535934E1,5.6597443E1,6.373459E0,2.4227554E1,3.447658E0,4.222438E0,5.203443E0,2.68703E1,8.064802E0,6.962663E0,4.8953085E0,6.4773726E0,8.638061E1,1.1520051E2,1.3920096E2,5.1742005E0,1.5745029E1,9.884974E0,5.410314E0,3.4641356E0,4.233048E0,5.6779466E0,5.957766E0,4.7066255E0,7.8982377E0,2.4332155E1,3.7093115E0,5.443783E0,1.2806953E1,4.6925807E0,5.6413736E0,3.3417046E1,1.3810661E1,3.1869864E0,3.442019E0,3.197236E1,1.8312649E1,3.7428634E0,3.4699593E0,4.713593E0,6.184842E0,1.808787E1,5.448064E0,5.967229E0,5.0630215E1,3.2115126E0,3.161946E0,2.0529766E1,3.6977878E0,2.0949112E1,5.9211874E0,4.1625857E0,3.9022164E0],"tree_param":{"num_deleted":"0","num_feature":"66","num_nodes":"105","size_leaf_vector":"1"}},{"base_weights":[-2.2329355E-2,-1.4395195E-2,-8.4329206E-1,9.825243E-3,-2.2673282E-1,-6.0597368E-2,-1.24985175E-2,-8.611564E-3,3.93945E-1,-6.3382226E-1,-5.3139284E-2,1.2610397E-2,-3.3492565E-1,7.025333E-1,-2.5661814E-1,-8.445367E-1,2.6282731E-2,6.2267846E-1,-2.6602474E-1,-1.3826731E-2,4.655468E-1,-5.0523704E-1,2.673419E-1,8.843316E-1,-7.575913E-3,-4.7033336E-2,1.6710049E-1,-9.287041E-3,-1.108374E0,9.408813E-1,-0E0,2.9239187E-1,-4.3497634E-1,-1.180523E-3,6.0510345E-2,-7.531912E-3,3.844764E-2,-3.9617654E-2,-2.5845272E-3,3.906482E-2,-1.4911458E-2,2.4305379E-2,6.304842E-2,4.026298E-2,-2.2170268E-2,-7.568289E-2,-3.0235732E-2,1.1788743E-2,6.697219E-2,6.076413E-2,-1.6942926E-2,-6.670137E-2,-1.1856309E-2],"categories":[],"categories_nodes":[],"categories_segments":[],"categories_sizes":[],"default_left":[0,0,0,0,0,0,0,0,0,0,0,0,0,0,0,0,0,0,0,0,0,0,0,0,0,0,0,0,0,0,0,0,0,0,0,0,0,0,0,0,0,0,0,0,0,0,0,0,0,0,0,0,0],"id":22,"left_children":[1,3,5,7,9,-1,-1,11,13,15,17,19,21,23,25,27,-1,29,31,33,35,37,39,41,-1,-1,43,-1,45,47,-1,49,51,-1,-1,-1,-1,-1,-1,-1,-1,-1,-1,-1,-1,-1,-1,-1,-1,-1,-1,-1,-1],"loss_changes":[5.043111E0,4.050055E0,1.1731501E0,5.0221863E0,5.5947437E0,0E0,0E0,4.688385E0,6.744916E0,6.299594E0,8.443067E0,7.6123514E0,4.3996596E0,3.6852512E0,3.4451947E0,3.2501183E0,0E0,2.8557858E0,4.3636913E0,7.0635786E0,6.7321706E0,4.133569E0,3.0830553E0,2.0188131E0,0E0,0E0,3.3538344E0,0E0,1.816164E0,2.159914E0,0E0,6.823708E0,5.734014E0,0E0,0E0,0E0,0E0,0E0,0E0,0E0,0E0,0E0,0E0,0E0,0E0,0E0,0E0,0E0,0E0,0E0,0E0,0E0,0E0],"parents":[2147483647,0,0,1,1,2,2,3,3,4,4,7,7,8,8,9,9,10,10,11,11,12,12,13,13,14,14,15,15,17,17,18,18,19,19,20,20,21,21,22,22,23,23,26,26,28,28,29,29,31,31,32,32],"right_children":[2,4,6,8,10,-1,-1,12,14,16,18,20,22,24,26,28,-1,30,32,34,36,38,40,42,-1,-1,44,-1,46,48,-1,50,52,-1,-1,-1,-1,-1,-1,-1,-1,-1,-1,-1,-1,-1,-1,-1,-1,-1,-1,-1,-1],"split_conditions":[8.704639E5,1.5001295E2,5.9744728E1,8.359134E1,1.6199951E1,-6.0597368E-2,-1.24985175E-2,9.190038E-1,5.4594326E1,2.0701064E2,8.069325E1,7.9859E-1,9.6725315E-1,6.8263686E-3,3.33E3,2.1100097E0,2.6282731E-2,8.850401E1,1.3726549E0,9.208524E1,-7.170309E-2,1.141407E1,1.983114E-3,1.03104925E1,-7.575913E-3,-4.7033336E-2,3.3463945E3,-9.287041E-3,1.15998535E1,3.75E0,-0E0,3.7437162E5,2.898E3,-1.180523E-3,6.0510345E-2,-7.531912E-3,3.844764E-2,-3.9617654E-2,-2.5845272E-3,3.906482E-2,-1.4911458E-2,2.4305379E-2,6.304842E-2,4.026298E-2,-2.2170268E-2,-7.568289E-2,-3.0235732E-2,1.1788743E-2,6.697219E-2,6.076413E-2,-1.6942926E-2,-6.670137E-2,-1.1856309E-2],"split_indices":[37,22,38,17,23,0,0,63,16,22,17,24,63,56,40,58,0,21,11,21,50,15,47,15,0,0,1,0,23,58,0,37,43,0,0,0,0,0,0,0,0,0,0,0,0,0,0,0,0,0,0,0,0],"split_type":[0,0,0,0,0,0,0,0,0,0,0,0,0,0,0,0,0,0,0,0,0,0,0,0,0,0,0,0,0,0,0,0,0,0,0,0,0,0,0,0,0,0,0,0,0,0,0,0,0,0,0,0,0],"sum_hessian":[7.882687E2,7.818518E2,6.4168315E0,7.022338E2,7.9618004E1,3.2107E0,3.2061312E0,6.707564E2,3.1477415E1,2.2836802E1,5.6781204E1,6.3041223E2,4.0344196E1,2.1400246E1,1.0077169E1,1.9627686E1,3.209116E0,1.3028084E1,4.375312E1,5.963528E2,3.405941E1,3.1705538E1,8.638657E0,1.7711672E1,3.6885734E0,3.47811E0,6.5990596E0,6.208419E0,1.3419267E1,8.370009E0,4.658074E0,9.855695E0,3.3897427E1,5.926779E2,3.6748803E0,1.1294801E1,2.2764608E1,1.8822512E1,1.2883027E1,4.4186535E0,4.2200036E0,9.851592E0,7.8600802E0,3.1505733E0,3.448486E0,6.214624E0,7.2046423E0,3.6879802E0,4.6820297E0,3.6916718E0,6.1640224E0,4.9871716E0,2.8910254E1],"tree_param":{"num_deleted":"0","num_feature":"66","num_nodes":"53","size_leaf_vector":"1"}},{"base_weights":[2.1876222E-2,1.3675141E-1,-2.9827109E-2,9.466818E-2,8.0238074E-1,-1.7766861E-2,-8.9935213E-1,-2.80525E-1,1.7394336E-1,-1.65345E-2,1.2274599E0,9.206641E-2,-1.08629644E-1,-1.728131E-2,-6.0812462E-2,3.7132744E-2,-4.19421E-1,-4.674019E-1,2.165245E-1,7.42144E-2,2.7697427E-2,7.060493E-3,3.0891806E-1,-2.86552E-1,-4.931855E-3,-6.3237685E-1,2.0150498E-1,-1.11467E0,3.550571E-2,8.1987107E-1,1.7744511E-1,1.0447631E-1,-4.001791E-1,-2.6586682E-1,4.558941E-1,6.5824404E-2,-4.643813E-1,2.413978E-1,-1.5865253E-1,-5.905808E-3,-5.064174E-2,3.8281396E-2,-2.9622197E-2,-2.7918015E-2,-7.308005E-2,6.3970655E-2,1.0402367E-2,-8.144767E-3,1.46872895E-2,2.5772478E-3,4.4943113E-2,-5.171751E-2,-4.5376015E-3,2.0812383E-2,-3.0745102E-2,3.7169866E-2,1.1926929E-3,-2.3926213E-2,2.3807673E-2,-3.545767E-2,-1.5429667E-3,4.143775E-2,3.1269689E-3,-1.0706951E-2,3.7783306E-2],"categories":[],"categories_nodes":[],"categories_segments":[],"categories_sizes":[],"default_left":[0,0,0,0,0,0,0,0,0,0,0,0,0,0,0,0,0,0,0,0,0,0,0,0,0,0,0,0,0,0,0,0,0,0,0,0,0,0,0,0,0,0,0,0,0,0,0,0,0,0,0,0,0,0,0,0,0,0,0,0,0,0,0,0,0],"id":23,"left_children":[1,3,5,7,9,11,13,15,17,-1,19,21,23,-1,-1,-1,25,27,29,-1,-1,31,33,35,37,39,41,43,-1,45,47,49,51,53,55,57,59,61,63,-1,-1,-1,-1,-1,-1,-1,-1,-1,-1,-1,-1,-1,-1,-1,-1,-1,-1,-1,-1,-1,-1,-1,-1,-1,-1],"loss_changes":[4.7902946E0,6.846812E0,5.7092476E0,7.079277E0,7.5329294E0,5.482986E0,7.31565E-1,6.1707706E0,5.4361577E0,0E0,8.5965157E-1,4.5424433E0,5.5227365E0,0E0,0E0,0E0,5.0929737E0,1.0275462E1,4.11401E0,0E0,0E0,7.1411276E0,6.0162582E0,6.99199E0,7.282566E0,5.2614946E0,5.0148396E0,6.106901E-1,0E0,2.6257162E0,6.9904184E0,5.9976635E0,6.6021376E0,3.7654119E0,6.8488855E0,8.656014E0,7.7271605E0,7.6060643E0,6.1340847E0,0E0,0E0,0E0,0E0,0E0,0E0,0E0,0E0,0E0,0E0,0E0,0E0,0E0,0E0,0E0,0E0,0E0,0E0,0E0,0E0,0E0,0E0,0E0,0E0,0E0,0E0],"parents":[2147483647,0,0,1,1,2,2,3,3,4,4,5,5,6,6,7,7,8,8,10,10,11,11,12,12,16,16,17,17,18,18,21,21,22,22,23,23,24,24,25,25,26,26,27,27,29,29,30,30,31,31,32,32,33,33,34,34,35,35,36,36,37,37,38,38],"right_children":[2,4,6,8,10,12,14,16,18,-1,20,22,24,-1,-1,-1,26,28,30,-1,-1,32,34,36,38,40,42,44,-1,46,48,50,52,54,56,58,60,62,64,-1,-1,-1,-1,-1,-1,-1,-1,-1,-1,-1,-1,-1,-1,-1,-1,-1,-1,-1,-1,-1,-1,-1,-1,-1,-1],"split_conditions":[-6.4876373E-4,-7.1775686E-4,1.153085E0,2.909884E3,1.4225072E1,1E1,-1.9984739E-1,2.6545E3,3.9990234E-1,-1.65345E-2,6.26585E0,5E0,7.440656E-1,-1.728131E-2,-6.0812462E-2,3.7132744E-2,2.5E0,1.4332028E-2,1.8353086E1,7.42144E-2,2.7697427E-2,1.5500244E0,2.934713E3,-8.005993E-1,3E0,9.9362545E-3,5.4444065E0,2.0019531E-1,3.550571E-2,4.4937103E5,-2.7400146E0,1.1900146E0,4.7236137E1,1.6331997E1,2.3999023E0,-4.0588033E-1,3.0317307E-1,2.0304592E1,3.4400461E3,-5.905808E-3,-5.064174E-2,3.8281396E-2,-2.9622197E-2,-2.7918015E-2,-7.308005E-2,6.3970655E-2,1.0402367E-2,-8.144767E-3,1.46872895E-2,2.5772478E-3,4.4943113E-2,-5.171751E-2,-4.5376015E-3,2.0812383E-2,-3.0745102E-2,3.7169866E-2,1.1926929E-3,-2.3926213E-2,2.3807673E-2,-3.545767E-2,-1.5429667E-3,