{"learner":{"attributes":{"best_iteration":"25","best_score":"0.6843134955565134"},"feature_names":[],"feature_types":[],"gradient_booster":{"model":{"cats":{"enc":[],"feature_segments":[],"sorted_idx":[]},"gbtree_model_param":{"num_parallel_tree":"1","num_trees":"76"},"iteration_indptr":[0,1,2,3,4,5,6,7,8,9,10,11,12,13,14,15,16,17,18,19,20,21,22,23,24,25,26,27,28,29,30,31,32,33,34,35,36,37,38,39,40,41,42,43,44,45,46,47,48,49,50,51,52,53,54,55,56,57,58,59,60,61,62,63,64,65,66,67,68,69,70,71,72,73,74,75,76],"tree_info":[0,0,0,0,0,0,0,0,0,0,0,0,0,0,0,0,0,0,0,0,0,0,0,0,0,0,0,0,0,0,0,0,0,0,0,0,0,0,0,0,0,0,0,0,0,0,0,0,0,0,0,0,0,0,0,0,0,0,0,0,0,0,0,0,0,0,0,0,0,0,0,0,0,0,0,0],"trees":[{"base_weights":[-1.8041257E-2,4.0060222E-1,-8.20225E-2,6.9714177E-1,-9.361764E-2,-1.686342E-1,2.0593351E-1,-6.8294285E-3,8.554945E-1,-3.2599667E-1,1.916055E-2,-1.0898184E-1,-6.284197E-1,2.6053426E-1,-2.8199011E-2,1.3399866E0,4.422554E-1,2.3572549E-1,-7.4613607E-1,-5.946529E-2,-8.84999E-1,-8.406361E-1,6.372773E-2,-4.483969E-3,5.604436E-1,4.5774944E-2,1.879102E-2,2.3572862E-2,-2.0570436E-3,-5.2315155E-3,2.1402335E-2,-3.3986147E-2,-7.6693874E-3,2.6594771E-2,-2.6429796E-3,-8.5571466E-4,-3.2936703E-2,-0E0,-3.2430626E-2,2.01795E-2,-2.0378701E-2,-4.9372143E-3,2.340315E-2,-1.2297492E-2,2.0032268E-2],"categories":[],"categories_nodes":[],"categories_segments":[],"categories_sizes":[],"default_left":[0,0,0,0,0,0,0,0,0,0,0,0,0,0,0,0,0,0,0,0,0,0,0,0,0,0,0,0,0,0,0,0,0,0,0,0,0,0,0,0,0,0,0,0,0],"id":0,"left_children":[1,3,5,7,9,11,13,-1,15,17,-1,19,21,23,-1,25,27,29,31,33,35,37,39,41,43,-1,-1,-1,-1,-1,-1,-1,-1,-1,-1,-1,-1,-1,-1,-1,-1,-1,-1,-1,-1],"loss_changes":[3.718471E1,2.7303818E1,3.0198162E1,1.7440987E1,1.1823502E1,2.5131239E1,1.7357895E1,0E0,1.8415604E1,1.3102499E1,0E0,3.1266304E1,1.59949E1,2.1538359E1,0E0,3.8966522E0,1.0184448E1,4.943886E0,4.9850006E0,2.0790026E1,8.33033E0,1.6710598E1,1.1865664E1,1.7668404E1,1.3559254E1,0E0,0E0,0E0,0E0,0E0,0E0,0E0,0E0,0E0,0E0,0E0,0E0,0E0,0E0,0E0,0E0,0E0,0E0,0E0,0E0],"parents":[2147483647,0,0,1,1,2,2,3,3,4,4,5,5,6,6,8,8,9,9,11,11,12,12,13,13,15,15,16,16,17,17,18,18,19,19,20,20,21,21,22,22,23,23,24,24],"right_children":[2,4,6,8,10,12,14,-1,16,18,-1,20,22,24,-1,26,28,30,32,34,36,38,40,42,44,-1,-1,-1,-1,-1,-1,-1,-1,-1,-1,-1,-1,-1,-1,-1,-1,-1,-1,-1,-1],"split_conditions":[4.8966355E0,2.52211E3,9.0181994E-1,9.3487847E-1,5.076996E0,3.33398E3,7.792864E0,-6.8294285E-3,-7.3356354E-1,8.348706E0,1.916055E-2,1.1068511E0,2.8504274E0,8.8675E3,-2.8199011E-2,5.098266E-1,3.6437192E0,6.8708056E-1,7.2791E3,-2.1127841E0,3.1688192E-1,8.3696E3,2.7680717E1,1.2692979E1,1.258644E-3,4.5774944E-2,1.879102E-2,2.3572862E-2,-2.0570436E-3,-5.2315155E-3,2.1402335E-2,-3.3986147E-2,-7.6693874E-3,2.6594771E-2,-2.6429796E-3,-8.5571466E-4,-3.2936703E-2,-0E0,-3.2430626E-2,2.01795E-2,-2.0378701E-2,-4.9372143E-3,2.340315E-2,-1.2297492E-2,2.0032268E-2],"split_indices":[25,10,43,19,40,4,19,0,37,21,0,20,19,3,0,46,19,34,17,33,28,17,21,24,44,0,0,0,0,0,0,0,0,0,0,0,0,0,0,0,0,0,0,0,0],"split_type":[0,0,0,0,0,0,0,0,0,0,0,0,0,0,0,0,0,0,0,0,0,0,0,0,0,0,0,0,0,0,0,0,0,0,0,0,0,0,0,0,0,0,0,0,0],"sum_hessian":[1.3919692E3,1.8279897E2,1.2091703E3,1.1462395E2,6.8175026E1,9.312259E2,2.7794434E2,1.623215E1,9.83918E1,5.2692055E1,1.5482973E1,8.2634125E2,1.0488466E2,2.6645697E2,1.1487367E1,4.370194E1,5.4689857E1,2.2225557E1,3.0466496E1,7.78394E2,4.7947273E1,8.066129E1,2.4223362E1,1.4109483E2,1.2536214E2,3.3213474E1,1.0488465E1,3.296375E1,2.1726107E1,1.1737092E1,1.0488465E1,1.5732698E1,1.4733797E1,2.1476381E1,7.569176E2,1.023874E1,3.770853E1,1.7980227E1,6.268107E1,1.3734896E1,1.0488465E1,1.1836983E2,2.2725008E1,1.1737092E1,1.13625046E2],"tree_param":{"num_deleted":"0","num_feature":"50","num_nodes":"45","size_leaf_vector":"1"}},{"base_weights":[-2.083592E-3,4.0147364E-1,-6.714916E-2,7.4362564E-1,-1.4680235E-1,-3.146279E-2,-7.277869E-1,3.8380238E-1,1.1424462E0,2.2878153E-2,-3.633207E-1,9.4789036E-2,-2.0993154E-1,-9.903603E-1,1.3506191E-2,9.55387E-1,-2.064198E-1,1.4327086E0,1.0531024E-2,-7.18113E-1,1.3746949E-1,6.801229E-1,-2.3788197E-2,2.0693849E-1,-3.0346304E-1,-3.9428622E-1,-4.328383E-2,-4.1162036E-3,4.3768138E-2,2.9486178E-3,-2.5056578E-2,1.9910222E-2,4.9755674E-2,-4.7638025E-3,-3.6194526E-2,1.7944347E-2,-1.1958845E-2,2.6633741E-2,-0E0,-5.5887033E-3,7.0166783E-3,2.9733121E-2,-5.5751E-4,-1.531976E-2,-2.8287268E-3,-3.321495E-2,1.0624635E-2],"categories":[],"categories_nodes":[],"categories_segments":[],"categories_sizes":[],"default_left":[0,0,0,0,0,0,0,0,0,0,0,0,0,0,0,0,0,0,0,0,0,0,0,0,0,0,0,0,0,0,0,0,0,0,0,0,0,0,0,0,0,0,0,0,0,0,0],"id":1,"left_children":[1,3,5,7,9,11,13,15,17,-1,19,21,23,25,-1,27,29,31,-1,33,35,37,39,41,43,45,-1,-1,-1,-1,-1,-1,-1,-1,-1,-1,-1,-1,-1,-1,-1,-1,-1,-1,-1,-1,-1],"loss_changes":[3.664303E1,3.6721428E1,2.8083578E1,1.6007576E1,1.4777588E1,2.5946878E1,1.9633526E1,2.2570177E1,1.1403435E1,0E0,1.1302182E1,4.694981E1,1.8734486E1,1.2178146E1,0E0,1.942111E1,6.6723E0,4.6803513E0,0E0,9.14958E0,6.6914506E0,1.621251E1,2.3410923E1,1.5915615E1,1.66167E1,1.3423402E1,0E0,0E0,0E0,0E0,0E0,0E0,0E0,0E0,0E0,0E0,0E0,0E0,0E0,0E0,0E0,0E0,0E0,0E0,0E0,0E0,0E0],"parents":[2147483647,0,0,1,1,2,2,3,3,4,4,5,5,6,6,7,7,8,8,10,10,11,11,12,12,13,13,15,15,16,16,17,17,19,19,20,20,21,21,22,22,23,23,24,24,25,25],"right_children":[2,4,6,8,10,12,14,16,18,-1,20,22,24,26,-1,28,30,32,-1,34,36,38,40,42,44,46,-1,-1,-1,-1,-1,-1,-1,-1,-1,-1,-1,-1,-1,-1,-1,-1,-1,-1,-1,-1,-1],"split_conditions":[4.9698243E0,2.52211E3,6.1621644E-2,2.35414E3,-6.7392445E-1,3E0,9.417611E0,3.9603403E-1,1.8690424E1,2.2878153E-2,7.38825E3,4.601527E1,-5E-1,1.88801E-1,1.3506191E-2,1.4000617E-3,1.2343637E0,3.3353978E-1,1.0531024E-2,8.282074E0,2.69485E3,3.9558843E-2,1.5326108E0,2.49206E3,8.3948E3,3.2166256E1,-4.328383E-2,-4.1162036E-3,4.3768138E-2,2.9486178E-3,-2.5056578E-2,1.9910222E-2,4.9755674E-2,-4.7638025E-3,-3.6194526E-2,1.7944347E-2,-1.1958845E-2,2.6633741E-2,-0E0,-5.5887033E-3,7.0166783E-3,2.9733121E-2,-5.5751E-4,-1.531976E-2,-2.8287268E-3,-3.321495E-2,1.0624635E-2],"split_indices":[25,10,49,30,20,22,31,46,37,0,17,27,6,43,0,11,7,31,0,21,16,49,5,16,42,21,0,0,0,0,0,0,0,0,0,0,0,0,0,0,0,0,0,0,0,0,0],"split_type":[0,0,0,0,0,0,0,0,0,0,0,0,0,0,0,0,0,0,0,0,0,0,0,0,0,0,0,0,0,0,0,0,0,0,0,0,0,0,0,0,0,0,0,0,0,0,0],"sum_hessian":[1.3998561E3,1.925771E2,1.2072789E3,1.189204E2,7.36567E1,1.1471183E3,6.016064E1,6.420737E1,5.4713036E1,1.3235279E1,6.0421425E1,6.70478E2,4.7664026E2,4.967244E1,1.0488201E1,3.273474E1,3.1472624E1,3.8975918E1,1.5737117E1,3.569631E1,2.4725117E1,1.12857834E2,5.576202E2,8.614291E1,3.9049734E2,2.2718206E1,2.6954233E1,1.0243403E1,2.2491337E1,2.123229E1,1.0240334E1,1.0243562E1,2.8732357E1,1.7734444E1,1.7961863E1,1.3737361E1,1.0987757E1,8.639118E1,2.646665E1,3.433237E2,2.1429648E2,1.8977701E1,6.716521E1,1.9425058E2,1.9624678E2,1.1732209E1,1.0985997E1],"tree_param":{"num_deleted":"0","num_feature":"50","num_nodes":"47","size_leaf_vector":"1"}},{"base_weights":[5.6708376E-3,1.0621644E0,-1.9434793E-2,4.3917544E-2,6.6306004E-3,1.08715065E-1,-2.5057396E-1,6.2377757E-1,3.1373944E-2,5.6131256E-1,-3.2359684E-1,1.880353E-1,1.0326163E0,-1.02429196E-1,3.778071E-1,3.8020194E-2,-5.238379E-3,-2.7672827E-1,-1.213095E0,1.9511582E-2,-1.791045E-2,4.856351E-4,3.7389956E-2,3.0511657E-2,-4.2878618E-3,8.784925E-4,2.00761E-2,-6.119739E-3,-2.8519018E-2,-5.1061936E-2,-1.6833013E-2],"categories":[],"categories_nodes":[],"categories_segments":[],"categories_sizes":[],"default_left":[0,0,0,0,0,0,0,0,0,0,0,0,0,0,0,0,0,0,0,0,0,0,0,0,0,0,0,0,0,0,0],"id":2,"left_children":[1,3,5,-1,-1,7,9,11,13,15,17,19,21,23,25,-1,-1,27,29,-1,-1,-1,-1,-1,-1,-1,-1,-1,-1,-1,-1],"loss_changes":[3.7667683E1,9.975498E0,4.06111E1,0E0,0E0,3.4676323E1,2.9085367E1,1.9484291E1,3.569804E1,2.1653332E1,1.769366E1,2.1083961E1,1.1935287E1,2.476017E1,2.1442356E1,0E0,0E0,2.0288036E1,4.8351116E0,0E0,0E0,0E0,0E0,0E0,0E0,0E0,0E0,0E0,0E0,0E0,0E0],"parents":[2147483647,0,0,1,1,2,2,5,5,6,6,7,7,8,8,9,9,10,10,11,11,12,12,13,13,14,14,17,17,18,18],"right_children":[2,4,6,-1,-1,8,10,12,14,16,18,20,22,24,26,-1,-1,28,30,-1,-1,-1,-1,-1,-1,-1,-1,-1,-1,-1,-1],"split_conditions":[2.31784E3,5.4507828E1,3.0659935E-2,4.3917544E-2,6.6306004E-3,-1.0683992E0,-1.8580941E0,-1.4913869E0,8.9541E3,3.4654792E-3,1.343351E0,8.64585E3,1.305186E-3,4.63455E3,6.465834E-1,3.8020194E-2,-5.238379E-3,3.3631199E3,5.572E3,1.9511582E-2,-1.791045E-2,4.856351E-4,3.7389956E-2,3.0511657E-2,-4.2878618E-3,8.784925E-4,2.00761E-2,-6.119739E-3,-2.8519018E-2,-5.1061936E-2,-1.6833013E-2],"split_indices":[4,27,14,0,0,15,33,15,3,11,15,17,44,17,28,0,0,2,12,0,0,0,0,0,0,0,0,0,0,0,0],"split_type":[0,0,0,0,0,0,0,0,0,0,0,0,0,0,0,0,0,0,0,0,0,0,0,0,0,0,0,0,0,0,0],"sum_hessian":[1.3987047E3,3.1969608E1,1.3667351E3,2.0732416E1,1.1237192E1,8.782023E2,4.885328E2,1.1288707E2,7.653152E2,3.919698E1,4.4933582E2,5.5944275E1,5.6942795E1,5.515505E2,2.137647E2,1.9983067E1,1.9213913E1,4.286244E2,2.071143E1,3.5717247E1,2.0227028E1,1.0486148E1,4.6456646E1,1.7983854E1,5.335666E2,9.8623085E1,1.1514162E2,3.887138E2,3.9910595E1,1.0476815E1,1.0234614E1],"tree_param":{"num_deleted":"0","num_feature":"50","num_nodes":"31","size_leaf_vector":"1"}},{"base_weights":[3.1506668E-3,9.854483E-1,-2.4377532E-2,5.2062616E-2,3.9011294E-3,-7.939582E-1,7.059866E-3,-0E0,-1.4093297E0,1.2824467E-1,-1.9595376E-1,1.4204535E-2,-1.8399019E-2,-2.206372E-2,-5.1910587E-2,1.7789286E-1,-3.4922805E-1,-3.1238756E-1,2.9623342E-1,-1.2085648E-2,6.7584254E-3,3.3065718E-2,-2.0074338E-2,9.180911E-3,-1.14172E-2,-4.14378E-3,1.9364117E-2],"categories":[],"categories_nodes":[],"categories_segments":[],"categories_sizes":[],"default_left":[0,0,0,0,0,0,0,0,0,0,0,0,0,0,0,0,0,0,0,0,0,0,0,0,0,0,0],"id":3,"left_children":[1,3,5,-1,-1,7,9,11,13,15,17,-1,-1,-1,-1,19,21,23,25,-1,-1,-1,-1,-1,-1,-1,-1],"loss_changes":[3.8397293E1,2.368151E1,3.3389305E1,0E0,0E0,2.58143E1,3.2231026E1,7.604295E0,4.023819E0,1.9480255E1,2.810636E1,0E0,0E0,0E0,0E0,2.0556099E1,3.621963E1,1.687358E1,1.4478137E1,0E0,0E0,0E0,0E0,0E0,0E0,0E0,0E0],"parents":[2147483647,0,0,1,1,2,2,5,5,6,6,7,7,8,8,9,9,10,10,15,15,16,16,17,17,18,18],"right_children":[2,4,6,-1,-1,8,10,12,14,16,18,-1,-1,-1,-1,20,22,24,26,-1,-1,-1,-1,-1,-1,-1,-1],"split_conditions":[2.3244E3,6.292187E-1,2.30558E3,5.2062616E-2,3.9011294E-3,-1.711203E-1,7.7404914E0,2.229069E0,5.7495E3,1E0,9.0181994E-1,1.4204535E-2,-1.8399019E-2,-2.206372E-2,-5.1910587E-2,-7.159733E-1,2.61913E3,-1.8580941E0,1.00046E4,-1.2085648E-2,6.7584254E-3,3.3065718E-2,-2.0074338E-2,9.180911E-3,-1.14172E-2,-4.14378E-3,1.9364117E-2],"split_indices":[1,34,0,0,0,36,40,9,3,26,43,0,0,0,0,9,10,33,3,0,0,0,0,0,0,0,0],"split_type":[0,0,0,0,0,0,0,0,0,0,0,0,0,0,0,0,0,0,0,0,0,0,0,0,0,0,0],"sum_hessian":[1.4003127E3,3.771954E1,1.3625933E3,1.9238829E1,1.8480711E1,5.3149693E1,1.3094435E3,2.3967272E1,2.918242E1,8.217487E2,4.8769482E2,1.3234764E1,1.0732508E1,1.0980767E1,1.8201653E1,7.458671E2,7.588155E1,3.9551205E2,9.218277E1,5.490799E1,6.9095917E2,1.298088E1,6.2900673E1,3.8203186E1,3.5730887E2,4.0715794E1,5.1466972E1],"tree_param":{"num_deleted":"0","num_feature":"50","num_nodes":"27","size_leaf_vector":"1"}},{"base_weights":[6.6465707E-3,1.23763464E-1,-1.9310994E-1,4.957102E-1,1.0232465E-2,6.353191E-1,-2.3675847E-1,9.9271894E-1,2.9133123E-1,-9.796866E-2,3.3756292E-1,4.0231347E-2,1.2095091E-3,-1.2385598E0,-1.8680744E-1,-3.5034032E-3,1.3056828E0,-2.3680009E-2,4.162404E-1,3.1999078E-2,-1.3463E-1,8.491298E-3,7.7528495E-1,-2.0793403E-2,-4.771349E-2,7.112836E-1,-2.5197902E-1,4.6987977E-2,9.327315E-3,3.5326775E-2,4.936414E-3,2.7530279E-2,-5.062578E-3,-1.1502068E-2,8.537288E-3,4.1517578E-2,1.3584202E-2,4.101733E-2,7.212682E-3,-2.4891915E-2,-4.4558556E-3],"categories":[],"categories_nodes":[],"categories_segments":[],"categories_sizes":[],"default_left":[0,0,0,0,0,0,0,0,0,0,0,0,0,0,0,0,0,0,0,0,0,0,0,0,0,0,0,0,0,0,0,0,0,0,0,0,0,0,0,0,0],"id":4,"left_children":[1,3,5,7,9,11,13,15,17,19,21,-1,-1,23,25,-1,27,-1,29,-1,31,33,35,-1,-1,37,39,-1,-1,-1,-1,-1,-1,-1,-1,-1,-1,-1,-1,-1,-1],"loss_changes":[3.265715E1,3.700593E1,1.8570272E1,1.9924335E1,2.4170996E1,9.9504E0,2.3598244E1,2.112922E1,2.0067995E1,2.1422459E1,2.4066622E1,0E0,0E0,2.1012573E0,2.7388678E1,0E0,1.0555107E1,0E0,2.4695475E1,0E0,1.7556595E1,1.0729961E1,1.2631107E1,0E0,0E0,8.584522E0,2.5586842E1,0E0,0E0,0E0,0E0,0E0,0E0,0E0,0E0,0E0,0E0,0E0,0E0,0E0,0E0],"parents":[2147483647,0,0,1,1,2,2,3,3,4,4,5,5,6,6,7,7,8,8,9,9,10,10,13,13,14,14,16,16,18,18,20,20,21,21,22,22,25,25,26,26],"right_children":[2,4,6,8,10,12,14,16,18,20,22,-1,-1,24,26,-1,28,-1,30,-1,32,34,36,-1,-1,38,40,-1,-1,-1,-1,-1,-1,-1,-1,-1,-1,-1,-1,-1,-1],"split_conditions":[3.0659935E-2,-6.935493E-1,2.3243E3,-4.453388E-1,9.1777E3,5.7495E3,2.31283E3,-8.584072E-1,2.32811E3,2.30764E3,8.2835996E-1,4.0231347E-2,1.2095091E-3,6.529264E-1,2.3936794E3,-3.5034032E-3,9.576E3,-2.3680009E-2,2.51583E3,3.1999078E-2,4.63455E3,2.1050575E-1,7.86796E3,-2.0793403E-2,-4.771349E-2,3.6058786E0,2.47316E3,4.6987977E-2,9.327315E-3,3.5326775E-2,4.936414E-3,2.7530279E-2,-5.062578E-3,-1.1502068E-2,8.537288E-3,4.1517578E-2,1.3584202E-2,4.101733E-2,7.212682E-3,-2.4891915E-2,-4.4558556E-3],"split_indices":[14,15,4,33,3,3,30,33,39,30,28,0,0,28,8,0,12,0,1,0,17,9,35,0,0,48,30,0,0,0,0,0,0,0,0,0,0,0,0,0,0],"split_type":[0,0,0,0,0,0,0,0,0,0,0,0,0,0,0,0,0,0,0,0,0,0,0,0,0,0,0,0,0,0,0,0,0,0,0,0,0,0,0,0,0],"sum_hessian":[1.3953718E3,8.81458E2,5.139138E2,2.043155E2,6.771425E2,2.44702E1,4.894436E2,5.7699116E1,1.466164E2,5.0829544E2,1.6884705E2,1.0235637E1,1.4234563E1,2.1639702E1,4.678039E2,1.2481114E1,4.5218E1,1.4225012E1,1.3239137E2,1.4238993E1,4.9405646E2,9.761986E1,7.122719E1,1.0207761E1,1.1431941E1,3.0460451E1,4.3734344E2,3.4978237E1,1.0239761E1,3.148645E1,1.0090493E2,1.4243856E1,4.798126E2,3.943848E1,5.8181377E1,2.299161E1,4.823558E1,1.1489175E1,1.8971275E1,6.4616844E1,3.727266E2],"tree_param":{"num_deleted":"0","num_feature":"50","num_nodes":"41","size_leaf_vector":"1"}},{"base_weights":[-6.667932E-3,3.4384492E-1,-7.2244585E-2,1.5335295E-1,1.0544767E0,-1.9598123E-1,1.1673717E-1,6.427568E-1,-1.3849473E-1,1.2307744E0,1.2932756E-2,2.959142E-2,-2.3071298E-1,4.134296E-1,-1.2635197E-1,8.432165E-1,-7.4089025E-3,-6.9234645E-1,1.5047316E-1,1.9783568E-2,4.2971134E-2,-1.9478306E-1,-8.2062167E-1,5.5748814E-1,-8.184727E-2,-6.142004E-1,1.590841E-1,3.2491915E-2,6.138977E-3,7.2415485E-3,-3.172573E-2,2.8779987E-2,-3.460921E-3,-1.2282285E-2,-2.4679203E-3,-6.2920162E-3,-3.8539626E-2,1.0039402E-2,3.5497434E-2,-1.4427853E-2,2.1825904E-2,-4.1038044E-2,-1.361601E-2,1.0866396E-2,-1.3775007E-2],"categories":[],"categories_nodes":[],"categories_segments":[],"categories_sizes":[],"default_left":[0,0,0,0,0,0,0,0,0,0,0,0,0,0,0,0,0,0,0,0,0,0,0,0,0,0,0,0,0,0,0,0,0,0,0,0,0,0,0,0,0,0,0,0,0],"id":5,"left_children":[1,3,5,7,9,11,13,15,17,19,-1,-1,21,23,25,27,-1,29,31,-1,-1,33,35,37,39,41,43,-1,-1,-1,-1,-1,-1,-1,-1,-1,-1,-1,-1,-1,-1,-1,-1,-1,-1],"loss_changes":[3.2081936E1,2.8975908E1,2.7699326E1,2.5334728E1,3.6631203E0,2.9260818E1,3.3853367E1,1.231085E1,1.794819E1,1.9803162E0,0E0,0E0,1.4105259E1,1.5361221E1,3.602144E1,7.51268E0,0E0,1.3762987E1,1.6096754E1,0E0,0E0,1.5636944E1,1.0011618E1,2.180024E1,1.56362095E1,1.0006332E1,2.0446411E1,0E0,0E0,0E0,0E0,0E0,0E0,0E0,0E0,0E0,0E0,0E0,0E0,0E0,0E0,0E0,0E0,0E0,0E0],"parents":[2147483647,0,0,1,1,2,2,3,3,4,4,5,5,6,6,7,7,8,8,9,9,12,12,13,13,14,14,15,15,17,17,18,18,21,21,22,22,23,23,24,24,25,25,26,26],"right_children":[2,4,6,8,10,12,14,16,18,20,-1,-1,22,24,26,28,-1,30,32,-1,-1,34,36,38,40,42,44,-1,-1,-1,-1,-1,-1,-1,-1,-1,-1,-1,-1,-1,-1,-1,-1,-1,-1],"split_conditions":[7.84833E-3,1.6338791E-3,9.3055E3,2.52211E3,2.3622494E1,2.30217E3,1.9366877E-3,2.85949E0,2.666914E3,-3.2900846E-1,1.2932756E-2,2.959142E-2,1.6120968E-2,1.5910172E1,1.7949478E1,1.6639019E1,-7.4089025E-3,2.2777778E-1,6.91706E3,1.9783568E-2,4.2971134E-2,1.4735109E-3,2.819406E-1,8.865147E-1,1.7131745E-3,-5.633891E-1,3.8766973E-3,3.2491915E-2,6.138977E-3,7.2415485E-3,-3.172573E-2,2.8779987E-2,-3.460921E-3,-1.2282285E-2,-2.4679203E-3,-6.2920162E-3,-3.8539626E-2,1.0039402E-2,3.5497434E-2,-1.4427853E-2,2.1825904E-2,-4.1038044E-2,-1.361601E-2,1.0866396E-2,-1.3775007E-2],"split_indices":[23,11,3,10,37,16,11,7,8,7,0,0,23,21,21,37,0,34,35,0,0,44,43,43,44,7,44,0,0,0,0,0,0,0,0,0,0,0,0,0,0,0,0,0,0],"split_type":[0,0,0,0,0,0,0,0,0,0,0,0,0,0,0,0,0,0,0,0,0,0,0,0,0,0,0,0,0,0,0,0,0,0,0,0,0,0,0,0,0,0,0,0,0],"sum_hessian":[1.3995767E3,2.1870604E2,1.1808706E3,1.7398659E2,4.4719448E1,7.1519934E2,4.6567123E2,6.518601E1,1.08800575E2,3.347583E1,1.1243617E1,1.9216658E1,6.9598267E2,2.103245E2,2.5534676E2,5.370106E1,1.1484953E1,3.7417847E1,7.138273E1,1.0492264E1,2.2983568E1,6.580785E2,3.79042E1,1.6361777E2,4.6706722E1,9.447545E1,1.6087129E2,3.7963306E1,1.5737756E1,1.0230095E1,2.7187752E1,1.7477196E1,5.3905537E1,2.2390489E2,4.3417358E2,1.745483E1,2.0449373E1,1.2237294E2,4.1244827E1,3.1967844E1,1.4738879E1,1.4703474E1,7.977198E1,1.2200792E2,3.886338E1],"tree_param":{"num_deleted":"0","num_feature":"50","num_nodes":"45","size_leaf_vector":"1"}},{"base_weights":[-1.135617E-2,1.6991511E-2,-8.669551E-1,4.6944156E-2,-6.645383E-1,-4.525181E-1,-4.2992223E-2,-4.2934034E-2,2.7546293E-1,-4.0403847E-2,-3.734649E-1,-3.0094992E-2,2.0012252E-3,2.8293225E-1,-1.9237857E-1,-3.4025067E-1,3.7368175E-1,-2.9359665E-2,-4.5843806E-2,2.1352692E-2,7.6299714E-4,2.8825367E-2,-6.629646E-3,-4.126676E-2,-3.834625E-4,-2.5023373E-2,1.2760434E-2,-1.892013E-2,1.2060551E-2],"categories":[],"categories_nodes":[],"categories_segments":[],"categories_sizes":[],"default_left":[0,0,0,0,0,0,0,0,0,0,0,0,0,0,0,0,0,0,0,0,0,0,0,0,0,0,0,0,0],"id":6,"left_children":[1,3,5,7,9,11,-1,13,15,-1,17,-1,-1,19,21,23,25,-1,27,-1,-1,-1,-1,-1,-1,-1,-1,-1,-1],"loss_changes":[3.428042E1,2.7299551E1,9.044006E0,2.6739946E1,9.804504E0,8.581333E0,0E0,4.526158E1,2.2365597E1,0E0,7.6346817E0,0E0,0E0,3.1802969E1,2.0915665E1,1.6367096E1,1.9999214E1,0E0,7.8038335E0,0E0,0E0,0E0,0E0,0E0,0E0,0E0,0E0,0E0,0E0],"parents":[2147483647,0,0,1,1,2,2,3,3,4,4,5,5,7,7,8,8,10,10,13,13,14,14,15,15,16,16,18,18],"right_children":[2,4,6,8,10,12,-1,14,16,-1,18,-1,-1,20,22,24,26,-1,28,-1,-1,-1,-1,-1,-1,-1,-1,-1,-1],"split_conditions":[3.34642E3,6.1621644E-2,2.423019E0,9.484E3,2E0,-1.7169218E1,-4.2992223E-2,8.297243E-3,2.46302E3,-4.0403847E-2,3.4228899E-3,-3.0094992E-2,2.0012252E-3,2.5057585E3,2.30217E3,-8.810372E-1,1.1578645E-3,-2.9359665E-2,4.5049014E-3,2.1352692E-2,7.6299714E-4,2.8825367E-2,-6.629646E-3,-4.126676E-2,-3.834625E-4,-2.5023373E-2,1.2760434E-2,-1.892013E-2,1.2060551E-2],"split_indices":[30,49,37,3,22,37,0,23,1,0,11,0,0,2,16,20,44,0,44,0,0,0,0,0,0,0,0,0,0],"split_type":[0,0,0,0,0,0,0,0,0,0,0,0,0,0,0,0,0,0,0,0,0,0,0,0,0,0,0,0,0],"sum_hessian":[1.3942489E3,1.3499192E3,4.432973E1,1.2946837E3,5.5235462E1,2.7142296E1,1.7187435E1,9.282284E2,3.6645526E2,1.491976E1,4.0315704E1,1.3187567E1,1.3954729E1,2.9051553E2,6.377129E2,4.93755E1,3.1707974E2,1.2925697E1,2.7390007E1,1.0760704E2,1.829085E2,1.422577E1,6.234871E2,1.072871E1,3.864679E1,1.1989126E1,3.0509064E2,1.2185794E1,1.5204212E1],"tree_param":{"num_deleted":"0","num_feature":"50","num_nodes":"29","size_leaf_vector":"1"}},{"base_weights":[-2.4459383E-3,1.1963972E-1,-2.145155E-1,5.105232E-1,3.8654888E-3,3.0415917E-2,-2.5106588E-1,1.1274016E0,3.0407596E-1,4.548281E-2,-2.0370064E-2,-4.6662658E-1,-6.943642E-2,-1.5470305E-3,4.542159E-2,-4.0296957E-1,4.6963635E-1,-5.6560415E-1,8.6900055E-2,1.8938426E-2,-5.28614E-1,7.1358305E-1,-1.6461946E-1,8.676081E-3,-2.4532074E-2,-1.6464775E-2,1.7208824E-2,1.8300949E-2,-2.0811554E-2,-9.879159E-4,1.17244935E-2,-1.3203959E-2,-3.6216192E-2,3.509544E-2,-1.762398E-3,-1.2379274E-2,2.6579346E-3],"categories":[],"categories_nodes":[],"categories_segments":[],"categories_sizes":[],"default_left":[0,0,0,0,0,0,0,0,0,0,0,0,0,0,0,0,0,0,0,0,0,0,0,0,0,0,0,0,0,0,0,0,0,0,0,0,0],"id":7,"left_children":[1,3,5,7,9,-1,11,13,15,-1,17,19,21,-1,-1,23,25,27,29,-1,31,33,35,-1,-1,-1,-1,-1,-1,-1,-1,-1,-1,-1,-1,-1,-1],"loss_changes":[3.6531513E1,4.0145233E1,2.3055534E1,2.4796967E1,2.6096668E1,0E0,1.9378023E1,2.3570324E1,1.8260368E1,0E0,4.0093426E1,1.58267975E1,2.0354416E1,0E0,0E0,8.884117E0,1.3660421E1,1.7452106E1,2.0906258E1,0E0,1.1684818E1,1.1000806E1,1.5696234E1,0E0,0E0,0E0,0E0,0E0,0E0,0E0,0E0,0E0,0E0,0E0,0E0,0E0,0E0],"parents":[2147483647,0,0,1,1,2,2,3,3,4,4,6,6,7,7,8,8,10,10,11,11,12,12,15,15,16,16,17,17,18,18,20,20,21,21,22,22],"right_children":[2,4,6,8,10,-1,12,14,16,-1,18,20,22,-1,-1,24,26,28,30,-1,32,34,36,-1,-1,-1,-1,-1,-1,-1,-1,-1,-1,-1,-1,-1,-1],"split_conditions":[3.0659935E-2,-7.035074E-1,2.29932E3,-5.341546E-1,1.7008737E-2,3.0415917E-2,1.7949478E1,-8.584072E-1,1.2647466E-1,4.548281E-2,2.0931115E-2,4.944219E0,7.113106E0,-1.5470305E-3,4.542159E-2,1.0541945E-3,2.32811E3,4.056326E0,9.1029E3,1.8938426E-2,1.1036342E0,6.7048355E1,1.01288E4,8.676081E-3,-2.4532074E-2,-1.6464775E-2,1.7208824E-2,1.8300949E-2,-2.0811554E-2,-9.879159E-4,1.17244935E-2,-1.3203959E-2,-3.6216192E-2,3.509544E-2,-1.762398E-3,-1.2379274E-2,2.6579346E-3],"split_indices":[14,15,16,33,14,0,21,33,9,0,14,25,25,0,0,18,39,25,3,0,15,45,3,0,0,0,0,0,0,0,0,0,0,0,0,0,0],"split_type":[0,0,0,0,0,0,0,0,0,0,0,0,0,0,0,0,0,0,0,0,0,0,0,0,0,0,0,0,0,0,0,0,0,0,0,0,0],"sum_hessian":[1.407169E3,8.918314E2,5.1533746E2,2.0202267E2,6.898088E2,1.372287E1,5.016146E2,4.893091E1,1.5309175E2,1.0235216E1,6.7957355E2,2.274049E2,2.742097E2,1.1978818E1,3.695209E1,2.820119E1,1.2489057E2,1.1178411E2,5.677894E2,1.1231149E1,2.1617377E2,2.8446415E1,2.4576328E2,1.022863E1,1.797256E1,1.07288885E1,1.1416168E2,1.0231436E1,1.0155267E2,4.066849E2,1.6110452E2,1.9334837E2,2.282539E1,1.7965643E1,1.0480771E1,1.248345E2,1.2092878E2],"tree_param":{"num_deleted":"0","num_feature":"50","num_nodes":"37","size_leaf_vector":"1"}},{"base_weights":[-1.1706385E-2,4.027555E-2,-5.0719553E-1,4.3111388E-2,2.6272511E-2,-7.048349E-1,2.1731086E-2,-5.6147695E-1,7.245757E-2,-1.8365031E-1,-9.127064E-1,7.478916E-3,-7.182829E-1,4.90415E-1,1.5201733E-2,-3.1357296E-2,3.1335813E-1,-1.1655582E0,-4.3649104E-1,-2.6435884E-2,-0E0,2.1842347E-2,-1.1103684E-2,3.850073E-3,-4.9557127E-3,-9.2921555E-3,2.9780757E-2,-4.0950846E-2,-1.3431795E-2,3.2121313E-3,-3.6382932E-2],"categories":[],"categories_nodes":[],"categories_segments":[],"categories_sizes":[],"default_left":[0,0,0,0,0,0,0,0,0,0,0,0,0,0,0,0,0,0,0,0,0,0,0,0,0,0,0,0,0,0,0],"id":8,"left_children":[1,3,5,-1,7,9,-1,11,13,15,17,-1,19,21,23,-1,25,27,29,-1,-1,-1,-1,-1,-1,-1,-1,-1,-1,-1,-1],"loss_changes":[3.638347E1,2.406199E1,3.3159904E1,0E0,3.3953938E1,1.1903324E1,0E0,1.1982903E1,2.769852E1,1.5744656E1,8.603645E0,0E0,9.2285E0,2.9015926E1,2.1016394E1,0E0,1.0254076E1,5.9985504E0,1.3694709E1,0E0,0E0,0E0,0E0,0E0,0E0,0E0,0E0,0E0,0E0,0E0,0E0],"parents":[2147483647,0,0,1,1,2,2,4,4,5,5,7,7,8,8,9,9,10,10,12,12,13,13,14,14,16,16,17,17,18,18],"right_children":[2,4,6,-1,8,10,-1,12,14,16,18,-1,20,22,24,-1,26,28,30,-1,-1,-1,-1,-1,-1,-1,-1,-1,-1,-1,-1],"split_conditions":[3.29315E3,1.0720128E-3,3.614171E0,4.3111388E-2,2.0440241E-2,3.34496E3,2.1731086E-2,4.5305367E0,4.8966355E0,8.76202E3,3.39257E3,7.478916E-3,1.4552037E0,2.64187E3,8.625E3,-3.1357296E-2,8.331056E-1,1.3390672E0,3.393787E3,-2.6435884E-2,-0E0,2.1842347E-2,-1.1103684E-2,3.850073E-3,-4.9557127E-3,-9.2921555E-3,2.9780757E-2,-4.0950846E-2,-1.3431795E-2,3.2121313E-3,-3.6382932E-2],"split_indices":[30,11,9,0,14,4,0,40,25,35,4,0,7,30,12,0,29,7,2,0,0,0,0,0,0,0,0,0,0,0,0],"split_type":[0,0,0,0,0,0,0,0,0,0,0,0,0,0,0,0,0,0,0,0,0,0,0,0,0,0,0,0,0,0,0],"sum_hessian":[1.4017374E3,1.2685618E3,1.3317563E2,1.1228359E1,1.2573334E3,1.1547766E2,1.7697964E1,9.0000984E1,1.1673324E3,3.414832E1,8.1329346E1,1.3973211E1,7.602777E1,1.3868181E2,1.0286506E3,1.24567585E1,2.1691563E1,5.1491745E1,2.9837599E1,6.2063805E1,1.3963965E1,1.0924539E2,2.9436422E1,6.3405774E2,3.9459286E2,1.1213963E1,1.04776E1,3.9044086E1,1.2447655E1,1.7677458E1,1.2160142E1],"tree_param":{"num_deleted":"0","num_feature":"50","num_nodes":"31","size_leaf_vector":"1"}},{"base_weights":[-7.1607914E-4,3.669282E-1,-6.853064E-2,8.398073E-1,6.321767E-2,-4.126669E-2,-8.292011E-1,-2.6295564E-4,9.9049693E-1,-1.3099536E-1,9.732258E-1,-5.7510066E-1,-1.2165706E-2,-1.0303195E0,-5.050313E-3,1.2828474E0,5.6466955E-1,3.0207163E-1,-4.8971346E-1,4.0955868E-2,1.1304712E-2,-3.0634174E-2,-1.0536927E0,9.902871E-2,-1.642376E-1,-1.3773684E-2,-3.87976E-2,4.3306287E-2,2.0350011E-2,3.5877865E-2,-0E0,-5.4074465E-3,2.4312189E-2,-3.3487204E-2,-3.8931775E-3,-1.6492026E-2,1.7697195E-2,-4.1691463E-2,-1.177191E-2,7.5509395E-3,-6.5902825E-3,-4.5955472E-4,-1.4800796E-2],"categories":[],"categories_nodes":[],"categories_segments":[],"categories_sizes":[],"default_left":[0,0,0,0,0,0,0,0,0,0,0,0,0,0,0,0,0,0,0,0,0,0,0,0,0,0,0,0,0,0,0,0,0,0,0,0,0,0,0,0,0,0,0],"id":9,"left_children":[1,3,5,7,9,11,13,-1,15,17,19,21,23,25,-1,27,29,31,33,-1,-1,35,37,39,41,-1,-1,-1,-1,-1,-1,-1,-1,-1,-1,-1,-1,-1,-1,-1,-1,-1,-1],"loss_changes":[3.492692E1,3.0796906E1,2.418772E1,1.1306034E1,2.4308626E1,1.7556679E1,4.6037617E0,0E0,7.3495255E0,1.7519909E1,4.275749E0,1.4672665E1,1.851357E1,3.071476E0,0E0,1.9788208E0,1.1188909E1,1.2812319E1,1.3179108E1,0E0,0E0,9.610735E0,5.368046E0,3.0699768E1,2.245469E1,0E0,0E0,0E0,0E0,0E0,0E0,0E0,0E0,0E0,0E0,0E0,0E0,0E0,0E0,0E0,0E0,0E0,0E0],"parents":[2147483647,0,0,1,1,2,2,3,3,4,4,5,5,6,6,8,8,9,9,10,10,11,11,12,12,13,13,15,15,16,16,17,17,18,18,21,21,22,22,23,23,24,24],"right_children":[2,4,6,8,10,12,14,-1,16,18,20,22,24,26,-1,28,30,32,34,-1,-1,36,38,40,42,-1,-1,-1,-1,-1,-1,-1,-1,-1,-1,-1,-1,-1,-1,-1,-1,-1,-1],"split_conditions":[7.84833E-3,2.52211E3,3.35285E3,1.1555494E0,1.6182672E-3,2.0500494E-2,1.0377086E1,-2.6295564E-4,3.6851773E0,7.101E3,9.454171E-1,1.2817573E-3,1.953779E-3,3.36987E3,-5.050313E-3,2.711123E0,2.0110527E-1,5.076996E0,2.66747E3,4.0955868E-2,1.1304712E-2,8.660254E-1,2.6979946E3,8.753E3,4.3484535E0,-1.3773684E-2,-3.87976E-2,4.3306287E-2,2.0350011E-2,3.5877865E-2,-0E0,-5.4074465E-3,2.4312189E-2,-3.3487204E-2,-3.8931775E-3,-1.6492026E-2,1.7697195E-2,-4.1691463E-2,-1.177191E-2,7.5509395E-3,-6.5902825E-3,-4.5955472E-4,-1.4800796E-2],"split_indices":[23,4,30,19,11,14,31,0,19,12,34,44,11,16,0,7,36,40,1,0,0,26,8,12,19,0,0,0,0,0,0,0,0,0,0,0,0,0,0,0,0,0,0],"split_type":[0,0,0,0,0,0,0,0,0,0,0,0,0,0,0,0,0,0,0,0,0,0,0,0,0,0,0,0,0,0,0,0,0,0,0,0,0,0,0,0,0,0,0],"sum_hessian":[1.4048834E3,2.169492E2,1.1879342E3,8.351085E1,1.3343835E2,1.1484819E3,3.9452328E1,1.223517E1,7.127568E1,1.1022158E2,2.3216778E1,5.7512783E1,1.0909691E3,2.9238525E1,1.0213803E1,4.0371773E1,3.0903904E1,4.9375927E1,6.0845657E1,1.2725715E1,1.0491063E1,2.7891254E1,2.9621527E1,6.284845E2,4.6248465E2,1.0681607E1,1.855692E1,3.0143728E1,1.02280445E1,1.3935561E1,1.6968342E1,2.516274E1,2.4213186E1,2.0927744E1,3.991791E1,1.5687808E1,1.2203447E1,1.8409534E1,1.1211993E1,4.2613297E2,2.0235153E2,3.2017822E2,1.4230643E2],"tree_param":{"num_deleted":"0","num_feature":"50","num_nodes":"43","size_leaf_vector":"1"}},{"base_weights":[-6.8455385E-3,8.82566E-1,-3.315943E-2,4.947624E-2,2.7048353E-3,-7.390525E-1,-3.7722022E-3,-1.1527243E0,1.3224465E-3,4.335474E-2,-4.1909546E-1,-1.1304923E-2,-4.3996856E-2,3.7147857E-2,2.9963423E-2,-6.1382246E-1,4.983056E-1,-1.010305E-2,2.2152532E-3,-2.1880763E-2,1.1398111E-2,-0E0,3.137722E-2],"categories":[],"categories_nodes":[],"categories_segments":[],"categories_sizes":[],"default_left":[0,0,0,0,0,0,0,0,0,0,0,0,0,0,0,0,0,0,0,0,0,0,0],"id":10,"left_children":[1,3,5,-1,-1,7,9,11,-1,13,15,-1,-1,-1,17,19,21,-1,-1,-1,-1,-1,-1],"loss_changes":[3.203141E1,2.2858616E1,2.7573036E1,0E0,0E0,1.7826897E1,2.5554308E1,7.106777E0,0E0,1.7937061E1,2.4150192E1,0E0,0E0,0E0,1.8422337E1,1.316592E1,6.7449174E0,0E0,0E0,0E0,0E0,0E0,0E0],"parents":[2147483647,0,0,1,1,2,2,5,5,6,6,7,7,9,9,10,10,14,14,15,15,16,16],"right_children":[2,4,6,-1,-1,8,10,12,-1,14,16,-1,-1,-1,18,20,22,-1,-1,-1,-1,-1,-1],"split_conditions":[2.3244E3,4.8384705E1,2.30558E3,4.947624E-2,2.7048353E-3,7.58E3,3.33398E3,5.4401E3,1.3224465E-3,1.0720128E-3,3.671062E0,-1.1304923E-2,-4.3996856E-2,3.7147857E-2,2.1015162E-2,7.1755104E1,5.2702736E1,-1.010305E-2,2.2152532E-3,-2.1880763E-2,1.1398111E-2,-0E0,3.137722E-2],"split_indices":[1,32,0,0,0,12,4,3,0,11,9,0,0,0,14,32,27,0,0,0,0,0,0],"split_type":[0,0,0,0,0,0,0,0,0,0,0,0,0,0,0,0,0,0,0,0,0,0,0],"sum_hessian":[1.384533E3,3.830428E1,1.3462288E3,1.8598345E1,1.9705935E1,5.216007E1,1.2940686E3,3.4240086E1,1.7919981E1,1.1619171E3,1.3215158E2,1.0953619E1,2.3286467E1,1.1449758E1,1.1504673E3,1.0973519E2,2.2416395E1,1.2100948E2,1.0294579E3,9.899504E1,1.0740149E1,1.1935316E1,1.0481079E1],"tree_param":{"num_deleted":"0","num_feature":"50","num_nodes":"23","size_leaf_vector":"1"}},{"base_weights":[-7.330487E-4,2.8951444E-2,-6.6898E-1,7.096062E-2,-4.0442324E-1,3.0812656E-3,-9.746592E-1,8.5946876E-1,4.82416E-2,-5.5173254E-1,2.8397836E-2,-4.4590977E-1,-4.2350683E-2,3.9055932E-2,7.568102E-5,-5.852817E-1,8.5297175E-2,-1.0203896E0,-2.9424366E-1,-0E0,-2.519915E-2,1.5392924E-2,-2.5052376E-2,-7.88637E-3,3.915145E-3,-3.94903E-2,-1.320528E-2,-1.5047844E-2,9.4383955E-3],"categories":[],"categories_nodes":[],"categories_segments":[],"categories_sizes":[],"default_left":[0,0,0,0,0,0,0,0,0,0,0,0,0,0,0,0,0,0,0,0,0,0,0,0,0,0,0,0,0],"id":11,"left_children":[1,3,5,7,9,-1,11,13,15,17,-1,19,-1,-1,-1,21,23,25,27,-1,-1,-1,-1,-1,-1,-1,-1,-1,-1],"loss_changes":[2.7846338E1,2.4038109E1,1.4627216E1,2.1225494E1,2.3499706E1,0E0,8.45829E0,1.196167E1,2.7506159E1,1.1829456E1,0E0,3.593214E0,0E0,0E0,0E0,1.8313704E1,1.7543911E1,4.8066177E0,9.149563E0,0E0,0E0,0E0,0E0,0E0,0E0,0E0,0E0,0E0,0E0],"parents":[2147483647,0,0,1,1,2,2,3,3,4,4,6,6,7,7,8,8,9,9,11,11,15,15,16,16,17,17,18,18],"right_children":[2,4,6,8,10,-1,12,14,16,18,-1,20,-1,-1,-1,22,24,26,28,-1,-1,-1,-1,-1,-1,-1,-1,-1,-1],"split_conditions":[3.8766973E-3,3.30682E3,1.5958109E0,2.323041E3,4.2989645E0,3.0812656E-3,4.2215115E1,6.2061E3,2.30818E3,8.0102E3,2.8397836E-2,1.18092E4,-4.2350683E-2,3.9055932E-2,7.568102E-5,-1.5436785E0,1.318531E-3,1.2098807E0,1.6040922E0,-0E0,-2.519915E-2,1.5392924E-2,-2.5052376E-2,-7.88637E-3,3.915145E-3,-3.94903E-2,-1.320528E-2,-1.5047844E-2,9.4383955E-3],"split_indices":[44,39,19,13,9,0,27,3,0,42,0,17,0,0,0,31,11,9,7,0,0,0,0,0,0,0,0,0,0],"split_type":[0,0,0,0,0,0,0,0,0,0,0,0,0,0,0,0,0,0,0,0,0,0,0,0,0,0,0,0,0],"sum_hessian":[1.385679E3,1.3269427E3,5.8736256E1,1.2114963E3,1.15446396E2,1.6389408E1,4.234685E1,3.2281036E1,1.1792153E3,1.0496334E2,1.0483055E1,2.059455E1,2.1752302E1,2.0562864E1,1.1718171E1,6.359919E1,1.1156161E3,3.548047E1,6.948287E1,1.0416105E1,1.0178443E1,1.1217832E1,5.2381355E1,1.263822E2,9.892339E2,2.2084951E1,1.3395515E1,5.2575306E1,1.6907566E1],"tree_param":{"num_deleted":"0","num_feature":"50","num_nodes":"29","size_leaf_vector":"1"}},{"base_weights":[-2.9892107E-3,1.3179776E-1,-1.7352788E-1,4.389997E-1,2.1159543E-2,-4.4526836E-1,-5.5609126E-2,6.6157514E-1,-6.992611E-2,3.758064E-2,-7.911934E-3,1.4425012E-1,-6.1700815E-1,2.2753427E-2,-5.871746E-1,-0E0,8.374831E-1,-4.8702043E-1,3.993174E-1,3.4258243E-2,-3.8379814E-2,-3.8137704E-1,2.3661986E-2,-1.0112951E0,-3.593404E-1,2.7647031E-2,-1.9983783E-2,-1.0516633E0,-9.953089E-2,3.6277045E-2,-1.9943435E-2,3.1385284E-2,5.622572E-3,-4.3505028E-2,2.785576E-3,-1.0252528E-2,3.439745E-2,-8.616107E-3,3.529883E-3,6.507366E-3,-2.9683344E-2,-1.3963469E-2,-3.7734445E-2,-2.1870669E-2,-0E0,-1.5680538E-2,2.4919035E-3,-3.7701488E-2,-1.8941123E-2,9.362623E-3,-2.2388622E-2],"categories":[],"categories_nodes":[],"categories_segments":[],"categories_sizes":[],"default_left":[0,0,0,0,0,0,0,0,0,0,0,0,0,0,0,0,0,0,0,0,0,0,0,0,0,0,0,0,0,0,0,0,0,0,0,0,0,0,0,0,0,0,0,0,0,0,0,0,0,0,0],"id":12,"left_children":[1,3,5,7,9,11,13,15,17,-1,19,21,23,25,27,29,31,33,35,-1,37,39,-1,41,43,-1,45,47,49,-1,-1,-1,-1,-1,-1,-1,-1,-1,-1,-1,-1,-1,-1,-1,-1,-1,-1,-1,-1,-1,-1],"loss_changes":[3.2171764E1,2.6258242E1,1.9562403E1,2.3584026E1,2.1233967E1,1.9148876E1,1.8380638E1,1.696037E1,1.250055E1,0E0,1.9207361E1,1.476543E1,1.3664749E1,1.50095005E1,1.2148491E1,2.5381403E1,1.4618752E1,1.9905115E1,1.7113064E1,0E0,2.145868E1,9.126088E0,0E0,6.0776176E0,1.2184936E1,0E0,1.9004822E1,7.081795E-1,8.239489E0,0E0,0E0,0E0,0E0,0E0,0E0,0E0,0E0,0E0,0E0,0E0,0E0,0E0,0E0,0E0,0E0,0E0,0E0,0E0,0E0,0E0,0E0],"parents":[2147483647,0,0,1,1,2,2,3,3,4,4,5,5,6,6,7,7,8,8,10,10,11,11,12,12,13,13,14,14,15,15,16,16,17,17,18,18,20,20,21,21,23,23,24,24,26,26,27,27,28,28],"right_children":[2,4,6,8,10,12,14,16,18,-1,20,22,24,26,28,30,32,34,36,-1,38,40,-1,42,44,-1,46,48,50,-1,-1,-1,-1,-1,-1,-1,-1,-1,-1,-1,-1,-1,-1,-1,-1,-1,-1,-1,-1,-1,-1],"split_conditions":[1.094065E-2,-6.935493E-1,1.6669269E-3,2.6629429E3,2.5060003E0,2.0900224E-1,6.1621644E-2,2.3416836E3,-1.7856567E-1,3.758064E-2,2.323041E3,2.0551977E-3,8.9142E3,-1.942025E0,3.2166256E1,2.1272E-1,3.241861E-2,2.74889E3,6.404146E0,3.4258243E-2,6.2061E3,1.7389439E-3,2.3661986E-2,4.2180946E-1,7.746479E-1,2.7647031E-2,-6.832187E-1,-2.689916E-1,1.29243E4,3.6277045E-2,-1.9943435E-2,3.1385284E-2,5.622572E-3,-4.3505028E-2,2.785576E-3,-1.0252528E-2,3.439745E-2,-8.616107E-3,3.529883E-3,6.507366E-3,-2.9683344E-2,-1.3963469E-2,-3.7734445E-2,-2.1870669E-2,-0E0,-1.5680538E-2,2.4919035E-3,-3.7701488E-2,-1.8941123E-2,9.362623E-3,-2.2388622E-2],"split_indices":[23,15,18,2,24,43,49,13,33,0,13,11,3,33,21,43,14,1,24,0,3,11,0,28,34,0,33,20,17,0,0,0,0,0,0,0,0,0,0,0,0,0,0,0,0,0,0,0,0,0,0],"split_type":[0,0,0,0,0,0,0,0,0,0,0,0,0,0,0,0,0,0,0,0,0,0,0,0,0,0,0,0,0,0,0,0,0,0,0,0,0,0,0,0,0,0,0,0,0,0,0,0,0,0,0],"sum_hessian":[1.3966979E3,7.786104E2,6.180874E2,2.0418265E2,5.744278E2,1.8492247E2,4.3316495E2,1.425304E2,6.165224E1,1.2673209E1,5.617546E2,4.109779E1,1.4382468E2,3.7752707E2,5.5637875E1,2.9781462E1,1.1274894E2,3.318389E1,2.846835E1,1.31354065E1,5.4861914E2,2.2433723E1,1.8664066E1,5.492E1,8.890468E1,1.673368E1,3.607934E2,2.7377958E1,2.8259914E1,1.0110391E1,1.967107E1,8.4305466E1,2.8443474E1,1.2230654E1,2.0953238E1,1.4229946E1,1.4238404E1,2.1235846E2,3.3626068E2,1.1217558E1,1.1216165E1,1.8616196E1,3.6303802E1,4.3769726E1,4.513495E1,6.1509277E1,2.9928412E2,1.626353E1,1.11144285E1,1.7112986E1,1.114693E1],"tree_param":{"num_deleted":"0","num_feature":"50","num_nodes":"51","size_leaf_vector":"1"}},{"base_weights":[-1.25296E-2,2.531424E-1,-8.759842E-2,5.798394E-1,5.160409E-2,-2.1537966E-1,8.583995E-2,3.062315E-1,9.82383E-1,8.2847214E-1,-7.573659E-2,2.5169196E-2,-2.4254605E-1,1.7158502E-1,-5.838321E-1,5.7314664E-1,-1.4297549E-2,1.2057245E0,4.2843134E-3,4.3545075E-2,4.4562835E-3,-5.458838E-1,2.0514666E-1,-1.7994416E-1,-7.660696E-1,-1.5299837E-1,3.251455E-1,-1.0276841E0,-2.1210936E-1,-6.8788435E-3,2.340906E-2,4.7036625E-2,1.2924254E-2,1.18896235E-2,-2.4273854E-2,1.9504838E-2,-4.973485E-3,-2.4228439E-2,-3.8564748E-3,-2.9887905E-2,4.471271E-3,-1.6896158E-2,1.1703706E-2,-1.0205259E-2,1.29149305E-2,-1.8831491E-2,-3.8364373E-2,1.1493393E-2,-1.6771797E-2],"categories":[],"categories_nodes":[],"categories_segments":[],"categories_sizes":[],"default_left":[0,0,0,0,0,0,0,0,0,0,0,0,0,0,0,0,0,0,0,0,0,0,0,0,0,0,0,0,0,0,0,0,0,0,0,0,0,0,0,0,0,0,0,0,0,0,0,0,0],"id":13,"left_children":[1,3,5,7,9,11,13,15,17,19,21,-1,23,25,27,29,-1,31,-1,-1,-1,33,35,37,39,41,43,45,47,-1,-1,-1,-1,-1,-1,-1,-1,-1,-1,-1,-1,-1,-1,-1,-1,-1,-1,-1,-1],"loss_changes":[2.78441E1,1.9870659E1,2.4309437E1,1.1842243E1,1.94272E1,1.7989202E1,2.646714E1,1.5222022E1,7.7394867E0,1.0704964E1,2.2107677E1,0E0,1.960176E1,2.065538E1,7.757023E0,9.449259E0,0E0,8.305786E0,0E0,0E0,0E0,1.6091082E1,1.7438295E1,1.7268185E1,1.4203712E1,2.9681438E1,1.987599E1,5.4114723E-1,6.543688E0,0E0,0E0,0E0,0E0,0E0,0E0,0E0,0E0,0E0,0E0,0E0,0E0,0E0,0E0,0E0,0E0,0E0,0E0,0E0,0E0],"parents":[2147483647,0,0,1,1,2,2,3,3,4,4,5,5,6,6,7,7,8,8,9,9,10,10,12,12,13,13,14,14,15,15,17,17,21,21,22,22,23,23,24,24,25,25,26,26,27,27,28,28],"right_children":[2,4,6,8,10,12,14,16,18,20,22,-1,24,26,28,30,-1,32,-1,-1,-1,34,36,38,40,42,44,46,48,-1,-1,-1,-1,-1,-1,-1,-1,-1,-1,-1,-1,-1,-1,-1,-1,-1,-1,-1,-1],"split_conditions":[8.322687E-3,2.52211E3,9.3055E3,6.58774E3,-1.0683992E0,2.30217E3,3.8766973E-3,7.7114045E-3,1.3106165E0,2.65081E3,2.666914E3,2.5169196E-2,4.313594E-2,2.6656494E-1,3.8105906E-3,-1.1857189E0,-1.4297549E-2,1.7431119E-3,4.2843134E-3,4.3545075E-2,4.4562835E-3,4.491726E-2,1.0641854E0,2.1015162E-2,1.0758253E0,-4.7850452E-2,2.39036E3,1.4724431E1,1.4878651E0,-6.8788435E-3,2.340906E-2,4.7036625E-2,1.2924254E-2,1.18896235E-2,-2.4273854E-2,1.9504838E-2,-4.973485E-3,-2.4228439E-2,-3.8564748E-3,-2.9887905E-2,4.471271E-3,-1.6896158E-2,1.1703706E-2,-1.0205259E-2,1.29149305E-2,-1.8831491E-2,-3.8364373E-2,1.1493393E-2,-1.6771797E-2],"split_indices":[23,1,3,35,15,16,44,23,46,10,8,0,49,9,11,20,0,11,0,0,0,34,19,14,46,20,0,25,19,0,0,0,0,0,0,0,0,0,0,0,0,0,0,0,0,0,0,0,0],"split_type":[0,0,0,0,0,0,0,0,0,0,0,0,0,0,0,0,0,0,0,0,0,0,0,0,0,0,0,0,0,0,0,0,0,0,0,0,0,0,0,0,0,0,0,0,0,0,0,0,0],"sum_hessian":[1.3981749E3,3.060428E2,1.0921321E3,1.1510218E2,1.909406E2,6.3035626E2,4.6177582E2,7.031326E1,4.4788918E1,2.6667929E1,1.6427266E2,1.4620829E1,6.157355E2,4.106823E2,5.109351E1,5.3110767E1,1.7202496E1,3.4562904E1,1.0226016E1,1.2940333E1,1.3727594E1,6.1750412E1,1.02522255E2,5.520243E2,6.3711174E1,1.3085002E2,2.7983228E2,2.187005E1,2.9223461E1,1.0380422E1,4.2730347E1,2.2417416E1,1.2145487E1,1.2959808E1,4.8790604E1,4.6877346E1,5.5644905E1,3.9929985E1,5.120943E2,5.1271637E1,1.2439538E1,7.505011E1,5.5799915E1,3.7300034E1,2.4253226E2,1.0553026E1,1.1317023E1,1.0192326E1,1.9031136E1],"tree_param":{"num_deleted":"0","num_feature":"50","num_nodes":"49","size_leaf_vector":"1"}},{"base_weights":[-7.048326E-3,1.9884467E-2,-5.9600955E-1,3.789185E-2,6.7545087E-3,-1.1273712E0,-1.455785E-2,-5.049339E-1,4.667285E-2,-4.0809166E-2,-1.6621683E-2,8.7498445E-3,-1.6459191E-2,-1.8702503E-1,-8.8326997E-1,6.815514E-2,-8.212753E-1,1.194805E-2,-1.7278828E-2,-3.766619E-2,-3.9207977E-3,7.4068434E-3,-1.895211E-3,-2.2830104E-3,-3.779181E-2],"categories":[],"categories_nodes":[],"categories_segments":[],"categories_sizes":[],"default_left":[0,0,0,0,0,0,0,0,0,0,0,0,0,0,0,0,0,0,0,0,0,0,0,0,0],"id":14,"left_children":[1,3,5,-1,7,9,11,13,15,-1,-1,-1,-1,17,19,21,23,-1,-1,-1,-1,-1,-1,-1,-1],"loss_changes":[2.2598957E1,2.1302069E1,1.866659E1,0E0,2.6997784E1,2.5758324E0,5.394265E0,1.0793062E1,2.274873E1,0E0,0E0,0E0,0E0,1.2590993E1,1.1090446E1,2.8483847E1,8.841166E0,0E0,0E0,0E0,0E0,0E0,0E0,0E0,0E0],"parents":[2147483647,0,0,1,1,2,2,4,4,5,5,6,6,7,7,8,8,13,13,14,14,15,15,16,16],"right_children":[2,4,6,-1,8,10,12,14,16,-1,-1,-1,-1,18,20,22,24,-1,-1,-1,-1,-1,-1,-1,-1],"split_conditions":[6.1621644E-2,1.0720128E-3,3.2166256E1,3.789185E-2,1.2915191E-3,1.690533E1,3.29345E3,2.0518774E-2,1.3932965E0,-4.0809166E-2,-1.6621683E-2,8.7498445E-3,-1.6459191E-2,6.77402E3,2.6979946E3,2.6506E3,1.7618442E0,1.194805E-2,-1.7278828E-2,-3.766619E-2,-3.9207977E-3,7.4068434E-3,-1.895211E-3,-2.2830104E-3,-3.779181E-2],"split_indices":[49,11,21,0,11,25,16,49,15,0,0,0,0,35,8,1,31,0,0,0,0,0,0,0,0],"split_type":[0,0,0,0,0,0,0,0,0,0,0,0,0,0,0,0,0,0,0,0,0,0,0,0,0],"sum_hessian":[1.4047826E3,1.3434642E3,6.1318413E1,1.2647939E1,1.3308163E3,3.1099352E1,3.0219059E1,9.455824E1,1.236258E3,2.0518137E1,1.0581216E1,1.8900211E1,1.1318847E1,5.291264E1,4.1645607E1,1.2078602E3,2.8397795E1,2.06012E1,3.231144E1,2.6971285E1,1.4674321E1,5.128265E2,6.9503375E2,1.1376574E1,1.7021221E1],"tree_param":{"num_deleted":"0","num_feature":"50","num_nodes":"25","size_leaf_vector":"1"}},{"base_weights":[-5.7515735E-3,8.260673E-1,-2.9047867E-2,4.346634E-2,1.2985772E-3,-7.3219544E-1,-5.320783E-4,-1.8459594E-1,-4.0615987E-2,4.1009616E-2,-4.707765E-1,-2.6857577E-2,9.686557E-3,2.473984E-1,-3.2056656E-2,-2.199604E-1,-9.8070925E-1,1.0943738E-2,-4.4682785E-3,-1.8459868E-2,1.260276E-4,-1.9630631E-2,4.921297E-3,-1.675479E-2,-3.9073758E-2],"categories":[],"categories_nodes":[],"categories_segments":[],"categories_sizes":[],"default_left":[0,0,0,0,0,0,0,0,0,0,0,0,0,0,0,0,0,0,0,0,0,0,0,0,0],"id":15,"left_children":[1,3,5,-1,-1,7,9,11,-1,13,15,-1,-1,17,19,21,23,-1,-1,-1,-1,-1,-1,-1,-1],"loss_changes":[2.6572712E1,1.7392294E1,2.678714E1,0E0,0E0,1.6715885E1,2.5691055E1,1.1136317E1,0E0,1.8171309E1,1.2848005E1,0E0,0E0,1.4816402E1,1.8989641E1,1.262261E1,2.9985008E0,0E0,0E0,0E0,0E0,0E0,0E0,0E0,0E0],"parents":[2147483647,0,0,1,1,2,2,5,5,6,6,7,7,9,9,10,10,13,13,14,14,15,15,16,16],"right_children":[2,4,6,-1,-1,8,10,12,-1,14,16,-1,-1,18,20,22,24,-1,-1,-1,-1,-1,-1,-1,-1],"split_conditions":[2.3244E3,6.505376E-1,2.30558E3,4.346634E-2,1.2985772E-3,8.142857E-2,3.34496E3,6.109E3,-4.0615987E-2,5.111E3,1.041238E4,-2.6857577E-2,9.686557E-3,3.0659935E-2,2.9467749E1,3.51879E-1,-4.6974087E0,1.0943738E-2,-4.4682785E-3,-1.8459868E-2,1.260276E-4,-1.9630631E-2,4.921297E-3,-1.675479E-2,-3.9073758E-2],"split_indices":[1,34,0,0,0,36,4,12,0,12,35,0,0,14,32,33,37,0,0,0,0,0,0,0,0],"split_type":[0,0,0,0,0,0,0,0,0,0,0,0,0,0,0,0,0,0,0,0,0,0,0,0,0],"sum_hessian":[1.389588E3,3.633368E1,1.3532544E3,1.9404797E1,1.692888E1,5.1096497E1,1.3021578E3,2.828385E1,2.2812647E1,1.1963234E3,1.0583446E2,1.18752985E1,1.6408552E1,3.1395587E2,8.823675E2,7.2557915E1,3.3276546E1,2.4324878E2,7.070709E1,5.151234E1,8.3085516E2,3.43258E1,3.8232117E1,1.624665E1,1.7029896E1],"tree_param":{"num_deleted":"0","num_feature":"50","num_nodes":"25","size_leaf_vector":"1"}},{"base_weights":[8.273572E-3,3.6831804E-2,-6.174351E-1,-3.6199546E-1,7.990262E-2,-8.2185084E-1,6.44294E-3,-4.944592E-1,1.0561922E-2,8.838394E-1,5.507286E-2,-4.4896922E-1,-4.0215313E-2,1.3644452E-1,-7.322602E-1,4.468312E-2,6.317419E-3,-7.223296E-1,8.6946964E-2,5.3251875E-3,-3.1899966E-2,-5.785669E-3,1.7594911E-2,-3.6933545E-2,-1.3314614E-2,-3.9759485E-4,-2.7732529E-2,3.622672E-2,2.1592504E-3],"categories":[],"categories_nodes":[],"categories_segments":[],"categories_sizes":[],"default_left":[0,0,0,0,0,0,0,0,0,0,0,0,0,0,0,0,0,0,0,0,0,0,0,0,0,0,0,0,0],"id":16,"left_children":[1,3,5,7,9,11,-1,13,-1,15,17,19,-1,21,23,-1,-1,25,27,-1,-1,-1,-1,-1,-1,-1,-1,-1,-1],"loss_changes":[2.46336E1,2.2810139E1,1.0707094E1,1.2457539E1,2.3561487E1,7.9708443E0,0E0,1.6888258E1,0E0,1.329867E1,2.8781866E1,1.2387191E1,0E0,4.8087044E0,1.0207809E1,0E0,0E0,6.0593853E0,1.8184925E1,0E0,0E0,0E0,0E0,0E0,0E0,0E0,0E0,0E0,0E0],"parents":[2147483647,0,0,1,1,2,2,3,3,4,4,5,5,7,7,9,9,10,10,11,11,13,13,14,14,17,17,18,18],"right_children":[2,4,6,8,10,12,-1,14,-1,16,18,20,-1,22,24,-1,-1,26,28,-1,-1,-1,-1,-1,-1,-1,-1,-1,-1],"split_conditions":[6.1621644E-2,-1.1260333E0,2.2776842E0,1.2944309E-2,2.3244E3,2.6127142E-1,6.44294E-3,9.4273494E-4,1.0561922E-2,4.918989E-1,2.322439E3,1.263862E0,-4.0215313E-2,7.71572E3,-9.866917E-2,4.468312E-2,6.317419E-3,-8.859937E-1,4.49775E3,5.3251875E-3,-3.1899966E-2,-5.785669E-3,1.7594911E-2,-3.6933545E-2,-1.3314614E-2,-3.9759485E-4,-2.7732529E-2,3.622672E-2,2.1592504E-3],"split_indices":[49,7,36,23,1,43,0,18,0,28,2,29,0,35,36,0,0,46,17,0,0,0,0,0,0,0,0,0,0],"split_type":[0,0,0,0,0,0,0,0,0,0,0,0,0,0,0,0,0,0,0,0,0,0,0,0,0,0,0,0,0],"sum_hessian":[1.3925293E3,1.3334108E3,5.911853E1,1.2811137E2,1.2052994E3,4.7952953E1,1.1165576E1,1.08914604E2,1.9196772E1,3.4470848E1,1.1708286E3,2.9543098E1,1.8409855E1,2.9355614E1,7.955899E1,1.711812E1,1.735273E1,4.4643154E1,1.1261854E3,1.4576468E1,1.4966629E1,1.6640432E1,1.2715182E1,2.731533E1,5.2243656E1,1.068653E1,3.3956623E1,1.3357559E1,1.1128279E3],"tree_param":{"num_deleted":"0","num_feature":"50","num_nodes":"29","size_leaf_vector":"1"}},{"base_weights":[9.744454E-3,7.8952956E-1,-1.0508937E-2,4.3275543E-2,2.206506E-3,4.3892485E-1,-4.604095E-2,-1.2279418E-3,8.592504E-1,5.9844125E-2,-1.9375911E-1,4.4036537E-1,-2.543068E-2,1.2298582E0,6.4920853E-3,1.0918905E-1,-4.877231E-1,-6.045701E-1,-1.326659E-1,-1.5941894E-2,2.9358707E-2,1.352978E-2,4.6798483E-2,1.6420286E-2,9.528412E-4,-2.1823704E-2,1.3766747E-2,-1.1788656E-3,-2.6373005E-2,2.9494273E-3,-8.891931E-3],"categories":[],"categories_nodes":[],"categories_segments":[],"categories_sizes":[],"default_left":[0,0,0,0,0,0,0,0,0,0,0,0,0,0,0,0,0,0,0,0,0,0,0,0,0,0,0,0,0,0,0],"id":17,"left_children":[1,3,5,-1,-1,7,9,11,13,15,17,19,-1,21,-1,23,25,27,29,-1,-1,-1,-1,-1,-1,-1,-1,-1,-1,-1,-1],"loss_changes":[2.220452E1,1.57764E1,2.1321062E1,0E0,0E0,1.850409E1,1.9621727E1,1.8570805E1,1.1055111E1,1.9495975E1,1.2699646E1,1.7431787E1,0E0,6.353718E0,0E0,2.2360954E1,1.3950245E1,9.823368E0,1.7464598E1,0E0,0E0,0E0,0E0,0E0,0E0,0E0,0E0,0E0,0E0,0E0,0E0],"parents":[2147483647,0,0,1,1,2,2,5,5,6,6,7,7,8,8,9,9,10,10,11,11,13,13,15,15,16,16,17,17,18,18],"right_children":[2,4,6,-1,-1,8,10,12,14,16,18,20,-1,22,-1,24,26,28,30,-1,-1,-1,-1,-1,-1,-1,-1,-1,-1,-1,-1],"split_conditions":[2.3244E3,6.238716E-1,-8.660254E-1,4.3275543E-2,2.206506E-3,6.266791E1,3E0,1.8655077E-3,6.944377E1,3.31821E3,-1.0653396E0,6.61785E3,-2.543068E-2,1.5204869E-3,6.4920853E-3,4.4742363E1,3.614171E0,-1.7068236E-1,1.9212262E-1,-1.5941894E-2,2.9358707E-2,1.352978E-2,4.6798483E-2,1.6420286E-2,9.528412E-4,-2.1823704E-2,1.3766747E-2,-1.1788656E-3,-2.6373005E-2,2.9494273E-3,-8.891931E-3],"split_indices":[1,34,6,0,0,45,22,44,27,39,7,17,0,11,0,32,9,33,7,0,0,0,0,0,0,0,0,0,0,0,0],"split_type":[0,0,0,0,0,0,0,0,0,0,0,0,0,0,0,0,0,0,0,0,0,0,0,0,0,0,0,0,0,0,0],"sum_hessian":[1.3797578E3,3.459271E1,1.3451652E3,1.7196259E1,1.7396448E1,9.669348E1,1.2484717E3,4.7138714E1,4.955477E1,7.255815E2,5.2289014E2,3.0904896E1,1.6233818E1,3.036064E1,1.9194132E1,6.6717194E2,5.840958E1,6.5482704E1,4.5740747E2,1.068971E1,2.0215185E1,1.0192339E1,2.01683E1,9.831162E1,5.688603E2,4.7212543E1,1.1197035E1,2.2375198E1,4.3107502E1,1.8863771E2,2.6876974E2],"tree_param":{"num_deleted":"0","num_feature":"50","num_nodes":"31","size_leaf_vector":"1"}},{"base_weights":[1.4142189E-2,1.1854864E-1,-1.6642658E-1,2.2911762E-1,-1.08614594E-1,1.4591604E-1,-2.8945366E-1,-2.3514871E-1,2.995958E-1,5.954096E-3,-5.573555E-1,4.1507298E-1,-5.6768274E-1,5.12916E-1,-3.6604634E-1,3.116855E-1,-9.705757E-1,-1.2987165E-1,3.8986927E-1,-1.629652E-1,3.6366194E-1,-3.680084E-4,-8.019956E-1,9.902869E-1,5.3151347E-2,-3.6033124E-2,-0E0,2.9324915E-2,-5.4852176E-3,-2.3670804E-2,-5.525715E-1,2.3112739E-2,-4.073779E-3,-3.6392912E-2,-1.5926106E-2,2.0044845E-2,-1.158572E-2,1.89779E-2,6.490335E-3,3.6334156E-4,-2.2675393E-2,2.5700042E-3,3.242183E-2,-5.05689E-3,-3.3514228E-2,3.8279224E-2,8.158688E-3,-1.2955076E-2,9.666724E-3,-2.3891674E-2,2.3508498E-2,1.1541946E-2,-2.2604842E-2,-2.6179252E-2,-1.3812942E-3],"categories":[],"categories_nodes":[],"categories_segments":[],"categories_sizes":[],"default_left":[0,0,0,0,0,0,0,0,0,0,0,0,0,0,0,0,0,0,0,0,0,0,0,0,0,0,0,0,0,0,0,0,0,0,0,0,0,0,0,0,0,0,0,0,0,0,0,0,0,0,0,0,0,0,0],"id":18,"left_children":[1,3,5,7,9,11,13,15,17,19,21,23,25,27,29,31,33,35,37,39,41,-1,43,45,47,-1,49,-1,-1,51,53,-1,-1,-1,-1,-1,-1,-1,-1,-1,-1,-1,-1,-1,-1,-1,-1,-1,-1,-1,-1,-1,-1,-1,-1],"loss_changes":[2.6319603E1,2.2366005E1,1.9720188E1,1.9684711E1,1.5168588E1,2.7759014E1,2.2701014E1,3.2201714E1,2.0378002E1,1.4106213E1,7.557583E0,2.1373674E1,1.4032355E1,1.0878857E1,2.1198097E1,9.739493E0,2.1215134E0,1.8582563E1,1.762098E1,1.6627674E1,1.4333348E1,0E0,7.279068E0,7.1135178E0,8.736458E0,0E0,1.4210987E1,0E0,0E0,3.6455273E1,3.4671448E1,0E0,0E0,0E0,0E0,0E0,0E0,0E0,0E0,0E0,0E0,0E0,0E0,0E0,0E0,0E0,0E0,0E0,0E0,0E0,0E0,0E0,0E0,0E0,0E0],"parents":[2147483647,0,0,1,1,2,2,3,3,4,4,5,5,6,6,7,7,8,8,9,9,10,10,11,11,12,12,13,13,14,14,15,15,16,16,17,17,18,18,19,19,20,20,22,22,23,23,24,24,26,26,29,29,30,30],"right_children":[2,4,6,8,10,12,14,16,18,20,22,24,26,28,30,32,34,36,38,40,42,-1,44,46,48,-1,50,-1,-1,52,54,-1,-1,-1,-1,-1,-1,-1,-1,-1,-1,-1,-1,-1,-1,-1,-1,-1,-1,-1,-1,-1,-1,-1,-1],"split_conditions":[3.0659935E-2,8.625E3,1.717741E0,2.0500494E-2,1.6136683E1,3.33398E3,-1.942025E0,1.2874436E-3,2.3456484E3,8.1659E3,5.817311E0,-5.3587115E-1,1.0045618E0,3.4654792E-3,8.511334E0,4.5669484E-1,4.0317383E0,2.30764E3,2.62788E3,2.75416E3,8.973403E0,-3.680084E-4,5.551031E-1,4.165103E1,3.0931413E-2,-3.6033124E-2,1.8865307E-1,2.9324915E-2,-5.4852176E-3,2.6499993E3,3.19803E3,2.3112739E-2,-4.073779E-3,-3.6392912E-2,-1.5926106E-2,2.0044845E-2,-1.158572E-2,1.89779E-2,6.490335E-3,3.6334156E-4,-2.2675393E-2,2.5700042E-3,3.242183E-2,-5.05689E-3,-3.3514228E-2,3.8279224E-2,8.158688E-3,-1.2955076E-2,9.666724E-3,-2.3891674E-2,2.3508498E-2,1.1541946E-2,-2.2604842E-2,-2.6179252E-2,-1.3812942E-3],"split_indices":[14,12,19,14,21,4,33,44,2,3,24,31,19,11,24,33,48,30,30,30,24,0,19,41,49,0,33,0,0,8,30,0,0,0,0,0,0,0,0,0,0,0,0,0,0,0,0,0,0,0,0,0,0,0,0],"split_type":[0,0,0,0,0,0,0,0,0,0,0,0,0,0,0,0,0,0,0,0,0,0,0,0,0,0,0,0,0,0,0,0,0,0,0,0,0,0,0,0,0,0,0,0,0,0,0,0,0,0,0,0,0,0,0],"sum_hessian":[1.3953002E3,8.8607587E2,5.0922433E2,5.9746124E2,2.8861465E2,1.4269594E2,3.665284E2,7.750114E1,5.199601E2,2.298132E2,5.8801437E1,1.0442694E2,3.8268997E1,3.0873991E1,3.3565442E2,4.4390465E1,3.3110672E1,8.927333E1,4.3068674E2,1.555194E2,7.4293816E1,1.9173794E1,3.9627644E1,3.9125614E1,6.530132E1,1.7498806E1,2.077019E1,1.8700626E1,1.2173365E1,1.19716576E2,2.1593784E2,2.2114803E1,2.2275661E1,1.9473806E1,1.3636867E1,2.0838018E1,6.843531E1,1.772381E2,2.5344865E2,1.2016975E2,3.534964E1,5.484718E1,1.9446636E1,1.4202499E1,2.5425142E1,2.6939245E1,1.2186371E1,2.2422678E1,4.2878643E1,1.0339476E1,1.0430713E1,7.662546E1,4.3091114E1,1.3127596E2,8.466189E1],"tree_param":{"num_deleted":"0","num_feature":"50","num_nodes":"55","size_leaf_vector":"1"}},{"base_weights":[-0E0,4.608258E-1,-3.351646E-2,-2.4257924E-1,8.031308E-1,8.313425E-2,-1.9737194E-1,-2.3602033E-2,1.4530586E-2,-0E0,9.843563E-1,5.242318E-1,-0E0,2.8383614E-2,-2.2532314E-1,1.1875398E0,6.0891476E-3,8.8116187E-1,-2.4032041E-1,2.559952E-2,-2.659983E-2,-3.2004282E-2,-1.9508284E-1,4.016022E-2,1.8891161E-2,3.0404355E-2,2.07982E-3,1.6230272E-2,-1.70207E-2,1.8562938E-3,-1.8388135E-2,-4.6233943E-4,-8.826055E-3],"categories":[],"categories_nodes":[],"categories_segments":[],"categories_sizes":[],"default_left":[0,0,0,0,0,0,0,0,0,0,0,0,0,0,0,0,0,0,0,0,0,0,0,0,0,0,0,0,0,0,0,0,0],"id":19,"left_children":[1,3,5,7,9,11,13,-1,-1,-1,15,17,19,-1,21,23,-1,25,27,29,-1,-1,31,-1,-1,-1,-1,-1,-1,-1,-1,-1,-1],"loss_changes":[2.133391E1,2.3014832E1,2.4821726E1,1.27682E1,9.34066E0,2.7832771E1,1.7128952E1,0E0,0E0,0E0,7.3242035E0,3.3352955E1,1.4683899E1,0E0,1.2618725E1,1.5939217E0,0E0,8.2668E0,1.0187876E1,1.4096926E1,0E0,0E0,8.9643345E0,0E0,0E0,0E0,0E0,0E0,0E0,0E0,0E0,0E0,0E0],"parents":[2147483647,0,0,1,1,2,2,3,3,4,4,5,5,6,6,10,10,11,11,12,12,14,14,15,15,17,17,18,18,19,19,22,22],"right_children":[2,4,6,8,10,12,14,-1,-1,-1,16,18,20,-1,22,24,-1,26,28,30,-1,-1,32,-1,-1,-1,-1,-1,-1,-1,-1,-1,-1],"split_conditions":[-8.660254E-1,-4.2475107E-1,3E0,7.701E3,3.104313E0,4.54087E1,2.3244E3,-2.3602033E-2,1.4530586E-2,-0E0,1E0,2.4891496E-3,9.628864E0,2.8383614E-2,2.3196663E3,2.58843E3,6.0891476E-3,9.6166E3,7.163298E-1,3.5904371E-3,-2.659983E-2,-3.2004282E-2,2.6506E3,4.016022E-2,1.8891161E-2,3.0404355E-2,2.07982E-3,1.6230272E-2,-1.70207E-2,1.8562938E-3,-1.8388135E-2,-4.6233943E-4,-8.826055E-3],"split_indices":[6,31,22,42,24,32,1,0,0,0,43,44,19,0,2,0,0,35,29,11,0,0,1,0,0,0,0,0,0,0,0,0,0],"split_type":[0,0,0,0,0,0,0,0,0,0,0,0,0,0,0,0,0,0,0,0,0,0,0,0,0,0,0,0,0,0,0,0,0],"sum_hessian":[1.3863895E3,9.261169E1,1.2937778E3,2.9932934E1,6.2678753E1,7.5425543E2,5.395224E2,1.7464895E1,1.2468038E1,1.1648934E1,5.102982E1,1.1927034E2,6.3498505E2,1.1662641E1,5.278598E2,3.957853E1,1.1451288E1,8.1652466E1,3.761787E1,6.178231E2,1.716198E1,1.6548841E1,5.1131094E2,2.9334763E1,1.024377E1,6.9466255E1,1.2186212E1,1.0455426E1,2.7162447E1,5.862054E2,3.161769E1,1.8399174E2,3.2731918E2],"tree_param":{"num_deleted":"0","num_feature":"50","num_nodes":"33","size_leaf_vector":"1"}},{"base_weights":[1.4201009E-2,3.3815077E-1,-3.978962E-2,5.675015E-1,-5.8392476E-2,-1.643615E-1,8.920098E-2,2.8784457E-1,9.542545E-1,3.3351037E-1,-3.4245062E-1,-4.871847E-2,-5.821184E-1,5.719843E-1,-5.0845392E-2,7.3955125E-1,-1.2747332E-1,5.5394024E-3,1.1882396E0,-2.9443656E-3,3.396686E-2,-2.7816018E-2,1.1808114E-1,-4.9281025E-1,6.856424E-2,-7.436231E-1,1.20024346E-1,9.3155956E-1,2.5662917E-1,8.91795E-2,-4.193859E-1,4.128038E-2,1.2894068E-2,9.473054E-3,-1.96071E-2,4.1401118E-2,1.6080664E-2,1.7647816E-2,-1.3894629E-2,-2.129971E-2,4.5537357E-3,7.2758673E-3,-1.2968887E-2,-4.386076E-3,-2.9600585E-2,-1.157953E-2,2.3569413E-2,3.832936E-2,5.7498426E-3,-1.9332899E-2,1.7700179E-2,2.591645E-2,3.7154948E-4,-1.9399848E-2,4.7518336E-3],"categories":[],"categories_nodes":[],"categories_segments":[],"categories_sizes":[],"default_left":[0,0,0,0,0,0,0,0,0,0,0,0,0,0,0,0,0,0,0,0,0,0,0,0,0,0,0,0,0,0,0,0,0,0,0,0,0,0,0,0,0,0,0,0,0,0,0,0,0,0,0,0,0,0,0],"id":20,"left_children":[1,3,5,7,9,11,13,15,17,19,21,23,25,27,29,31,33,-1,35,-1,-1,-1,37,39,41,43,45,47,49,51,53,-1,-1,-1,-1,-1,-1,-1,-1,-1,-1,-1,-1,-1,-1,-1,-1,-1,-1,-1,-1,-1,-1,-1,-1],"loss_changes":[2.4458324E1,1.846516E1,1.9177593E1,1.2896713E1,8.28388E0,2.9019934E1,3.973595E1,1.469359E1,8.517849E0,1.11745E1,1.229775E1,2.5145502E1,1.522765E1,1.4142719E1,2.3546034E1,5.843275E0,9.695764E0,0E0,3.236992E0,0E0,0E0,0E0,7.136367E0,1.4510942E1,3.2960964E1,1.4828976E1,8.833128E0,1.453495E1,2.2126125E1,1.904375E1,1.6853682E1,0E0,0E0,0E0,0E0,0E0,0E0,0E0,0E0,0E0,0E0,0E0,0E0,0E0,0E0,0E0,0E0,0E0,0E0,0E0,0E0,0E0,0E0,0E0,0E0],"parents":[2147483647,0,0,1,1,2,2,3,3,4,4,5,5,6,6,7,7,8,8,9,9,10,10,11,11,12,12,13,13,14,14,15,15,16,16,18,18,22,22,23,23,24,24,25,25,26,26,27,27,28,28,29,29,30,30],"right_children":[2,4,6,8,10,12,14,16,18,20,22,24,26,28,30,32,34,-1,36,-1,-1,-1,38,40,42,44,46,48,50,52,54,-1,-1,-1,-1,-1,-1,-1,-1,-1,-1,-1,-1,-1,-1,-1,-1,-1,-1,-1,-1,-1,-1,-1,-1],"split_conditions":[4.9698243E0,2.52211E3,-1.8369701E-16,2.36228E3,8.348706E0,4.3484535E0,2.6506E3,6.2533695E-1,-1.9056903E-1,1.2246469E-16,7.2791E3,2.3608778E-2,4.6720715E0,1.6364288E0,1.8086493E-3,2.31353E3,2.3727216E-1,5.5394024E-3,1.6391651E1,-2.9443656E-3,3.396686E-2,-2.7816018E-2,2.69485E3,1.2932458E0,3.30682E3,2.738797E-1,2.4367E3,2.1169107E0,1.6102034E-3,-1.1832482E0,-2.9007962E-1,4.128038E-2,1.2894068E-2,9.473054E-3,-1.96071E-2,4.1401118E-2,1.6080664E-2,1.7647816E-2,-1.3894629E-2,-2.129971E-2,4.5537357E-3,7.2758673E-3,-1.2968887E-2,-4.386076E-3,-2.9600585E-2,-1.157953E-2,2.3569413E-2,3.832936E-2,5.7498426E-3,-1.9332899E-2,1.7700179E-2,2.591645E-2,3.7154948E-4,-1.9399848E-2,4.7518336E-3],"split_indices":[25,10,26,39,21,19,1,28,33,6,17,49,7,37,11,16,20,0,37,0,0,0,16,7,39,43,0,9,11,36,15,0,0,0,0,0,0,0,0,0,0,0,0,0,0,0,0,0,0,0,0,0,0,0,0],"split_type":[0,0,0,0,0,0,0,0,0,0,0,0,0,0,0,0,0,0,0,0,0,0,0,0,0,0,0,0,0,0,0,0,0,0,0,0,0,0,0,0,0,0,0,0,0,0,0,0,0,0,0,0,0,0,0],"sum_hessian":[1.3880989E3,1.988678E2,1.1892311E3,1.26520996E2,7.234681E1,6.0681006E2,5.824211E2,7.5189415E1,5.1331573E1,2.9589352E1,4.2757454E1,4.7706332E2,1.297467E2,1.3106956E2,4.513515E2,3.6219593E1,3.8969826E1,1.2883168E1,3.8448406E1,1.9371449E1,1.0217903E1,1.8870028E1,2.3887426E1,9.98901E1,3.7717325E2,1.0601459E2,2.3732122E1,5.9587265E1,7.148231E1,3.2664563E2,1.2470585E2,1.020145E1,2.6018143E1,2.0851566E1,1.811826E1,2.8256485E1,1.0191923E1,1.367414E1,1.0213286E1,7.522082E1,2.4669283E1,2.8106467E2,9.610858E1,3.1716854E1,7.429773E1,1.3294521E1,1.0437601E1,3.964217E1,1.9945095E1,1.864778E1,5.2834526E1,2.7947855E1,2.9869778E2,9.003561E1,3.4670242E1],"tree_param":{"num_deleted":"0","num_feature":"50","num_nodes":"55","size_leaf_vector":"1"}},{"base_weights":[-4.463415E-3,7.9897213E-1,-2.5953945E-2,4.327583E-2,2.7176656E-3,-9.216993E-1,-8.322053E-3,-3.472534E-3,-4.237293E-2,2.897764E-2,-3.4442553E-1,8.879289E-3,6.414255E-1,-5.410131E-1,2.452662E-2,1.7816926E-3,-9.265104E-3,-1.2725874E-2,3.3648215E-2,-6.0186856E-3,-2.362877E-2],"categories":[],"categories_nodes":[],"categories_segments":[],"categories_sizes":[],"default_left":[0,0,0,0,0,0,0,0,0,0,0,0,0,0,0,0,0,0,0,0,0],"id":21,"left_children":[1,3,5,-1,-1,7,9,-1,-1,11,13,15,17,19,-1,-1,-1,-1,-1,-1,-1],"loss_changes":[2.3527676E1,1.527569E1,2.0838488E1,0E0,0E0,9.154362E0,1.677684E1,0E0,0E0,1.4342917E1,3.0858503E1,1.8445498E1,1.9794392E1,9.03278E0,0E0,0E0,0E0,0E0,0E0,0E0,0E0],"parents":[2147483647,0,0,1,1,2,2,5,5,6,6,9,9,10,10,11,11,12,12,13,13],"right_children":[2,4,6,-1,-1,8,10,-1,-1,12,14,16,18,20,-1,-1,-1,-1,-1,-1,-1],"split_conditions":[2.3244E3,5.707773E-1,2.3165022E3,4.327583E-2,2.7176656E-3,1.861634E-3,3.29315E3,-3.472534E-3,-4.237293E-2,3.27637E3,3.671062E0,3.98039E-2,4.5541993E-1,-2.975251E-1,2.452662E-2,1.7816926E-3,-9.265104E-3,-1.2725874E-2,3.3648215E-2,-6.0186856E-3,-2.362877E-2],"split_indices":[1,34,2,0,0,11,30,0,0,30,9,49,19,15,0,0,0,0,0,0,0],"split_type":[0,0,0,0,0,0,0,0,0,0,0,0,0,0,0,0,0,0,0,0,0],"sum_hessian":[1.3828235E3,3.447597E1,1.3483475E3,1.7151707E1,1.7324265E1,2.449136E1,1.3238562E3,1.0122136E1,1.4369224E1,1.191098E3,1.3275812E2,1.1550251E3,3.6072906E1,1.1437284E2,1.8385277E1,9.9864716E2,1.5637799E2,1.0918298E1,2.515461E1,4.966418E1,6.4708664E1],"tree_param":{"num_deleted":"0","num_feature":"50","num_nodes":"21","size_leaf_vector":"1"}},{"base_weights":[6.5711304E-3,1.0522082E-1,-1.7227165E-1,2.333212E-3,3.557879E-1,8.759204E-2,-3.0459815E-1,1.1940391E-1,-3.2689562E-1,1.931057E-1,8.130013E-1,-5.394771E-1,3.5689694E-1,-3.7410167E-1,5.1928926E-1,6.0901463E-1,2.2675046E-3,-2.4795985E-2,-7.366955E-1,-1.9424509E-1,4.0223107E-1,1.0842309E0,9.081216E-4,-3.2775998E-2,-3.313807E-1,5.603961E-1,-1.7216915E-2,-2.8438917E-1,-9.2235076E-1,-9.618749E-3,3.4775045E-2,-9.228097E-3,2.563803E-2,2.6312803E-3,-1.106309E-2,-1.6963556E-2,4.854164E-3,-3.6366828E-2,-5.6745256E-3,6.2100263E-3,-1.1329756E-2,-1.7137086E-2,1.5046695E-2,3.8169567E-2,1.3669034E-2,1.0895949E-2,-2.2674479E-2,3.182107E-2,6.391744E-3,-5.9744935E-3,-2.7294802E-2,-4.0631775E-2,-6.8947044E-3],"categories":[],"categories_nodes":[],"categories_segments":[],"categories_sizes":[],"default_left":[0,0,0,0,0,0,0,0,0,0,0,0,0,0,0,0,0,0,0,0,0,0,0,0,0,0,0,0,0,0,0,0,0,0,0,0,0,0,0,0,0,0,0,0,0,0,0,0,0,0,0,0,0],"id":22,"left_children":[1,3,5,7,9,11,13,15,17,19,21,23,25,27,29,31,33,35,37,39,41,43,-1,-1,45,47,-1,49,51,-1,-1,-1,-1,-1,-1,-1,-1,-1,-1,-1,-1,-1,-1,-1,-1,-1,-1,-1,-1,-1,-1,-1,-1],"loss_changes":[2.4385338E1,2.2862204E1,1.6993504E1,2.4450045E1,1.8586113E1,2.7951017E1,1.8808859E1,2.6708128E1,2.015042E1,1.5813248E1,1.358894E1,4.609935E0,2.2387173E1,1.3992649E1,1.4359995E1,2.0821133E1,1.1999999E1,1.0108349E1,1.721846E1,5.130355E0,1.2480568E1,4.361149E0,0E0,0E0,1.1666659E1,1.591848E1,0E0,1.3223509E1,1.1239166E1,0E0,0E0,0E0,0E0,0E0,0E0,0E0,0E0,0E0,0E0,0E0,0E0,0E0,0E0,0E0,0E0,0E0,0E0,0E0,0E0,0E0,0E0,0E0,0E0],"parents":[2147483647,0,0,1,1,2,2,3,3,4,4,5,5,6,6,7,7,8,8,9,9,10,10,11,11,12,12,13,13,14,14,15,15,16,16,17,17,18,18,19,19,20,20,21,21,24,24,25,25,27,27,28,28],"right_children":[2,4,6,8,10,12,14,16,18,20,22,24,26,28,30,32,34,36,38,40,42,44,-1,-1,46,48,-1,50,52,-1,-1,-1,-1,-1,-1,-1,-1,-1,-1,-1,-1,-1,-1,-1,-1,-1,-1,-1,-1,-1,-1,-1,-1],"split_conditions":[1.953779E-3,8.9541E3,2.738797E-1,6.383736E0,1.6401156E0,-1.9004493E0,4.4625726E0,-8.624266E-1,1.2847115E0,2.5002012E-1,7.553948E1,8.925563E0,3.33398E3,3.4916839E-3,1.7353085E-1,2.32274E3,5.0230014E-1,-4.5089343E-1,2.2058444E0,5E0,2.37805E3,9.296322E-1,9.081216E-4,-3.2775998E-2,1.2024633E1,1.2775907E-1,-1.7216915E-2,9.0876465E0,6.297652E-1,-9.618749E-3,3.4775045E-2,-9.228097E-3,2.563803E-2,2.6312803E-3,-1.106309E-2,-1.6963556E-2,4.854164E-3,-3.6366828E-2,-5.6745256E-3,6.2100263E-3,-1.1329756E-2,-1.7137086E-2,1.5046695E-2,3.8169567E-2,1.3669034E-2,1.0895949E-2,-2.2674479E-2,3.182107E-2,6.391744E-3,-5.9744935E-3,-2.7294802E-2,-4.0631775E-2,-6.8947044E-3],"split_indices":[11,3,43,40,5,5,7,15,9,9,32,40,4,11,33,0,15,15,19,38,10,33,0,0,40,43,0,19,33,0,0,0,0,0,0,0,0,0,0,0,0,0,0,0,0,0,0,0,0,0,0,0,0],"split_type":[0,0,0,0,0,0,0,0,0,0,0,0,0,0,0,0,0,0,0,0,0,0,0,0,0,0,0,0,0,0,0,0,0,0,0,0,0,0,0,0,0,0,0,0,0,0,0,0,0,0,0,0,0],"sum_hessian":[1.3820435E3,8.927886E2,4.8925482E2,6.350357E2,2.577529E2,1.6391566E2,3.2533917E2,4.7004727E2,1.649884E2,1.9196523E2,6.578769E1,4.83873E1,1.1552836E2,3.0109174E2,2.4247427E1,8.911088E1,3.809364E2,9.628722E1,6.870118E1,6.648996E1,1.25475266E2,4.8097202E1,1.7690487E1,1.1410045E1,3.6977257E1,9.5569214E1,1.9959146E1,2.6084E2,4.0251724E1,1.0362713E1,1.3884713E1,1.834652E1,7.0764366E1,3.1135034E2,6.958607E1,2.4872189E1,7.141503E1,3.5630062E1,3.307112E1,1.9963018E1,4.6526943E1,1.0711272E1,1.1476399E2,3.5619633E1,1.2477567E1,1.3633149E1,2.3344107E1,3.7729805E1,5.783941E1,2.3141841E2,2.94216E1,2.375448E1,1.6497244E1],"tree_param":{"num_deleted":"0","num_feature":"50","num_nodes":"53","size_leaf_vector":"1"}},{"base_weights":[1.139321E-2,-3.4775913E-1,5.422528E-2,-8.992003E-1,-2.1724424E-1,1.7584574E-1,-1.02876075E-1,-4.1615635E-2,-3.163049E-3,-3.0298727E-2,-1.0631968E-1,4.5371556E-1,5.224843E-2,-5.0817794E-1,-1.6098993E-2,3.844445E-1,-3.2063136E-1,6.41656E-1,1.0375355E-2,2.9661807E-1,-1.18076384E-1,-0E0,-6.1155206E-1,1.7504208E-1,-1.805283E-1,-0E0,2.9751524E-2,-2.1164939E-2,8.754725E-4,2.161358E-2,-1.08355945E-2,-6.922553E-3,2.8953243E-2,3.963698E-3,2.2756713E-2,-1.1321467E-2,3.18572E-4,-2.5905589E-2,-5.918934E-3,7.878817E-3,-1.0283616E-2,3.1639123E-3,-1.1189687E-2],"categories":[],"categories_nodes":[],"categories_segments":[],"categories_sizes":[],"default_left":[0,0,0,0,0,0,0,0,0,0,0,0,0,0,0,0,0,0,0,0,0,0,0,0,0,0,0,0,0,0,0,0,0,0,0,0,0,0,0,0,0,0,0],"id":23,"left_children":[1,3,5,7,9,11,13,-1,-1,-1,15,17,19,21,23,25,27,29,31,33,35,-1,37,39,41,-1,-1,-1,-1,-1,-1,-1,-1,-1,-1,-1,-1,-1,-1,-1,-1,-1,-1],"loss_changes":[2.1307276E1,9.852213E0,2.3881643E1,9.624197E0,9.992693E0,2.3937937E1,1.8827074E1,0E0,0E0,0E0,1.1450686E1,1.7638771E1,2.0534763E1,5.20632E0,1.4154924E1,7.6831055E0,1.0648506E1,1.23455925E1,1.5788822E1,1.4872019E1,9.814248E0,0E0,7.578062E0,9.432215E0,1.3571272E1,0E0,0E0,0E0,0E0,0E0,0E0,0E0,0E0,0E0,0E0,0E0,0E0,0E0,0E0,0E0,0E0,0E0,0E0],"parents":[2147483647,0,0,1,1,2,2,3,3,4,4,5,5,6,6,10,10,11,11,12,12,13,13,14,14,15,15,16,16,17,17,18,18,19,19,20,20,22,22,23,23,24,24],"right_children":[2,4,6,8,10,12,14,-1,-1,-1,16,18,20,22,24,26,28,30,32,34,36,-1,38,40,42,-1,-1,-1,-1,-1,-1,-1,-1,-1,-1,-1,-1,-1,-1,-1,-1,-1,-1],"split_conditions":[-1.0826385E0,1.5001649E-1,1.1064328E-2,2.5905216E-2,-8.660254E-1,-6.238125E-1,1.4225442E-3,-4.1615635E-2,-3.163049E-3,-3.0298727E-2,9.214949E-2,2.6629429E3,2.3137316E-1,3.6331078E1,2.038038E0,-3.4272984E-2,2.65879E3,2.428E1,7.3299184E0,9.815141E-3,-1.3608746E-1,-0E0,8.122473E-1,3.33751E3,3.338948E1,-0E0,2.9751524E-2,-2.1164939E-2,8.754725E-4,2.161358E-2,-1.08355945E-2,-6.922553E-3,2.8953243E-2,3.963698E-3,2.2756713E-2,-1.1321467E-2,3.18572E-4,-2.5905589E-2,-5.918934E-3,7.878817E-3,-1.0283616E-2,3.1639123E-3,-1.1189687E-2],"split_indices":[7,28,23,49,26,15,18,0,0,0,5,2,7,32,19,20,0,47,40,23,15,0,34,10,45,0,0,0,0,0,0,0,0,0,0,0,0,0,0,0,0,0,0],"split_type":[0,0,0,0,0,0,0,0,0,0,0,0,0,0,0,0,0,0,0,0,0,0,0,0,0,0,0,0,0,0,0,0,0,0,0,0,0,0,0,0,0,0,0],"sum_hessian":[1.3924117E3,1.4636128E2,1.2460504E3,2.6150717E1,1.20210556E2,7.0406213E2,5.4198834E2,1.5341578E1,1.080914E1,1.3208024E1,1.0700253E2,2.1468774E2,4.893744E2,9.370604E1,4.482823E2,3.1573565E1,7.542897E1,1.4966621E2,6.502152E1,2.0189877E2,2.874756E2,1.5390571E1,7.831547E1,2.0586679E2,2.424155E2,1.9866545E1,1.170702E1,3.6111492E1,3.9317474E1,1.3948647E2,1.0179746E1,5.209821E1,1.2923312E1,1.5062881E2,5.1269962E1,9.599997E1,1.9147563E2,4.7271416E1,3.1044054E1,1.7733151E2,2.8535284E1,9.665016E1,1.4576534E2],"tree_param":{"num_deleted":"0","num_feature":"50","num_nodes":"43","size_leaf_vector":"1"}},{"base_weights":[-2.269252E-4,2.0859197E-1,-6.942961E-2,4.593823E-1,-1.0944292E-2,-2.0615822E-1,6.9187E-2,3.573966E-1,4.2159386E-2,3.245162E-2,-9.152205E-2,2.2928745E-2,-2.287194E-1,2.9069477E-1,-1.2340129E-1,4.4899988E-1,-2.259989E-2,1.394628E-2,-8.2997984E-1,-2.649697E-1,3.378636E-1,5.402892E-2,5.886417E-1,-3.9886048E-1,2.9169232E-1,2.6683588E-2,8.060226E-3,8.253707E-3,-9.780531E-3,-3.8315333E-2,-7.748671E-3,-4.183646E-3,-1.50563065E-2,-7.7273017E-3,2.7402688E-2,-1.462801E-2,1.0604046E-2,1.0177609E-2,3.333319E-2,-2.8231062E-2,-7.245994E-3,1.3755064E-2,-1.9325742E-2],"categories":[],"categories_nodes":[],"categories_segments":[],"categories_sizes":[],"default_left":[0,0,0,0,0,0,0,0,0,0,0,0,0,0,0,0,0,0,0,0,0,0,0,0,0,0,0,0,0,0,0,0,0,0,0,0,0,0,0,0,0,0,0],"id":24,"left_children":[1,3,5,7,9,11,13,15,-1,-1,17,-1,19,21,23,25,-1,27,29,31,33,35,37,39,41,-1,-1,-1,-1,-1,-1,-1,-1,-1,-1,-1,-1,-1,-1,-1,-1,-1,-1],"loss_changes":[1.9940052E1,1.9106388E1,1.9827955E1,1.416037E1,1.5692838E1,1.1435387E1,2.214325E1,1.516947E1,0E0,0E0,1.3779358E1,0E0,1.0648066E1,1.6683735E1,3.1688574E1,1.0069956E1,0E0,1.342622E1,4.538704E0,1.4067341E1,1.1060436E1,2.2274195E1,1.2699039E1,1.3412956E1,1.7345621E1,0E0,0E0,0E0,0E0,0E0,0E0,0E0,0E0,0E0,0E0,0E0,0E0,0E0,0E0,0E0,0E0,0E0,0E0],"parents":[2147483647,0,0,1,1,2,2,3,3,4,4,5,5,6,6,7,7,10,10,12,12,13,13,14,14,15,15,17,17,18,18,19,19,20,20,21,21,22,22,23,23,24,24],"right_children":[2,4,6,8,10,12,14,16,-1,-1,18,-1,20,22,24,26,-1,28,30,32,34,36,38,40,42,-1,-1,-1,-1,-1,-1,-1,-1,-1,-1,-1,-1,-1,-1,-1,-1,-1,-1],"split_conditions":[8.530312E-3,2.6182E3,8.9142E3,7.64258E3,-6.744637E-2,2.29932E3,1.953779E-3,4.8204193E0,4.2159386E-2,3.245162E-2,1E0,2.2928745E-2,2.3251028E0,-3.4272984E-2,2.4085085E1,4.166317E1,-2.259989E-2,8.538E3,2.646972E-1,8.299214E-1,9.58796E0,2.6656494E-1,2.830548E-2,3.0728367E-1,3.42742E3,2.6683588E-2,8.060226E-3,8.253707E-3,-9.780531E-3,-3.8315333E-2,-7.748671E-3,-4.183646E-3,-1.50563065E-2,-7.7273017E-3,2.7402688E-2,-1.462801E-2,1.0604046E-2,1.0177609E-2,3.333319E-2,-2.8231062E-2,-7.245994E-3,1.3755064E-2,-1.9325742E-2],"split_indices":[23,16,3,35,19,16,11,31,0,0,26,0,5,20,21,45,0,12,20,5,21,9,49,9,1,0,0,0,0,0,0,0,0,0,0,0,0,0,0,0,0,0,0],"split_type":[0,0,0,0,0,0,0,0,0,0,0,0,0,0,0,0,0,0,0,0,0,0,0,0,0,0,0,0,0,0,0,0,0,0,0,0,0,0,0,0,0,0,0],"sum_hessian":[1.3826681E3,3.4186182E2,1.0408063E3,1.6012537E2,1.8173643E2,5.2554205E2,5.152642E2,1.4626247E2,1.3862906E1,1.1202092E1,1.7053435E2,1.0689827E1,5.1485223E2,2.4061023E2,2.74654E2,1.3608522E2,1.01772375E1,1.4948811E2,2.1046228E1,4.8522226E2,2.9629974E1,1.3568895E2,1.04921265E2,1.65843E2,1.0881099E2,3.7582684E1,9.850254E1,8.547977E1,6.400835E1,1.062574E1,1.0420487E1,3.1959705E2,1.6562523E2,1.4408024E1,1.5221951E1,4.7490116E1,8.819884E1,7.2785095E1,3.213617E1,3.5465115E1,1.3037788E2,9.323698E1,1.5574014E1],"tree_param":{"num_deleted":"0","num_feature":"50","num_nodes":"43","size_leaf_vector":"1"}},{"base_weights":[5.474716E-3,7.257555E-1,-1.1973944E-2,3.4477197E-2,-1.0821142E-3,-6.389987E-1,1.333948E-2,-1.8982005E-1,-3.2835E-2,1.476945E-1,-7.509645E-2,-2.8778644E-2,1.3265249E-2,2.1483941E-1,-6.9898915E-1,-5.021481E-1,-1.2491678E-2,-1.1382834E-2,9.026013E-3,-3.5031296E-2,1.4447326E-2,-6.1363284E-3,-2.55638E-2,-6.2765204E-3,3.7367265E-3],"categories":[],"categories_nodes":[],"categories_segments":[],"categories_sizes":[],"default_left":[0,0,0,0,0,0,0,0,0,0,0,0,0,0,0,0,0,0,0,0,0,0,0,0,0],"id":25,"left_children":[1,3,5,-1,-1,7,9,11,-1,13,15,-1,-1,17,19,21,23,-1,-1,-1,-1,-1,-1,-1,-1],"loss_changes":[1.7804583E1,1.14099865E1,2.182916E1,0E0,0E0,1.0069479E1,1.5525794E1,1.4607227E1,0E0,2.9452251E1,2.0697441E1,0E0,0E0,2.4757744E1,2.1862293E1,9.6288395E0,1.855892E1,0E0,0E0,0E0,0E0,0E0,0E0,0E0,0E0],"parents":[2147483647,0,0,1,1,2,2,5,5,6,6,7,7,9,9,10,10,13,13,14,14,15,15,16,16],"right_children":[2,4,6,-1,-1,8,10,12,-1,14,16,-1,-1,18,20,22,24,-1,-1,-1,-1,-1,-1,-1,-1],"split_conditions":[2.31784E3,6.3409E3,2.30558E3,3.4477197E-2,-1.0821142E-3,2.32877E3,2.6506E3,2.29557E3,-3.2835E-2,2.5035203E-3,2.64644E3,-2.8778644E-2,1.3265249E-2,2.0832494E-2,2.4818135E3,1.7131745E-3,8.427521E-1,-1.1382834E-2,9.026013E-3,-3.5031296E-2,1.4447326E-2,-6.1363284E-3,-2.55638E-2,-6.2765204E-3,3.7367265E-3],"split_indices":[4,3,0,0,0,4,1,0,0,44,30,0,0,14,8,44,29,0,0,0,0,0,0,0,0],"split_type":[0,0,0,0,0,0,0,0,0,0,0,0,0,0,0,0,0,0,0,0,0,0,0,0,0],"sum_hessian":[1.3865792E3,3.251279E1,1.3540664E3,2.0991693E1,1.1521095E1,5.2369118E1,1.3016974E3,2.7633553E1,2.4735563E1,5.186816E2,7.8301575E2,1.2584686E1,1.5048866E1,4.8180923E2,3.6872322E1,9.81933E1,6.8482245E2,5.9761635E1,4.220476E2,2.6704315E1,1.0168008E1,5.4695858E1,4.3497444E1,2.8247247E2,4.0235E2],"tree_param":{"num_deleted":"0","num_feature":"50","num_nodes":"25","size_leaf_vector":"1"}},{"base_weights":[-2.2969788E-2,1.3594107E-2,-3.729777E-1,3.533262E-2,2.3325002E-3,-5.6223625E-1,2.4684643E-2,-4.5476744E-1,3.922629E-2,-2.51806E-1,-8.00511E-1,1.0799766E-2,-6.456735E-1,5.7410847E-2,-6.1553943E-1,2.0067953E-2,-5.650832E-1,-3.2069913E-1,-1.2722158E0,-3.2225993E-2,-9.154686E-3,1.0729952E-2,4.5121153E-4,-0E0,-3.0344877E-2,-4.2750794E-2,-4.576378E-3,-2.0963753E-2,1.0492713E-2,-4.5180604E-2,-1.9832514E-2],"categories":[],"categories_nodes":[],"categories_segments":[],"categories_sizes":[],"default_left":[0,0,0,0,0,0,0,0,0,0,0,0,0,0,0,0,0,0,0,0,0,0,0,0,0,0,0,0,0,0,0],"id":26,"left_children":[1,3,5,-1,7,9,-1,11,13,15,17,-1,19,21,23,-1,25,27,29,-1,-1,-1,-1,-1,-1,-1,-1,-1,-1,-1,-1],"loss_changes":[1.7909887E1,1.5843577E1,3.0280973E1,0E0,2.0774117E1,7.7936745E0,0E0,1.4671017E1,1.3475143E1,1.5439962E1,1.3236923E1,0E0,9.972807E0,1.4091503E1,7.156884E0,0E0,1.3199351E1,8.909503E0,2.3949738E0,0E0,0E0,0E0,0E0,0E0,0E0,0E0,0E0,0E0,0E0,0E0,0E0],"parents":[2147483647,0,0,1,1,2,2,4,4,5,5,7,7,8,8,9,9,10,10,12,12,13,13,14,14,16,16,17,17,18,18],"right_children":[2,4,6,-1,8,10,-1,12,14,16,18,-1,20,22,24,-1,26,28,30,-1,-1,-1,-1,-1,-1,-1,-1,-1,-1,-1,-1],"split_conditions":[3.29315E3,1.7008737E-2,3.671062E0,3.533262E-2,2.0500494E-2,-2.975251E-1,2.4684643E-2,4.1134216E1,1.3932965E0,9.572524E0,4.423077E1,1.0799766E-2,-1.5021895E-1,4.8966355E0,1.405564E-1,2.0067953E-2,3.3856064E-2,1.9968515E1,3.4379032E-1,-3.2225993E-2,-9.154686E-3,1.0729952E-2,4.5121153E-4,-0E0,-3.0344877E-2,-4.2750794E-2,-4.576378E-3,-2.0963753E-2,1.0492713E-2,-4.5180604E-2,-1.9832514E-2],"split_indices":[30,14,9,0,14,15,0,32,15,40,45,0,20,25,36,0,14,21,15,0,0,0,0,0,0,0,0,0,0,0,0],"split_type":[0,0,0,0,0,0,0,0,0,0,0,0,0,0,0,0,0,0,0,0,0,0,0,0,0,0,0,0,0,0,0],"sum_hessian":[1.3840292E3,1.2526976E3,1.3133157E2,1.0584199E1,1.2421134E3,1.1420445E2,1.7127129E1,9.0908844E1,1.1512046E3,5.1397594E1,6.2806854E1,1.659196E1,7.431688E1,1.1217273E3,2.9477354E1,1.2354827E1,3.904277E1,3.249412E1,3.031273E1,3.130187E1,4.301501E1,1.3633813E2,9.853891E2,1.2195689E1,1.7281664E1,1.1469023E1,2.7573746E1,2.1227005E1,1.1267118E1,2.0273943E1,1.0038788E1],"tree_param":{"num_deleted":"0","num_feature":"50","num_nodes":"31","size_leaf_vector":"1"}},{"base_weights":[-2.5542653E-3,2.1013465E-2,-5.414775E-1,-5.635894E-2,1.923173E-1,-3.633889E-2,-3.1041333E-1,1.49931E-1,-1.935156E-1,1.5005492E-2,4.5555115E-1,7.0285057E-3,-5.7742405E-1,2.6163706E-1,-4.155241E-1,-3.0188715E-1,4.9604466E-3,-8.4278756E-1,1.2971003E-1,5.9252983E-1,-2.2832662E-1,-1.003758E0,6.2211235E-3,2.1435628E-2,4.8896563E-3,1.5494074E-2,-2.0383282E-2,1.2225426E-3,-1.2442565E-2,-2.300415E-2,2.2170409E-3,-9.825738E-3,-4.333835E-2,1.1751862E-2,-6.5354565E-3,-1.7135352E-3,2.2936014E-2,-2.656564E-2,5.8782E-3,-1.8211743E-2,-3.795282E-2],"categories":[],"categories_nodes":[],"categories_segments":[],"categories_sizes":[],"default_left":[0,0,0,0,0,0,0,0,0,0,0,0,0,0,0,0,0,0,0,0,0,0,0,0,0,0,0,0,0,0,0,0,0,0,0,0,0,0,0,0,0],"id":27,"left_children":[1,3,5,7,9,-1,11,13,15,17,19,-1,21,23,25,27,29,31,33,35,37,39,-1,-1,-1,-1,-1,-1,-1,-1,-1,-1,-1,-1,-1,-1,-1,-1,-1,-1,-1],"loss_changes":[1.8119654E1,1.7924547E1,8.119015E0,2.6258514E1,1.941526E1,0E0,7.0500813E0,2.3340454E1,1.2157421E1,2.472673E1,1.6086926E1,0E0,1.1318893E1,1.3271782E1,1.5318872E1,1.4231499E1,1.0166036E1,7.8062763E0,2.06862E1,1.6168186E1,8.382333E0,5.0735664E-1,0E0,0E0,0E0,0E0,0E0,0E0,0E0,0E0,0E0,0E0,0E0,0E0,0E0,0E0,0E0,0E0,0E0,0E0,0E0],"parents":[2147483647,0,0,1,1,2,2,3,3,4,4,6,6,7,7,8,8,9,9,10,10,12,12,13,13,14,14,15,15,16,16,17,17,18,18,19,19,20,20,21,21],"right_children":[2,4,6,8,10,-1,12,14,16,18,20,-1,22,24,26,28,30,32,34,36,38,40,-1,-1,-1,-1,-1,-1,-1,-1,-1,-1,-1,-1,-1,-1,-1,-1,-1,-1,-1],"split_conditions":[6.1621644E-2,9.3055E3,2E0,5.7655725E0,1.9203866E-2,-3.633889E-2,-1.7508289E0,5.08838E-1,1.7826762E-3,2.46302E3,3.3124128E3,7.0285057E-3,8.867126E-1,-1.0473539E0,5.285101E-1,-4.1670734E-1,1.3462561E1,2.400224E3,-5.639516E-1,-2.9007962E-1,1.8980977E-3,-5.341546E-1,6.2211235E-3,2.1435628E-2,4.8896563E-3,1.5494074E-2,-2.0383282E-2,1.2225426E-3,-1.2442565E-2,-2.300415E-2,2.2170409E-3,-9.825738E-3,-4.333835E-2,1.1751862E-2,-6.5354565E-3,-1.7135352E-3,2.2936014E-2,-2.656564E-2,5.8782E-3,-1.8211743E-2,-3.795282E-2],"split_indices":[49,3,22,40,20,0,33,15,18,1,2,0,33,15,43,33,45,2,20,15,18,33,0,0,0,0,0,0,0,0,0,0,0,0,0,0,0,0,0,0,0],"split_type":[0,0,0,0,0,0,0,0,0,0,0,0,0,0,0,0,0,0,0,0,0,0,0,0,0,0,0,0,0,0,0,0,0,0,0,0,0,0,0,0,0],"sum_hessian":[1.4042252E3,1.3454216E3,5.88036E1,9.2526263E2,4.20159E2,1.3439224E1,4.5364372E1,3.6801398E2,5.5724866E2,2.5281898E2,1.6734001E2,1.4346917E1,3.1017456E1,3.0849258E2,5.9521397E1,3.617336E2,1.9551501E2,2.8556782E1,2.2426219E2,1.4013591E2,2.720411E1,2.0330933E1,1.0686523E1,5.315457E1,2.5533801E2,1.2506153E1,4.7015244E1,8.8691246E1,2.730424E2,1.4608097E1,1.8090692E2,1.6664333E1,1.1892449E1,1.2861385E2,9.564835E1,2.886724E1,1.1126866E2,1.0708234E1,1.6495874E1,1.0153854E1,1.0177079E1],"tree_param":{"num_deleted":"0","num_feature":"50","num_nodes":"41","size_leaf_vector":"1"}},{"base_weights":[-1.5605823E-3,7.8669393E-1,-1.8213743E-2,3.353288E-2,3.9786226E-3,6.4133674E-2,-1.6712019E-1,5.3214E-1,-1.344987E-3,-3.849381E-1,3.094638E-3,8.690906E-1,-6.851191E-2,-1.8795943E-1,1.7356873E-1,1.5169689E-1,-5.3169817E-1,-3.3434372E-2,5.641139E-2,4.0967148E-2,8.929083E-3,8.732202E-3,-3.1179324E-2,-9.4244553E-4,-1.8781766E-2,1.5450534E-3,2.2691285E-2,-7.971866E-3,3.104344E-2,1.2067548E-2,-1.9503219E-2,6.196718E-3,-8.476748E-3],"categories":[],"categories_nodes":[],"categories_segments":[],"categories_sizes":[],"default_left":[0,0,0,0,0,0,0,0,0,0,0,0,0,0,0,0,0,0,0,0,0,0,0,0,0,0,0,0,0,0,0,0,0],"id":28,"left_children":[1,3,5,-1,-1,7,9,11,13,15,17,19,21,23,25,27,29,-1,31,-1,-1,-1,-1,-1,-1,-1,-1,-1,-1,-1,-1,-1,-1],"loss_changes":[1.7862682E1,5.3196793E0,1.676078E1,0E0,0E0,2.7093498E1,1.8261654E1,2.2396729E1,2.5110119E1,1.7210052E1,1.5817428E1,1.8634369E1,1.4411737E1,2.526427E1,2.7700098E1,1.7703218E1,1.9168736E1,0E0,1.3365844E1,0E0,0E0,0E0,0E0,0E0,0E0,0E0,0E0,0E0,0E0,0E0,0E0,0E0,0E0],"parents":[2147483647,0,0,1,1,2,2,5,5,6,6,7,7,8,8,9,9,10,10,11,11,12,12,13,13,14,14,15,15,16,16,18,18],"right_children":[2,4,6,-1,-1,8,10,12,14,16,18,20,22,24,26,28,30,-1,32,-1,-1,-1,-1,-1,-1,-1,-1,-1,-1,-1,-1,-1,-1],"split_conditions":[2.31254E3,4.509719E1,3.0659935E-2,3.353288E-2,3.9786226E-3,-1.0683992E0,1.7949478E1,-4.772215E-1,-3.4272984E-2,1.7487302E0,-2.096194E0,6.809284E0,8.64302E3,1.6367459E-3,8.78885E3,8.507947E-1,5.782332E0,-3.3434372E-2,3.32469E3,4.0967148E-2,8.929083E-3,8.732202E-3,-3.1179324E-2,-9.4244553E-4,-1.8781766E-2,1.5450534E-3,2.2691285E-2,-7.971866E-3,3.104344E-2,1.2067548E-2,-1.9503219E-2,6.196718E-3,-8.476748E-3],"split_indices":[10,41,14,0,0,15,21,20,20,19,15,24,35,11,17,9,40,0,10,0,0,0,0,0,0,0,0,0,0,0,0,0,0],"split_type":[0,0,0,0,0,0,0,0,0,0,0,0,0,0,0,0,0,0,0,0,0,0,0,0,0,0,0,0,0,0,0,0,0],"sum_hessian":[1.3879459E3,2.7138075E1,1.3608077E3,1.7039776E1,1.00983E1,8.7444086E2,4.8636697E2,1.0738925E2,7.670516E2,2.1408539E2,2.722816E2,6.904325E1,3.8346004E1,3.7246005E2,3.9459155E2,4.5236282E1,1.688491E2,1.1065089E1,2.612165E2,3.573339E1,3.3309856E1,2.8116678E1,1.0229326E1,2.760375E2,9.642254E1,3.2786722E2,6.672433E1,3.0806997E1,1.4429286E1,1.825369E1,1.5059541E2,1.8232272E2,7.889377E1],"tree_param":{"num_deleted":"0","num_feature":"50","num_nodes":"33","size_leaf_vector":"1"}},{"base_weights":[-6.0596684E-4,-3.515188E-1,3.780132E-2,2.2383712E-1,-5.0434434E-1,7.554854E-1,1.969344E-2,2.0719921E-2,-1.2508061E-2,-3.7713356E-2,-3.715971E-1,3.652037E-2,3.7865639E-3,-5.2845705E-1,5.5404652E-2,-9.309404E-1,-1.7092669E-1,-0E0,-7.4312985E-1,4.071973E-2,3.773972E-2,-1.2460319E-2,-4.346942E-2,-2.5068566E-2,3.3574057E-4,1.2251173E-2,-1.21873375E-2,-3.5787687E-2,-9.956825E-3,1.2976937E-2,9.692645E-5],"categories":[],"categories_nodes":[],"categories_segments":[],"categories_sizes":[],"default_left":[0,0,0,0,0,0,0,0,0,0,0,0,0,0,0,0,0,0,0,0,0,0,0,0,0,0,0,0,0,0,0],"id":29,"left_children":[1,3,5,7,9,11,13,-1,-1,-1,15,-1,-1,17,19,21,23,25,27,-1,29,-1,-1,-1,-1,-1,-1,-1,-1,-1,-1],"loss_changes":[1.8861383E1,1.2404573E1,1.5837531E1,9.102439E0,9.729179E0,7.907341E0,2.3686003E1,0E0,0E0,0E0,1.002634E1,0E0,0E0,8.544609E0,2.5646376E1,4.9760056E0,9.171202E0,3.8250663E0,8.615692E0,0E0,1.5227877E1,0E0,0E0,0E0,0E0,0E0,0E0,0E0,0E0,0E0,0E0],"parents":[2147483647,0,0,1,1,2,2,3,3,4,4,5,5,6,6,10,10,13,13,14,14,15,15,16,16,17,17,18,18,20,20],"right_children":[2,4,6,8,10,12,14,-1,-1,-1,16,-1,-1,18,20,22,24,26,28,-1,30,-1,-1,-1,-1,-1,-1,-1,-1,-1,-1],"split_conditions":[-1.1260333E0,7.959089E-3,2.323041E3,8.660254E-1,5.4094E3,5.4507828E1,2.31312E3,2.0719921E-2,-1.2508061E-2,-3.7713356E-2,4.3857816E-1,3.652037E-2,3.7865639E-3,4.1425922E1,2.32275E3,8.7252E3,-2.0580727E1,2.30911E3,1.7353085E-1,4.071973E-2,-8.660254E-1,-1.2460319E-2,-4.346942E-2,-2.5068566E-2,3.3574057E-4,1.2251173E-2,-1.21873375E-2,-3.5787687E-2,-9.956825E-3,1.2976937E-2,9.692645E-5],"split_indices":[7,23,13,26,42,27,0,0,0,0,19,0,0,27,39,35,37,39,33,0,6,0,0,0,0,0,0,0,0,0,0],"split_type":[0,0,0,0,0,0,0,0,0,0,0,0,0,0,0,0,0,0,0,0,0,0,0,0,0,0,0,0,0,0,0],"sum_hessian":[1.385836E3,1.3719582E2,1.2486403E3,2.8009516E1,1.091863E2,2.9047411E1,1.2195928E3,1.661055E1,1.1398965E1,1.4533705E1,9.4652596E1,1.5754802E1,1.329261E1,7.2894646E1,1.1466981E3,2.3372879E1,7.127972E1,2.1053793E1,5.184085E1,1.3956428E1,1.1327417E3,1.3100811E1,1.0272068E1,1.5148401E1,5.6131317E1,1.0763743E1,1.029005E1,2.3271137E1,2.8569715E1,8.895538E1,1.0437864E3],"tree_param":{"num_deleted":"0","num_feature":"50","num_nodes":"31","size_leaf_vector":"1"}},{"base_weights":[-9.925864E-3,6.399089E-2,-1.3794474E-1,1.1188286E-1,-4.24524E-1,-3.2169172E-1,3.1769414E-2,3.5972127E-1,3.4597687E-2,2.5350628E-2,-6.331558E-1,1.579109E-1,-4.5573276E-1,1.8304256E-1,-3.3982942E-1,-2.6246153E-2,4.4447342E-1,3.8252585E-2,1.1302702E-2,-9.9156135E-1,1.3434969E-1,6.810279E-1,-2.4242726E-1,-9.540718E-1,-3.0514455E-1,-2.6775804E-1,3.5325345E-1,-1.0058393E0,-2.7347881E-2,-4.9877195E-3,1.6439887E-2,-1.1278536E-2,2.6163866E-3,-1.0050712E-2,-3.8996223E-2,-1.731646E-2,2.5804048E-2,3.5521433E-2,-0E0,9.352295E-3,-1.7668711E-2,-3.4946807E-2,-5.747033E-3,-2.2171332E-2,4.739418E-4,7.37267E-3,-2.2151366E-2,1.7391587E-2,-6.636742E-3,-1.4941812E-2,-3.9347507E-2,1.1962035E-2,-2.457053E-2],"categories":[],"categories_nodes":[],"categories_segments":[],"categories_sizes":[],"default_left":[0,0,0,0,0,0,0,0,0,0,0,0,0,0,0,0,0,0,0,0,0,0,0,0,0,0,0,0,0,0,0,0,0,0,0,0,0,0,0,0,0,0,0,0,0,0,0,0,0,0,0,0,0],"id":30,"left_children":[1,3,5,7,9,11,13,15,17,-1,19,21,23,25,27,-1,29,-1,31,33,35,37,39,41,43,45,47,49,51,-1,-1,-1,-1,-1,-1,-1,-1,-1,-1,-1,-1,-1,-1,-1,-1,-1,-1,-1,-1,-1,-1,-1,-1],"loss_changes":[1.3295246E1,2.0616634E1,1.6224934E1,1.5276376E1,2.1186321E1,1.6223799E1,1.5014086E1,2.0110874E1,1.7228207E1,0E0,1.93269E1,1.1756765E1,1.3759998E1,1.4841387E1,1.5428868E1,0E0,1.1620903E1,0E0,1.7789215E1,8.273994E0,1.2078115E1,8.309931E0,6.2671967E0,6.1968384E0,2.1606112E1,1.3064011E1,1.8566181E1,2.1634903E0,1.8677284E1,0E0,0E0,0E0,0E0,0E0,0E0,0E0,0E0,0E0,0E0,0E0,0E0,0E0,0E0,0E0,0E0,0E0,0E0,0E0,0E0,0E0,0E0,0E0,0E0],"parents":[2147483647,0,0,1,1,2,2,3,3,4,4,5,5,6,6,7,7,8,8,10,10,11,11,12,12,13,13,14,14,16,16,18,18,19,19,20,20,21,21,22,22,23,23,24,24,25,25,26,26,27,27,28,28],"right_children":[2,4,6,8,10,12,14,16,18,-1,20,22,24,26,28,-1,30,-1,32,34,36,38,40,42,44,46,48,50,52,-1,-1,-1,-1,-1,-1,-1,-1,-1,-1,-1,-1,-1,-1,-1,-1,-1,-1,-1,-1,-1,-1,-1,-1],"split_conditions":[3.0659935E-2,1.2E1,1.872948E1,-6.935493E-1,2.6266E3,7.1791E3,5.5528447E-2,9.442284E-4,1.0720128E-3,2.5350628E-2,9.30955E3,5.1824594E-1,-4.653525E0,2.1609445E-3,1.53441105E1,-2.6246153E-2,2.34012E3,3.8252585E-2,1.318531E-3,1.6391942E-1,9.915276E-3,2.38653E3,2.0953873E-3,-3.4314334E-1,8.20154E-1,-2.0202199E-1,3.3183037E3,2.1857142E-1,3.33871E3,-4.9877195E-3,1.6439887E-2,-1.1278536E-2,2.6163866E-3,-1.0050712E-2,-3.8996223E-2,-1.731646E-2,2.5804048E-2,3.5521433E-2,-0E0,9.352295E-3,-1.7668711E-2,-3.4946807E-2,-5.747033E-3,-2.2171332E-2,4.739418E-4,7.37267E-3,-2.2151366E-2,1.7391587E-2,-6.636742E-3,-1.4941812E-2,-3.9347507E-2,1.1962035E-2,-2.457053E-2],"split_indices":[14,38,21,15,1,17,14,44,11,0,17,28,31,11,40,0,1,0,11,34,15,4,11,33,29,46,2,36,4,0,0,0,0,0,0,0,0,0,0,0,0,0,0,0,0,0,0,0,0,0,0,0,0],"split_type":[0,0,0,0,0,0,0,0,0,0,0,0,0,0,0,0,0,0,0,0,0,0,0,0,0,0,0,0,0,0,0,0,0,0,0,0,0,0,0,0,0,0,0,0,0,0,0,0,0,0,0,0,0],"sum_hessian":[1.3991698E3,8.8485706E2,5.1431274E2,8.074888E2,7.736834E1,2.4793156E2,2.6638116E2,1.8954167E2,6.179471E2,1.0151093E1,6.721725E1,5.3303146E1,1.9462842E2,1.9063077E2,7.57504E1,1.1197937E1,1.7834373E2,1.0004306E1,6.0794275E2,4.606541E1,2.115184E1,2.3345577E1,2.995757E1,4.3156242E1,1.5147218E2,5.1287113E1,1.3934366E2,2.2971323E1,5.277907E1,2.5060997E1,1.5328273E2,9.791132E1,5.1003143E2,1.5904946E1,3.0160463E1,1.0436053E1,1.0715787E1,1.2981324E1,1.0364253E1,1.1009187E1,1.8948381E1,3.2881504E1,1.02747345E1,6.451118E1,8.6961006E1,2.4246326E1,2.7040785E1,1.0056211E2,3.878154E1,1.0235917E1,1.2735405E1,3.422415E1,1.8554922E1],"tree_param":{"num_deleted":"0","num_feature":"50","num_nodes":"53","size_leaf_vector":"1"}},{"base_weights":[-1.01151134E-4,1.0109041E-1,-1.3994792E-1,-2.471875E-1,1.6912675E-1,-3.6348286E-1,-0E0,3.1022547E-2,-3.683457E-1,-3.4188363E-1,2.3064058E-1,-6.078029E-1,-1.3433023E-1,6.787127E-2,-4.5858476E-1,1.1808944E-2,-4.751101E-1,-1.1184071E-1,-3.4168165E-2,3.5901716E-1,2.2509217E-2,-1.3547166E-1,-7.6723003E-1,2.167636E-2,-2.3940323E-1,-2.3112681E-3,7.604297E-1,-6.946468E-1,6.771519E-3,-2.100851E-2,-4.2565875E-3,2.1856168E-2,-1.2399205E-2,1.4124267E-2,1.3346461E-4,8.717642E-3,-5.4837707E-3,-2.5061216E-2,7.847426E-3,-5.7565393E-3,-3.0495163E-2,-4.0080663E-2,-3.1741066E-3,-2.9523758E-2,1.0829085E-3,3.9327413E-2,4.369621E-3,-5.012692E-3,-3.5196263E-2],"categories":[],"categories_nodes":[],"categories_segments":[],"categories_sizes":[],"default_left":[0,0,0,0,0,0,0,0,0,0,0,0,0,0,0,0,0,0,0,0,0,0,0,0,0,0,0,0,0,0,0,0,0,0,0,0,0,0,0,0,0,0,0,0,0,0,0,0,0],"id":31,"left_children":[1,3,5,7,9,11,13,-1,15,17,19,21,23,25,27,-1,29,31,-1,33,35,37,39,-1,41,43,45,47,-1,-1,-1,-1,-1,-1,-1,-1,-1,-1,-1,-1,-1,-1,-1,-1,-1,-1,-1,-1,-1],"loss_changes":[1.9769976E1,1.914101E1,1.8472675E1,2.0414991E1,2.1319048E1,1.2255253E1,1.1214662E1,0E0,1.0067997E1,1.2507482E1,1.5997078E1,7.616207E0,1.0687513E1,1.5770456E1,7.8852377E0,0E0,7.517273E0,1.4765972E1,0E0,1.45592575E1,1.2974564E1,8.672927E0,1.0692299E1,0E0,1.4914898E1,1.1363571E1,9.163183E0,8.041212E0,0E0,0E0,0E0,0E0,0E0,0E0,0E0,0E0,0E0,0E0,0E0,0E0,0E0,0E0,0E0,0E0,0E0,0E0,0E0,0E0,0E0],"parents":[2147483647,0,0,1,1,2,2,3,3,4,4,5,5,6,6,8,8,9,9,10,10,11,11,12,12,13,13,14,14,16,16,17,17,19,19,20,20,21,21,22,22,24,24,25,25,26,26,27,27],"right_children":[2,4,6,8,10,12,14,-1,16,18,20,22,24,26,28,-1,30,32,-1,34,36,38,40,-1,42,44,46,48,-1,-1,-1,-1,-1,-1,-1,-1,-1,-1,-1,-1,-1,-1,-1,-1,-1,-1,-1,-1,-1],"split_conditions":[1.1100864E-2,2.1015162E-2,9.2824E3,1.0720128E-3,-4.5907116E-1,1.7826762E-3,6.1621644E-2,3.1022547E-2,5.7269007E-1,1.96E1,8.588E3,2.6127142E-1,2.34312E3,1.7076014E1,7.076649E-1,1.1808944E-2,2.66246E3,-5E-1,-3.4168165E-2,3.9007325E0,2.6472014E3,-1.7042289E0,1.9261651E-3,2.167636E-2,7.02502E3,-1.4625527E0,1.26946E4,1.88801E-1,6.771519E-3,-2.100851E-2,-4.2565875E-3,2.1856168E-2,-1.2399205E-2,1.4124267E-2,1.3346461E-4,8.717642E-3,-5.4837707E-3,-2.5061216E-2,7.847426E-3,-5.7565393E-3,-3.0495163E-2,-4.0080663E-2,-3.1741066E-3,-2.9523758E-2,1.0829085E-3,3.9327413E-2,4.369621E-3,-5.012692E-3,-3.5196263E-2],"split_indices":[23,14,42,11,9,18,49,0,29,47,12,43,4,48,43,0,39,6,0,19,8,5,11,0,35,7,42,43,0,0,0,0,0,0,0,0,0,0,0,0,0,0,0,0,0,0,0,0,0],"split_type":[0,0,0,0,0,0,0,0,0,0,0,0,0,0,0,0,0,0,0,0,0,0,0,0,0,0,0,0,0,0,0,0,0,0,0,0,0,0,0,0,0,0,0,0,0,0,0,0,0],"sum_hessian":[1.3936691E3,8.06672E2,5.869971E2,1.3019939E2,6.7647266E2,2.2598225E2,3.6101483E2,1.0240648E1,1.1995874E2,7.131935E1,6.0515326E2,1.07515755E2,1.1846649E2,3.1562332E2,4.5391514E1,1.3836631E1,1.0612211E2,5.671742E1,1.4601929E1,3.7235522E2,2.3279808E2,2.8390326E1,7.9125435E1,1.177834E1,1.0668815E2,2.8683112E2,2.8792213E1,3.4281174E1,1.1110339E1,6.177564E1,4.434647E1,1.4162427E1,4.2554993E1,2.8177612E2,9.05791E1,1.0183887E2,1.3095921E2,1.0332358E1,1.8057966E1,2.5060226E1,5.4065205E1,1.0202317E1,9.648583E1,1.0361423E1,2.764697E2,1.4163892E1,1.4628322E1,1.7444574E1,1.68366E1],"tree_param":{"num_deleted":"0","num_feature":"50","num_nodes":"49","size_leaf_vector":"1"}},{"base_weights":[-6.832533E-3,1.5815878E-2,-5.234706E-1,1.1108893E-1,-1.23098835E-1,-3.297826E-2,6.724482E-2,1.3930658E-1,-3.4296326E-2,7.0463586E-1,-1.7643027E-1,1.1547613E-2,-1.3171037E-2,6.2477076E-1,5.3746168E-2,1.0893804E-3,3.182589E-2,-6.2948626E-1,-1.1506096E-1,2.598305E-2,6.391351E-3,-2.2604389E-3,8.333446E-3,-2.3182899E-2,3.1298352E-4,-1.8582756E-2,-1.6583586E-3],"categories":[],"categories_nodes":[],"categories_segments":[],"categories_sizes":[],"default_left":[0,0,0,0,0,0,0,0,0,0,0,0,0,0,0,0,0,0,0,0,0,0,0,0,0,0,0],"id":32,"left_children":[1,3,5,7,9,-1,11,13,-1,15,17,-1,-1,19,21,-1,-1,23,25,-1,-1,-1,-1,-1,-1,-1,-1],"loss_changes":[1.6434616E1,1.753246E1,2.0658808E1,2.7551212E1,2.3567062E1,0E0,4.908665E0,3.169551E1,0E0,7.0645084E0,1.3620969E1,0E0,0E0,1.0673935E1,1.916243E1,0E0,0E0,5.81295E0,1.3128572E1,0E0,0E0,0E0,0E0,0E0,0E0,0E0,0E0],"parents":[2147483647,0,0,1,1,2,2,3,3,4,4,6,6,7,7,9,9,10,10,13,13,14,14,17,17,18,18],"right_children":[2,4,6,8,10,-1,12,14,-1,16,18,-1,-1,20,22,-1,-1,24,26,-1,-1,-1,-1,-1,-1,-1,-1],"split_conditions":[6.1621644E-2,3E0,3.2166256E1,3.3697893E3,-8.660254E-1,-3.297826E-2,3.29345E3,4.54087E1,-3.4296326E-2,-1.8099108E0,-1.1001463E0,1.1547613E-2,-1.3171037E-2,2.2841086E0,8.9142E3,1.0893804E-3,3.182589E-2,1.8230202E1,-7.3574495E0,2.598305E-2,6.391351E-3,-2.2604389E-3,8.333446E-3,-2.3182899E-2,3.1298352E-4,-1.8582756E-2,-1.6583586E-3],"split_indices":[49,22,21,2,6,0,16,32,0,31,7,0,0,9,3,0,0,21,31,0,0,0,0,0,0,0,0],"split_type":[0,0,0,0,0,0,0,0,0,0,0,0,0,0,0,0,0,0,0,0,0,0,0,0,0,0,0],"sum_hessian":[1.3811439E3,1.3231416E3,5.800237E1,7.8711053E2,5.36031E2,2.9364546E1,2.8637825E1,7.7105194E2,1.6058586E1,3.1139545E1,5.0489148E2,1.8350637E1,1.0287188E1,1.1371194E2,6.5734E2,1.16981E1,1.9441446E1,5.8155624E1,4.4673587E2,7.022936E1,4.348257E1,4.1604028E2,2.4129973E2,4.798549E1,1.0170134E1,4.5462074E1,4.0127377E2],"tree_param":{"num_deleted":"0","num_feature":"50","num_nodes":"27","size_leaf_vector":"1"}},{"base_weights":[2.6407734E-2,5.07497E-2,-5.1397127E-1,8.524259E-1,3.6154736E-2,-9.633509E-1,-9.423673E-2,9.228686E-3,3.7953738E-2,-3.42055E-2,1.8877926E-1,-3.9792467E-2,-1.893042E-2,2.6760098E-1,-2.3022775E-2,8.506138E-2,-2.251009E-1,8.349315E-2,5.765924E-1,1.5439081E-2,-0E0,1.6696895E-2,-0E0,-8.379023E-3,1.0845218E-2,8.813842E-3,-3.7386941E-3,3.6267348E-2,7.1973875E-3],"categories":[],"categories_nodes":[],"categories_segments":[],"categories_sizes":[],"default_left":[0,0,0,0,0,0,0,0,0,0,0,0,0,0,0,0,0,0,0,0,0,0,0,0,0,0,0,0,0],"id":33,"left_children":[1,3,5,7,9,11,13,-1,-1,15,17,-1,-1,19,-1,21,23,25,27,-1,-1,-1,-1,-1,-1,-1,-1,-1,-1],"loss_changes":[1.8047981E1,1.50826E1,1.0512787E1,4.0222225E0,1.4125145E1,1.5410194E0,8.298793E0,0E0,0E0,2.0433594E1,1.6565931E1,0E0,0E0,1.4053138E0,0E0,2.2002466E1,1.1044485E1,1.4501165E1,1.7596832E1,0E0,0E0,0E0,0E0,0E0,0E0,0E0,0E0,0E0,0E0],"parents":[2147483647,0,0,1,1,2,2,3,3,4,4,5,5,6,6,9,9,10,10,13,13,15,15,16,16,17,17,18,18],"right_children":[2,4,6,8,10,12,14,-1,-1,16,18,-1,-1,20,-1,22,24,26,28,-1,-1,-1,-1,-1,-1,-1,-1,-1,-1],"split_conditions":[6.1621644E-2,4.63455E3,3.1508211E1,1.8658532E0,9.3055E3,3.214402E-3,1.1049068E1,9.228686E-3,3.7953738E-2,9.991714E-3,2.2275541E1,-3.9792467E-2,-1.893042E-2,1.190905E0,-2.3022775E-2,-1.0473539E0,2.1439328E0,1.2131436E-2,6.461E3,1.5439081E-2,-0E0,1.6696895E-2,-0E0,-8.379023E-3,1.0845218E-2,8.813842E-3,-3.7386941E-3,3.6267348E-2,7.1973875E-3],"split_indices":[49,17,21,19,3,18,37,0,0,23,21,0,0,29,0,15,5,23,12,0,0,0,0,0,0,0,0,0,0],"split_type":[0,0,0,0,0,0,0,0,0,0,0,0,0,0,0,0,0,0,0,0,0,0,0,0,0,0,0,0,0],"sum_hessian":[1.3866893E3,1.3286693E3,5.8020004E1,2.2117712E1,1.3065516E3,2.6819704E1,3.1200302E1,1.0807577E1,1.1310134E1,8.925733E2,4.1397833E2,1.06687975E1,1.6150906E1,2.020169E1,1.0998611E1,5.4808075E2,3.4449255E2,3.2755585E2,8.642249E1,1.0038588E1,1.0163103E1,8.285555E1,4.652252E2,3.1661502E2,2.787752E1,1.6391275E2,1.6364308E2,2.8611433E1,5.7811058E1],"tree_param":{"num_deleted":"0","num_feature":"50","num_nodes":"29","size_leaf_vector":"1"}},{"base_weights":[-7.1273404E-3,3.8480973E-1,-3.6315884E-2,5.621004E-1,-2.6144942E-2,4.8250232E-2,-1.5661462E-1,-1.4097501E-1,8.526993E-1,4.632799E-1,-1.2037965E-2,2.0925388E-2,-1.7743398E-1,-2.7765833E-2,2.6119176E-2,-0E0,1.0830749E0,6.2668437E-1,-1.7068714E-2,-5.380715E-1,3.0497631E-2,-2.9876312E-2,-1.4655809E-1,3.9511498E-2,7.902471E-3,2.3101594E-2,-9.492639E-3,-2.2658959E-2,6.6185184E-3,1.8813997E-3,-2.362187E-2,1.1309976E-3,-7.6839128E-3],"categories":[],"categories_nodes":[],"categories_segments":[],"categories_sizes":[],"default_left":[0,0,0,0,0,0,0,0,0,0,0,0,0,0,0,0,0,0,0,0,0,0,0,0,0,0,0,0,0,0,0,0,0],"id":34,"left_children":[1,3,5,7,-1,9,11,13,15,17,19,-1,21,-1,-1,-1,23,25,-1,27,29,-1,31,-1,-1,-1,-1,-1,-1,-1,-1,-1,-1],"loss_changes":[1.5569212E1,2.1315948E1,1.3101221E1,1.7537216E1,0E0,1.9021757E1,9.319847E0,2.049698E1,1.1678711E1,1.6633562E1,1.4940466E1,0E0,1.2435549E1,0E0,0E0,0E0,7.8722534E0,1.1836216E1,0E0,8.671609E0,1.5672102E1,0E0,1.028077E1,0E0,0E0,0E0,0E0,0E0,0E0,0E0,0E0,0E0,0E0],"parents":[2147483647,0,0,1,1,2,2,3,3,5,5,6,6,7,7,8,8,9,9,10,10,12,12,16,16,17,17,19,19,20,20,22,22],"right_children":[2,4,6,8,-1,10,12,14,16,18,20,-1,22,-1,-1,-1,24,26,-1,28,30,-1,32,-1,-1,-1,-1,-1,-1,-1,-1,-1,-1],"split_conditions":[-8.660254E-1,2.656E3,3E0,2.49939E3,-2.6144942E-2,2.2649424E-1,2.32517E3,1.6539338E-3,6.6984E3,3.3683252E3,-8.399174E-1,2.0925388E-2,2.3196663E3,-2.7765833E-2,2.6119176E-2,-0E0,1.4476185E0,5.3613453E1,-1.7068714E-2,2.86447E-1,9.628864E0,-2.9876312E-2,2.6506E3,3.9511498E-2,7.902471E-3,2.3101594E-2,-9.492639E-3,-2.2658959E-2,6.6185184E-3,1.8813997E-3,-2.362187E-2,1.1309976E-3,-7.6839128E-3],"split_indices":[6,2,22,39,0,43,1,11,17,8,33,0,2,0,0,0,46,27,0,20,19,0,1,0,0,0,0,0,0,0,0,0,0],"split_type":[0,0,0,0,0,0,0,0,0,0,0,0,0,0,0,0,0,0,0,0,0,0,0,0,0,0,0,0,0,0,0,0,0],"sum_hessian":[1.3739463E3,9.319754E1,1.2807487E3,8.2504974E1,1.0692567E1,7.499798E2,5.307689E2,2.3775873E1,5.87291E1,9.532976E1,6.5465E2,1.1284773E1,5.1948413E2,1.3717042E1,1.0058831E1,1.2751178E1,4.597792E1,8.305872E1,1.2271032E1,4.89833E1,6.0566675E2,1.7160265E1,5.0232388E2,3.4821224E1,1.1156698E1,7.2717964E1,1.0340761E1,3.859602E1,1.038728E1,5.841909E2,2.1475828E1,1.8586467E2,3.164592E2],"tree_param":{"num_deleted":"0","num_feature":"50","num_nodes":"33","size_leaf_vector":"1"}},{"base_weights":[-2.5253857E-2,7.2532606E-1,-4.3613654E-2,3.476701E-2,-1.6763173E-3,3.5552472E-1,-7.431592E-2,5.4000044E-1,-3.1543486E-2,3.2809198E-2,-8.5230835E-2,1.3093898E-1,1.0565617E0,-5.1324755E-1,-5.3329296E-2,-2.6613876E-2,1.55327255E-2,4.6334278E-2,3.841969E-3,-5.561985E-3,-2.681644E-2,1.446268E-3,-6.037358E-3],"categories":[],"categories_nodes":[],"categories_segments":[],"categories_sizes":[],"default_left":[0,0,0,0,0,0,0,0,0,0,0,0,0,0,0,0,0,0,0,0,0,0,0],"id":35,"left_children":[1,3,5,-1,-1,7,9,11,-1,-1,13,15,17,19,21,-1,-1,-1,-1,-1,-1,-1,-1],"loss_changes":[1.8923393E1,1.1702185E1,1.6599792E1,0E0,0E0,2.5340675E1,1.5759779E1,1.7488098E1,0E0,0E0,1.686777E1,1.9887108E1,1.5920307E1,1.0034349E1,1.770404E1,0E0,0E0,0E0,0E0,0E0,0E0,0E0,0E0],"parents":[2147483647,0,0,1,1,2,2,5,5,6,6,7,7,10,10,11,11,12,12,13,13,14,14],"right_children":[2,4,6,-1,-1,8,10,12,-1,-1,14,16,18,20,22,-1,-1,-1,-1,-1,-1,-1,-1],"split_conditions":[2.323041E3,6.2061E3,-8.660254E-1,3.476701E-2,-1.6763173E-3,2.656E3,1.0720128E-3,1.6443663E-3,-3.1543486E-2,3.2809198E-2,2.0500494E-2,2.50739E3,1.1957729E0,1.2817573E-3,3.0659935E-2,-2.6613876E-2,1.55327255E-2,4.6334278E-2,3.841969E-3,-5.561985E-3,-2.681644E-2,1.446268E-3,-6.037358E-3],"split_indices":[13,3,6,0,0,2,11,11,0,0,14,10,46,44,14,0,0,0,0,0,0,0,0],"split_type":[0,0,0,0,0,0,0,0,0,0,0,0,0,0,0,0,0,0,0,0,0,0,0],"sum_hessian":[1.3946403E3,3.1729856E1,1.3629104E3,2.0505623E1,1.1224234E1,9.542983E1,1.2674806E3,8.522686E1,1.020297E1,1.039276E1,1.2570879E3,4.8802166E1,3.6424694E1,8.506227E1,1.1720256E3,1.2725062E1,3.6077103E1,2.3089502E1,1.3335192E1,4.720461E1,3.7857666E1,6.933578E2,4.786678E2],"tree_param":{"num_deleted":"0","num_feature":"50","num_nodes":"23","size_leaf_vector":"1"}},{"base_weights":[-2.0495343E-3,2.6975307E-1,-5.3163216E-2,5.7385665E-1,7.727053E-2,-1.6471116E-1,7.481218E-2,1.7442971E-1,8.2841766E-1,3.0406233E-2,-1.6098848E-2,2.3539547E-2,-1.9132602E-1,2.8083423E-1,-1.03591934E-1,2.9082518E-2,-1.9165361E-1,3.6937871E-3,1.0343724E0,-3.91092E-1,2.0594871E-1,-0E0,-2.8435758E-1,5.4443274E-2,5.8356005E-1,-3.958638E-1,6.301789E-2,1.3942663E-2,-2.2541601E-2,3.99183E-2,1.42092435E-2,2.8711153E-4,-2.0465553E-2,-1.5438895E-2,1.068266E-2,-1.7899742E-2,7.2085317E-3,-2.59302E-3,-1.2741341E-2,1.922292E-2,-9.714497E-3,-4.6832645E-3,2.2893636E-2,1.3928895E-3,-2.0479446E-2,7.3724138E-3,-1.321924E-2],"categories":[],"categories_nodes":[],"categories_segments":[],"categories_sizes":[],"default_left":[0,0,0,0,0,0,0,0,0,0,0,0,0,0,0,0,0,0,0,0,0,0,0,0,0,0,0,0,0,0,0,0,0,0,0,0,0,0,0,0,0,0,0,0,0,0,0],"id":36,"left_children":[1,3,5,7,9,11,13,15,17,-1,19,-1,21,23,25,-1,27,-1,29,31,33,35,37,39,41,43,45,-1,-1,-1,-1,-1,-1,-1,-1,-1,-1,-1,-1,-1,-1,-1,-1,-1,-1,-1,-1],"loss_changes":[1.9064384E1,1.2326046E1,1.666116E1,7.784149E0,1.2315497E1,1.5616159E1,1.9975473E1,1.0557973E1,6.4995613E0,0E0,1.0435294E1,0E0,1.0893099E1,1.6940351E1,1.4262989E1,0E0,9.270675E0,0E0,4.7317123E0,5.8266644E0,8.458909E0,2.860436E1,1.1098053E1,3.283402E1,1.4620911E1,1.3813726E1,1.6928946E1,0E0,0E0,0E0,0E0,0E0,0E0,0E0,0E0,0E0,0E0,0E0,0E0,0E0,0E0,0E0,0E0,0E0,0E0,0E0,0E0],"parents":[2147483647,0,0,1,1,2,2,3,3,4,4,5,5,6,6,7,7,8,8,10,10,12,12,13,13,14,14,16,16,18,18,19,19,20,20,21,21,22,22,23,23,24,24,25,25,26,26],"right_children":[2,4,6,8,10,12,14,16,18,-1,20,-1,22,24,26,-1,28,-1,30,32,34,36,38,40,42,44,46,-1,-1,-1,-1,-1,-1,-1,-1,-1,-1,-1,-1,-1,-1,-1,-1,-1,-1,-1,-1],"split_conditions":[7.876455E-3,2.52211E3,8.9142E3,2.34025E3,-5.584053E-1,2.31655E3,3.0659935E-2,2.3165022E3,-1.9056903E-1,3.0406233E-2,4.2148166E0,2.3539547E-2,-2.5152144E-1,1.9203866E-2,3.5799544E-2,2.9082518E-2,6.216853E-1,3.6937871E-3,4.965209E0,7.1558E3,1.0301105E-3,-1.1260333E0,9.519319E-3,-6.238125E-1,-2.9007962E-1,3.562552E1,6.1621644E-2,1.3942663E-2,-2.2541601E-2,3.99183E-2,1.42092435E-2,2.8711153E-4,-2.0465553E-2,-1.5438895E-2,1.068266E-2,-1.7899742E-2,7.2085317E-3,-2.59302E-3,-1.2741341E-2,1.922292E-2,-9.714497E-3,-4.6832645E-3,2.2893636E-2,1.3928895E-3,-2.0479446E-2,7.3724138E-3,-1.321924E-2],"split_indices":[23,4,3,30,33,4,14,2,33,0,24,0,7,20,14,0,28,0,24,35,44,7,23,15,15,41,49,0,0,0,0,0,0,0,0,0,0,0,0,0,0,0,0,0,0,0,0],"split_type":[0,0,0,0,0,0,0,0,0,0,0,0,0,0,0,0,0,0,0,0,0,0,0,0,0,0,0,0,0,0,0,0,0,0,0,0,0,0,0,0,0,0,0,0,0,0,0],"sum_hessian":[1.3780089E3,2.1589642E2,1.1621124E3,8.190908E1,1.3398735E2,6.228415E2,5.39271E2,3.330313E1,4.860595E1,1.1742108E1,1.2224524E2,1.5695851E1,6.071456E2,2.5129855E2,2.8797244E2,1.0411412E1,2.289172E1,1.1895478E1,3.6710472E1,4.6018993E1,7.622624E1,1.9811629E2,4.0902933E2,1.4539651E2,1.0590205E2,1.0514646E2,1.8282599E2,1.0202945E1,1.2688775E1,2.2538538E1,1.4171935E1,1.9049122E1,2.6969872E1,1.2151016E1,6.4075226E1,5.6165154E1,1.4195114E2,1.7185779E2,2.3717155E2,5.7263393E1,8.813312E1,2.0168337E1,8.573371E1,4.1003468E1,6.414299E1,1.3525854E2,4.756744E1],"tree_param":{"num_deleted":"0","num_feature":"50","num_nodes":"47","size_leaf_vector":"1"}},{"base_weights":[2.2162239E-3,6.796592E-1,-1.5338773E-2,3.7412312E-2,1.1267681E-3,-6.0292906E-1,8.0533065E-3,-1.033943E-1,-3.576331E-2,-4.5857444E-1,2.9305259E-2,-2.125702E-2,1.5762793E-2,4.9961773E-3,-7.515132E-1,-5.0133575E-2,1.4951108E-1,-2.962413E-2,-1.3646145E-3,5.8065834E-3,-5.0781686E-3,1.3437971E-2,1.323896E-3],"categories":[],"categories_nodes":[],"categories_segments":[],"categories_sizes":[],"default_left":[0,0,0,0,0,0,0,0,0,0,0,0,0,0,0,0,0,0,0,0,0,0,0],"id":37,"left_children":[1,3,5,-1,-1,7,9,11,-1,13,15,-1,-1,-1,17,19,21,-1,-1,-1,-1,-1,-1],"loss_changes":[1.6715849E1,1.2251238E1,1.8751513E1,0E0,0E0,1.4598511E1,1.2601651E1,1.18097315E1,0E0,1.053912E1,1.186702E1,0E0,0E0,0E0,5.8293724E0,2.1588745E1,1.5296677E1,0E0,0E0,0E0,0E0,0E0,0E0],"parents":[2147483647,0,0,1,1,2,2,5,5,6,6,7,7,9,9,10,10,14,14,15,15,16,16],"right_children":[2,4,6,-1,-1,8,10,12,-1,14,16,-1,-1,-1,18,20,22,-1,-1,-1,-1,-1,-1],"split_conditions":[2.3244E3,6.292187E-1,2.30558E3,3.7412312E-2,1.1267681E-3,8.142857E-2,-1.4625527E0,7.58E3,-3.576331E-2,-2.541695E-1,8.9541E3,-2.125702E-2,1.5762793E-2,4.9961773E-3,9.024983E1,8.244715E-3,1.097885E-2,-2.962413E-2,-1.3646145E-3,5.8065834E-3,-5.0781686E-3,1.3437971E-2,1.323896E-3],"split_indices":[1,34,0,0,0,36,7,12,0,33,3,0,0,0,45,23,23,0,0,0,0,0,0],"split_type":[0,0,0,0,0,0,0,0,0,0,0,0,0,0,0,0,0,0,0,0,0,0,0],"sum_hessian":[1.375771E3,3.451744E1,1.3412535E3,1.7410803E1,1.710664E1,5.1221073E1,1.2900325E3,2.881474E1,2.2406332E1,5.427237E1,1.2357601E3,1.502403E1,1.379071E1,1.6910667E1,3.7361702E1,7.418963E2,4.938638E2,2.7173382E1,1.0188318E1,2.4202892E2,4.998674E2,1.2679817E2,3.670656E2],"tree_param":{"num_deleted":"0","num_feature":"50","num_nodes":"23","size_leaf_vector":"1"}},{"base_weights":[-1.6190458E-2,8.0866987E-1,-3.101975E-2,3.6632486E-2,5.5713374E-3,-4.0029225E-1,-3.2460412E-3,-1.8635985E-1,-3.370582E-2,9.799115E-2,-1.2032988E-1,2.122615E-1,-7.3406565E-1,-7.796735E-2,2.4231133E-1,-3.4724382E-1,2.584434E-2,-2.505377E-3,2.7895996E-2,-3.0856615E-2,-3.8207462E-3,-3.3203533E-4,-3.0420465E-2,3.5991387E-3,1.83999E-2,-5.88384E-3,-1.9600755E-2,-1.5460962E-3,1.3027038E-2],"categories":[],"categories_nodes":[],"categories_segments":[],"categories_sizes":[],"default_left":[0,0,0,0,0,0,0,0,0,0,0,0,0,0,0,0,0,0,0,0,0,0,0,0,0,0,0,0,0],"id":38,"left_children":[1,3,5,-1,-1,7,9,11,-1,13,15,17,19,21,23,25,27,-1,-1,-1,-1,-1,-1,-1,-1,-1,-1,-1,-1],"loss_changes":[1.641608E1,5.150485E0,1.3633581E1,0E0,0E0,1.3541114E1,1.4922649E1,1.648197E1,0E0,1.717592E1,1.95943E1,9.592558E0,4.963442E0,1.8399021E1,1.6409103E1,1.0126194E1,1.1456669E1,0E0,0E0,0E0,0E0,0E0,0E0,0E0,0E0,0E0,0E0,0E0,0E0],"parents":[2147483647,0,0,1,1,2,2,5,5,6,6,7,7,9,9,10,10,11,11,12,12,13,13,14,14,15,15,16,16],"right_children":[2,4,6,-1,-1,8,10,12,-1,14,16,18,20,22,24,26,28,-1,-1,-1,-1,-1,-1,-1,-1,-1,-1,-1,-1],"split_conditions":[4.63455E3,6.9071895E-1,2.0500494E-2,3.6632486E-2,5.5713374E-3,4.8773617E-1,1.097885E-2,1.2923299E-3,-3.370582E-2,1.4473562E-3,9.2304E3,1.1874367E-3,2.66009E3,7.553948E1,9.146223E0,6.398346E-1,3.2166256E1,-2.505377E-3,2.7895996E-2,-3.0856615E-2,-3.8207462E-3,-3.3203533E-4,-3.0420465E-2,3.5991387E-3,1.83999E-2,-5.88384E-3,-1.9600755E-2,-1.5460962E-3,1.3027038E-2],"split_indices":[17,29,14,0,0,15,23,44,0,44,42,44,0,32,24,36,21,0,0,0,0,0,0,0,0,0,0,0,0],"split_type":[0,0,0,0,0,0,0,0,0,0,0,0,0,0,0,0,0,0,0,0,0,0,0,0,0,0,0,0,0],"sum_hessian":[1.3707864E3,2.266784E1,1.3481185E3,1.2578093E1,1.0089746E1,9.210447E1,1.256014E3,7.2583374E1,1.9521097E1,6.7138763E2,5.8462646E2,4.183519E1,3.0748182E1,3.0117874E2,3.702089E2,2.2985518E2,3.5477124E2,2.9757113E1,1.2078078E1,1.9677528E1,1.1070653E1,2.825321E2,1.864663E1,2.8041544E2,8.979344E1,1.5607947E2,7.377572E1,2.9796332E2,5.6807938E1],"tree_param":{"num_deleted":"0","num_feature":"50","num_nodes":"29","size_leaf_vector":"1"}},{"base_weights":[1.3680239E-3,2.4086349E-1,-4.182393E-2,6.1795837E-1,9.718064E-3,-2.2000526E-1,5.087644E-2,1.6876397E-1,9.208579E-1,-1.3604397E-1,5.922475E-1,2.8558534E-1,-3.0717322E-1,-3.227139E-1,1.2070714E-1,2.1614825E-2,-1.4316128E-2,1.0957803E0,1.2774449E-2,1.3583815E-2,-2.455814E-2,3.619946E-2,-0E0,-1.8847243E-1,1.0792738E0,-4.866031E-1,-5.5360943E-2,-1.6441965E-1,-3.588355E-2,4.0023732E-1,8.098596E-3,3.7677262E-2,1.9931013E-2,-2.1657567E-2,5.141061E-3,1.5493619E-2,-1.9219937E-2,1.6586574E-2,4.3456037E-2,-2.4258515E-2,-9.27758E-3,-1.26668615E-2,3.8793553E-3,-3.157638E-2,4.9983634E-4,2.1170998E-2,1.4573482E-3,-1.726975E-2,2.5099826E-3],"categories":[],"categories_nodes":[],"categories_segments":[],"categories_sizes":[],"default_left":[0,0,0,0,0,0,0,0,0,0,0,0,0,0,0,0,0,0,0,0,0,0,0,0,0,0,0,0,0,0,0,0,0,0,0,0,0,0,0,0,0,0,0,0,0,0,0,0,0],"id":39,"left_children":[1,3,5,7,9,11,13,15,17,19,21,23,25,27,29,-1,-1,31,-1,33,-1,-1,-1,35,37,39,41,43,-1,45,47,-1,-1,-1,-1,-1,-1,-1,-1,-1,-1,-1,-1,-1,-1,-1,-1,-1,-1],"loss_changes":[1.4070276E1,1.7820976E1,1.8966658E1,9.947039E0,1.142091E1,1.7418993E1,